<?xml version="1.0"?>
<opencv_storage>
<opencv_ml_svm>
  <format>3</format>
  <svmType>C_SVC</svmType>
  <kernel>
    <type>POLY</type>
    <degree>3.</degree>
    <gamma>209.02068769649611</gamma>
    <coef0>0.</coef0></kernel>
  <C>1.</C>
  <term_criteria><epsilon>1.1920928955078125e-07</epsilon>
    <iterations>1000</iterations></term_criteria>
  <var_count>300</var_count>
  <class_count>2</class_count>
  <class_labels type_id="opencv-matrix">
    <rows>2</rows>
    <cols>1</cols>
    <dt>i</dt>
    <data>
      0 1</data></class_labels>
  <sv_total>17</sv_total>
  <support_vectors>
    <_>
      0.0848215818 0.0294278953 0.0415452644 0.0242347382 0.0173105262
      0.00692421058 0.000865526323 0.0666455254 0.0424107909
      0.00259657903 0.0579902641 0.0709731579 0.0450073704 0.0432763174
      0.0493350029 0.0138484212 0.0398142114 0.0251002647 0.0631834194
      0.00692421058 0.0510660522 0.0666455254 0.0753007904 0.0813594759
      0.0683765784 0.137618691 0.129828945 0.0571247377 0.0259657893
      0.00173105265 0.0796284229 0.00952078961 0.0675110519 0.0605868436
      0.0510660522 0.0294278953 0.00605868455 0.0493350029 0.00952078961
      0.0112518426 0.00778973708 0.0467384234 0.0614523701 0.0216381587
      0.00519315805 0.0787628964 0.0510660522 0.032024473 0.0432763174
      0.0476039499 0.0527971052 0.132425532 0.0701076314 0.00778973708
      0.0900147408 0.0605868436 0.0657799989 0.0692421049 0.0259657893
      0.0588557906 0.0164449997 0.0173105262 0.0389486849 0.0138484212
      0. 0.0848215818 0.0311589483 0.0346210524 0.0302934218
      0.0761663169 0.0579902641 0.0787628964 0.0190415792 0.00432763156
      0.0233692117 0.0579902641 0.00605868455 0.0424107909 0.0631834194
      0.0579902641 0.0709731579 0.0796284229 0.0519315787 0.0753007904
      0.0623178966 0.0683765784 0.00778973708 0.0553936847 0.0147139477
      0.0285623688 0.0233692117 0.0458728969 0.0233692117 0.0337555259
      0.0675110519 0.00605868455 0.0363521054 0.0251002647 0.0294278953
      0.0709731579 0.0640489459 0.0891492143 0.0709731579 0.0493350029
      0.118577108 0.0328899994 0.0173105262 0.0675110519 0.0328899994
      0.00605868455 0.0804939494 0.00952078961 0.0155794742 0.0398142114
      0.00865526311 0.0251002647 0.00173105265 0.0424107909 0.0233692117
      0.0502005294 0.0372176319 0.165315524 0.0398142114 0.0588557906
      0.193012372 0.00432763156 0.00346210529 0.0441418439 0.119442634
      0.0813594759 0.0389486849 0.00605868455 0.0718386844 0.0276968423
      0.0623178966 0.0346210524 0.0484694764 0.0242347382 0.0337555259
      0.0372176319 0.0908802673 0.0484694764 0.0588557906 0.0467384234
      0.0147139477 0.0415452644 0.0553936847 0.109056316 0.0285623688
      0.0337555259 0.0406797379 0.0112518426 0.0467384234 0.0683765784
      0.00519315805 0.0242347382 0.0562592112 0.0735697374 0.0242347382
      0.0579902641 0.0545281582 0.0259657893 0.0908802673 0.0380831584
      0.0380831584 0.0251002647 0.0856871083 0.0571247377 0.0813594759
      0.0562592112 0.0467384234 0.00865526311 0.0450073704 0.0675110519
      0.0173105262 0.0519315787 0.0588557906 0.0450073704 0.0441418439
      0.0389486849 0.0510660522 0.0268313158 0.0527971052 0.0484694764
      0.00346210529 0.00865526311 0.0640489459 0.0363521054 0.0389486849
      0.0337555259 0.0649144724 0.0285623688 0.0138484212 0.0129828947
      0.0406797379 0.00346210529 0.0207726322 0.0649144724 0.0778973699
      0.0302934218 0.0553936847 0.0900147408 0.122039214 0.0502005294
      0.177432895 0.0112518426 0.0450073704 0.0380831584 0.0778973699
      0.000865526323 0.0216381587 0.0233692117 0.0406797379
      0.00865526311 0.0874181613 0.118577108 0.00692421058 0.0519315787
      0.132425532 0.0882836878 0.0614523701 0.0562592112 0.0649144724
      0.102132104 0.0354865789 0.0657799989 0.0398142114 0.0354865789
      0.0579902641 0.0173105262 0.0623178966 0.0536626317 0.0597213171
      0.0346210524 0.0450073704 0.0631834194 0.0640489459 0.0605868436
      0.0268313158 0.0207726322 0.0164449997 0.0389486849 0.0467384234
      0.0398142114 0.0588557906 0.0276968423 0.0242347382 0.0268313158
      0.0354865789 0.0380831584 0.0207726322 0.0476039499 0.0502005294
      0.0978044793 0.0493350029 0.0761663169 0.0354865789 0.136753157
      0.0761663169 0.0406797379 0.0259657893 0.0553936847 0.0216381587
      0.0354865789 0.00692421058 0.0545281582 0.0363521054 0.00605868455
      0.0718386844 0.00692421058 0.0649144724 0.0328899994 0.101266585
      0.127232373 0.0571247377 0.0908802673 0.0545281582 0.0718386844
      0.0709731579 0.0640489459 0.0753007904 0.000865526323 0.0251002647
      0.12290474 0.0778973699 0.0519315787 0.0389486849 0.0138484212
      0.00432763156 0.0216381587 0.0424107909 0.0502005294 0.0527971052
      0.106459737 0.0285623688 0.00432763156 0.118577108 0.103863157
      0.0406797379 0.00432763156</_>
    <_>
      0.019055767 0.0317596123 0.033876922 0.067753844 0.0423461497
      0.0211730748 0.0275249984 0.122803837 0.0402288437 0.0254076906
      0.0465807654 0.0148211531 0.0952788368 0.0232903827 0.0592846125
      0.0402288437 0.016938461 0.071988456 0.0296423063 0.0275249984
      0.0211730748 0.0423461497 0.0444634594 0.019055767 0.0317596123
      0.0571673028 0.0529326871 0.0402288437 0.0529326871 0.0211730748
      0.0296423063 0.019055767 0.0317596123 0.06987115 0.0275249984
      0.0741057619 0.019055767 0.0783403814 0.016938461 0.0211730748
      0.019055767 0.0317596123 0.0423461497 0.035994228 0.0296423063
      0.213848054 0.0550499968 0.0995134562 0.038111534 0.0232903827
      0.0550499968 0.0465807654 0.0592846125 0.0402288437 0.016938461
      0.016938461 0.0465807654 0.0423461497 0.0656365305 0.0550499968
      0.0508153811 0.0423461497 0.0571673028 0.0656365305 0.00211730762
      0.0275249984 0.0868096128 0.0846922994 0.0592846125 0.06987115
      0.0444634594 0.0571673028 0.067753844 0.0275249984 0.033876922
      0.0296423063 0.0296423063 0.0296423063 0.0508153811 0.0423461497
      0.0254076906 0.0232903827 0.0148211531 0.0148211531 0.0148211531
      0.033876922 0.033876922 0.0254076906 0.0275249984 0.0486980751
      0.0571673028 0.105865374 0.0148211531 0.0550499968 0.033876922
      0.035994228 0.0423461497 0.0550499968 0.0762230679 0.0465807654
      0.0275249984 0.203261524 0.0550499968 0.016938461 0.20537883
      0.038111534 0.0296423063 0.071988456 0.0889269188 0.035994228
      0.033876922 0.033876922 0.0465807654 0.0423461497 0.0529326871
      0.0254076906 0.0254076906 0.0254076906 0.0232903827 0.0529326871
      0.035994228 0.033876922 0.019055767 0.0529326871 0.211730748
      0.0275249984 0.0148211531 0.0529326871 0.0741057619 0.0402288437
      0.0571673028 0.0211730748 0.067753844 0.0317596123 0.0317596123
      0.0402288437 0.0931615308 0.0614019185 0.0762230679 0.033876922
      0.0275249984 0.035994228 0.0741057619 0.0656365305 0.0402288437
      0.0656365305 0.0275249984 0.0571673028 0.0889269188 0.0592846125
      0.038111534 0.0084692305 0.0254076906 0.038111534 0.0127038453
      0.0465807654 0.016938461 0.019055767 0.0571673028 0.033876922
      0.0423461497 0.0635192245 0.033876922 0.0423461497 0.035994228
      0.0465807654 0.0275249984 0.0148211531 0.0465807654 0.0254076906
      0.0402288437 0.033876922 0.0317596123 0.105865374 0. 0.0254076906
      0.0592846125 0.035994228 0.0529326871 0.035994228 0.0635192245
      0.0317596123 0.0486980751 0.0296423063 0.033876922 0.0910442248
      0.035994228 0.0317596123 0.035994228 0.0444634594 0.0211730748
      0.033876922 0.06987115 0.0529326871 0.0211730748 0.0317596123
      0.0317596123 0.035994228 0.0529326871 0.0656365305 0.0275249984
      0.0211730748 0.114334606 0.0444634594 0.105865374 0.0296423063
      0.038111534 0.0741057619 0.0402288437 0.038111534 0.038111534
      0.0762230679 0.0465807654 0.035994228 0.0571673028 0.215965375
      0.0254076906 0.0402288437 0.0550499968 0.0423461497 0.0550499968
      0.0127038453 0.0486980751 0.0444634594 0.0127038453 0.033876922
      0.0444634594 0.033876922 0.0592846125 0.0656365305 0.0232903827
      0.0592846125 0.038111534 0.067753844 0.0486980751 0.0148211531
      0.0741057619 0.0465807654 0.0465807654 0.0529326871 0.0635192245
      0.0465807654 0.0486980751 0.0317596123 0.0444634594 0.0486980751
      0.0550499968 0.0402288437 0.071988456 0.0317596123 0.0508153811
      0.0571673028 0.0592846125 0.0296423063 0.124921143 0.18208845
      0.0635192245 0.0910442248 0.0254076906 0.067753844 0.0148211531
      0.0105865374 0.033876922 0.035994228 0.033876922 0.0211730748
      0.0275249984 0.0275249984 0.019055767 0.0508153811 0.016938461
      0.0783403814 0.0571673028 0.0508153811 0.0232903827 0.0592846125
      0.0741057619 0.0275249984 0.0148211531 0.0296423063 0.0275249984
      0.0084692305 0.035994228 0.124921143 0.0317596123 0.154563457
      0.0254076906 0.038111534 0.0296423063 0.0592846125 0.033876922
      0.0232903827 0.019055767 0.0931615308 0.0804576874 0.0402288437
      0.158798069 0.0931615308 0.0296423063 0.0105865374</_>
    <_>
      0.0924078301 0.0237620138 0.031682685 0.0184815656 0.0132011184
      0.0026402236 0.00528044719 0.060725145 0.0554446988 0.0026402236
      0.031682685 0.0739262626 0.02904246 0.02904246 0.0528044738
      0.0184815656 0.0396033563 0.031682685 0.0396033563 0.0105608944
      0.0369631313 0.06336537 0.0554446988 0.0554446988 0.0712860376
      0.0712860376 0.05808492 0.0475240275 0.0211217888 0.0026402236
      0.0712860376 0. 0.0528044738 0.0950480551 0.02904246 0.0211217888
      0.00528044719 0.0422435775 0.0158413425 0.0158413425 0.0132011184
      0.0396033563 0.0528044738 0.0264022369 0.0105608944 0.137291625
      0.031682685 0.0158413425 0.0422435775 0.0422435775 0.0554446988
      0.113529615 0.0422435775 0.0132011184 0.060725145 0.0712860376
      0.060725145 0.031682685 0.0475240275 0.0501642488 0.031682685
      0.00528044719 0.031682685 0.0158413425 0. 0.0818469301
      0.0211217888 0.0369631313 0.0105608944 0.0369631313 0.0897676051
      0.0818469301 0.0237620138 0.00528044719 0.0264022369 0.0105608944
      0.00792067125 0.0211217888 0.0792067125 0.0369631313 0.0712860376
      0.0844871551 0.0396033563 0.0765664876 0.0422435775 0.0475240275
      0.00528044719 0.06336537 0.0158413425 0.0211217888 0.0132011184
      0.0396033563 0.0264022369 0.0369631313 0.0501642488 0.00792067125
      0.031682685 0.0105608944 0.0158413425 0.0765664876 0.0475240275
      0.16369386 0.06336537 0.0818469301 0.0950480551 0.0422435775
      0.0237620138 0.031682685 0.0211217888 0.00792067125 0.0844871551
      0.00792067125 0.0026402236 0.0369631313 0.0132011184 0.0184815656
      0.0026402236 0.0448838025 0.031682685 0.066005595 0.00792067125
      0.13201119 0.031682685 0.0950480551 0.198016778 0.00528044719
      0.0026402236 0.060725145 0.0712860376 0.0686458126 0.02904246
      0.00528044719 0.0844871551 0.0184815656 0.06336537 0.02904246
      0.0976882726 0.0343229063 0.0422435775 0.0448838025 0.0501642488
      0.031682685 0.05808492 0.0448838025 0.00792067125 0.0132011184
      0.0712860376 0.0924078301 0.0237620138 0.0264022369 0.0448838025
      0.00528044719 0.0369631313 0.0739262626 0.0026402236 0.0105608944
      0.02904246 0.066005595 0.0184815656 0.05808492 0.0501642488
      0.02904246 0.0554446988 0.0448838025 0.0237620138 0.0132011184
      0.0765664876 0.060725145 0.0396033563 0.0501642488 0.031682685
      0.0105608944 0.0528044738 0.0871273801 0.0211217888 0.0396033563
      0.060725145 0.060725145 0.0422435775 0.0448838025 0.0422435775
      0.0211217888 0.0528044738 0.0475240275 0.00528044719 0.00528044719
      0.0264022369 0.0554446988 0.0528044738 0.0448838025 0.06336537
      0.0448838025 0.0184815656 0.00792067125 0.0871273801 0.
      0.0105608944 0.0792067125 0.0844871551 0.0343229063 0.0739262626
      0.0871273801 0.19009611 0.02904246 0.16897431 0.0026402236
      0.031682685 0.0554446988 0.0554446988 0.00792067125 0.0105608944
      0.0237620138 0.031682685 0.0132011184 0.0818469301 0.229699463
      0.00528044719 0.02904246 0.129370958 0.0818469301 0.06336537
      0.0448838025 0.0792067125 0.06336537 0.031682685 0.0686458126
      0.0264022369 0.0739262626 0.0422435775 0.00792067125 0.060725145
      0.066005595 0.0554446988 0.0132011184 0.05808492 0.0739262626
      0.0712860376 0.05808492 0.0237620138 0.0184815656 0.0264022369
      0.031682685 0.0554446988 0.0396033563 0.0448838025 0.0422435775
      0.0158413425 0.0369631313 0.060725145 0.0396033563 0.0237620138
      0.0343229063 0.0264022369 0.0897676051 0.0686458126 0.124090515
      0.0475240275 0.19009611 0.0369631313 0.0501642488 0.0237620138
      0.0343229063 0.02904246 0.0422435775 0.00528044719 0.0765664876
      0.0396033563 0.0105608944 0.0686458126 0.0132011184 0.0712860376
      0.0184815656 0.0897676051 0.105608948 0.0369631313 0.0792067125
      0.06336537 0.0686458126 0.0501642488 0.0844871551 0.06336537
      0.0026402236 0.0475240275 0.06336537 0.0712860376 0.0712860376
      0.0528044738 0.0158413425 0.00528044719 0.0132011184 0.0369631313
      0.0924078301 0.0369631313 0.100328498 0.0237620138 0.00528044719
      0.105608948 0.12673074 0.0501642488 0.0026402236</_>
    <_>
      0.0589303561 0.0372191705 0.0589303561 0.0155079886 0.00930479262
      0.00310159777 0.00620319555 0.0899463296 0.0589303561 0.0124063911
      0.0434223674 0.0868447348 0.0496255644 0.0372191705 0.0341175757
      0.0155079886 0.0713367462 0.0310159773 0.0620319545 0.00620319555
      0.0341175757 0.0806415379 0.0806415379 0.074438341 0.0930479318
      0.0341175757 0.0868447348 0.0124063911 0.0620319545 0.00930479262
      0.0527271591 0.00310159777 0.0434223674 0.0589303561 0.0372191705
      0.0496255644 0.0310159773 0.0465239659 0.00930479262 0.00620319555
      0.00620319555 0.0434223674 0.040320769 0.0465239659 0.074438341
      0.0775399432 0.0527271591 0.0899463296 0.074438341 0.0341175757
      0.040320769 0.0527271591 0.0589303561 0.0124063911 0.0465239659
      0.0527271591 0.0713367462 0.0713367462 0.0434223674 0.040320769
      0.0186095852 0.0124063911 0.0124063911 0.00310159777 0.
      0.117860712 0.0465239659 0.0527271591 0.0465239659 0.0620319545
      0.0620319545 0.0465239659 0.0372191705 0.00620319555 0.0186095852
      0.0713367462 0.00930479262 0.0589303561 0.0837431401 0.0589303561
      0.124063909 0.102352723 0.0589303561 0.0682351515 0.0589303561
      0.0651335493 0.00930479262 0.0496255644 0.0186095852 0.0372191705
      0.0186095852 0.00620319555 0.0310159773 0.0620319545 0.0496255644
      0.00310159777 0.0341175757 0.0217111837 0.0434223674 0.0806415379
      0.0682351515 0.10855592 0.074438341 0.0279143788 0.136470303
      0.0558287576 0.0124063911 0.0620319545 0.0341175757 0.
      0.0992511287 0.00620319555 0.0248127822 0.0558287576 0.0279143788
      0.0155079886 0.00930479262 0.0372191705 0.0434223674 0.0899463296
      0.0589303561 0.0496255644 0.040320769 0.0620319545 0.142673492
      0.0186095852 0.00620319555 0.0496255644 0.10855592 0.0899463296
      0.0527271591 0.0155079886 0.0434223674 0.0341175757 0.0372191705
      0.0496255644 0.0589303561 0.0372191705 0.0527271591 0.0372191705
      0.0527271591 0.0713367462 0.105454318 0.0620319545 0.0186095852
      0.0248127822 0.0682351515 0.0248127822 0.0372191705 0.0372191705
      0.0527271591 0.0124063911 0.0341175757 0.0527271591 0.00930479262
      0.0124063911 0.0682351515 0.0558287576 0.0434223674 0.0496255644
      0.0682351515 0.0620319545 0.040320769 0.0310159773 0.074438341
      0.0527271591 0.074438341 0.0651335493 0.0775399432 0.0589303561
      0.0527271591 0.0217111837 0.0558287576 0.0465239659 0.0279143788
      0.0434223674 0.0589303561 0.0899463296 0.0775399432 0.040320769
      0.0465239659 0.0434223674 0.0496255644 0.0775399432 0.
      0.00930479262 0.0961495265 0.040320769 0.0589303561 0.0372191705
      0.0589303561 0.00930479262 0.0217111837 0.00930479262 0.0372191705
      0.00930479262 0.0310159773 0.0496255644 0.0651335493 0.0341175757
      0.0837431401 0.0558287576 0.117860712 0.0682351515 0.151978284
      0.0124063911 0.0682351515 0.0248127822 0.0651335493 0.0124063911
      0.0434223674 0.040320769 0.0806415379 0.0248127822 0.0837431401
      0.130267099 0.00620319555 0.0496255644 0.0682351515 0.0620319545
      0.0527271591 0.0868447348 0.0527271591 0.0682351515 0.0558287576
      0.040320769 0.0310159773 0.0620319545 0.0713367462 0.0310159773
      0.0496255644 0.0589303561 0.0775399432 0.0930479318 0.0372191705
      0.0465239659 0.0651335493 0.0806415379 0.0341175757 0.0527271591
      0.0310159773 0.0465239659 0.0868447348 0.0186095852 0.0465239659
      0.0868447348 0.0372191705 0.0589303561 0.0589303561 0.040320769
      0.0372191705 0.0496255644 0.0310159773 0.0527271591 0.0713367462
      0.0620319545 0.0279143788 0.074438341 0.0713367462 0.0713367462
      0.0527271591 0.0527271591 0.0248127822 0.040320769 0.00620319555
      0.0248127822 0.0806415379 0.00310159777 0.0589303561 0.00930479262
      0.0651335493 0.0558287576 0.0806415379 0.0248127822 0.0961495265
      0.10855592 0.0465239659 0.0279143788 0.0620319545 0.0589303561
      0.0651335493 0.00620319555 0.0341175757 0.0899463296 0.0806415379
      0.0899463296 0.0527271591 0.0248127822 0.0186095852 0.00620319555
      0.0496255644 0.074438341 0.0620319545 0.111657515 0.0310159773
      0.00930479262 0.0713367462 0.189197451 0.0558287576 0.00930479262</_>
    <_>
      0.013454508 0.013454508 0. 0.0672725439 0. 0.013454508
      0.0403635241 0.0672725439 0.0269090161 0. 0.09418156 0.0403635241
      0. 0.0269090161 0.09418156 0.0403635241 0.0269090161 0.0269090161
      0.09418156 0. 0.0538180321 0.0269090161 0.0672725439 0.363271743
      0.0538180321 0.0538180321 0.134545088 0.0672725439 0.0538180321 0.
      0.013454508 0.013454508 0.0538180321 0.107636064 0. 0.013454508
      0.013454508 0.0538180321 0.013454508 0.0269090161 0.013454508
      0.0672725439 0.0403635241 0.0403635241 0. 0.161454096 0.0403635241
      0.107636064 0.013454508 0.0538180321 0. 0. 0.0672725439
      0.0269090161 0.09418156 0.0269090161 0.0672725439 0.18836312
      0.0403635241 0.0538180321 0. 0. 0.0269090161 0.0538180321 0. 0.
      0.0403635241 0.0538180321 0.0269090161 0.0269090161 0.0269090161
      0.0538180321 0.0538180321 0.013454508 0.013454508 0. 0.0269090161
      0.0672725439 0.0538180321 0.013454508 0.0672725439 0.161454096
      0.013454508 0.0538180321 0.0403635241 0.0269090161 0. 0.0403635241
      0.013454508 0.013454508 0.0807270482 0. 0.013454508 0.0269090161
      0.0807270482 0. 0.013454508 0.0403635241 0.013454508 0.0538180321
      0. 0.0672725439 0.0269090161 0.0403635241 0.107636064 0.0269090161
      0.013454508 0.121090576 0.0807270482 0.0269090161 0.0538180321
      0.013454508 0.0403635241 0.0269090161 0. 0. 0.013454508
      0.013454508 0.0269090161 0.134545088 0.0403635241 0.0269090161
      0.0403635241 0.0672725439 0.0538180321 0. 0. 0.0403635241
      0.013454508 0.0807270482 0.013454508 0. 0.1479996 0. 0.0403635241
      0. 0.107636064 0. 0.0403635241 0.013454508 0.0538180321
      0.0269090161 0.0672725439 0.0538180321 0.013454508 0.0403635241
      0.0269090161 0.121090576 0.134545088 0.0403635241 0.013454508
      0.0269090161 0.0403635241 0.0807270482 0.0269090161 0.09418156
      0.0403635241 0.013454508 0.0403635241 0.0672725439 0.0538180321
      0.0538180321 0.121090576 0.0538180321 0.013454508 0.0538180321
      0.0403635241 0.0269090161 0.121090576 0.013454508 0.0403635241
      0.0672725439 0. 0.0672725439 0.0269090161 0.0269090161
      0.0403635241 0.013454508 0.134545088 0.0538180321 0.0269090161
      0.0403635241 0.0403635241 0.0672725439 0. 0.0403635241
      0.0403635241 0.013454508 0.0672725439 0.013454508 0. 0.0269090161
      0.0403635241 0.0269090161 0.0269090161 0. 0.013454508 0.0672725439
      0. 0. 0.013454508 0.0807270482 0.0538180321 0.0807270482
      0.174908608 0.013454508 0.013454508 0.0672725439 0. 0.
      0.0269090161 0.0538180321 0.013454508 0. 0.0403635241 0.1479996
      0.0269090161 0. 0.013454508 0.0403635241 0.0672725439 0.
      0.0538180321 0.0538180321 0. 0.013454508 0.0403635241 0.
      0.0403635241 0.0403635241 0.0672725439 0.0403635241 0.0672725439
      0.0269090161 0.0538180321 0.013454508 0.0538180321 0.0807270482
      0.0672725439 0.013454508 0.134545088 0.0269090161 0.0538180321
      0.0269090161 0.013454508 0.0807270482 0.0269090161 0.0672725439
      0.0269090161 0.0269090161 0.013454508 0.1479996 0.0672725439
      0.0269090161 0.013454508 0.0807270482 0.0269090161 0. 0.0807270482
      0.0807270482 0.0807270482 0.013454508 0.0269090161 0.0269090161
      0.013454508 0.013454508 0.013454508 0. 0.0269090161 0.0807270482
      0. 0.013454508 0.0403635241 0.0269090161 0.013454508 0.
      0.013454508 0. 0.013454508 0.0269090161 0.0403635241 0.
      0.0269090161 0.0403635241 0.0269090161 0.0538180321 0.0538180321
      0. 0.0269090161 0.0269090161 0.0538180321 0.0269090161
      0.0269090161 0.013454508 0.107636064 0.013454508 0.121090576
      0.0269090161 0. 0.0269090161</_>
    <_>
      0.0084205335 0.0547334701 0.0547334701 0.143149078 0.0463129357
      0.0399975367 0.0231564678 0.0736796707 0.027366735 0.0210513342
      0.0547334701 0.0084205335 0.0421026684 0.0189462006 0.0736796707
      0.0547334701 0.0568386018 0.0652591363 0.0484180674 0.0210513342
      0.0421026684 0.0547334701 0.0147359343 0.151569605 0.0210513342
      0.0315770023 0.0526283346 0.094731003 0.0821002051 0.0231564678
      0.016841067 0.016841067 0.0547334701 0.067364268 0.0147359343
      0.0736796707 0.0484180674 0.061048869 0.0378924012 0.0505232029
      0.0231564678 0.0294718686 0.0399975367 0.0315770023 0.0357872695
      0.0821002051 0.0652591363 0.128413141 0.027366735 0.0399975367
      0.0357872695 0.0231564678 0.0652591363 0.0231564678 0.033682134
      0.0442078039 0.0399975367 0.094731003 0.101046406 0.061048869
      0.0231564678 0.0294718686 0.033682134 0.0863104686 0. 0.0210513342
      0.113677204 0.105256669 0.0399975367 0.0757848024 0.0210513342
      0.067364268 0.1389388 0.0252616014 0.0421026684 0.0568386018
      0.0357872695 0.0231564678 0.0652591363 0.0484180674 0.0147359343
      0.0484180674 0.0147359343 0.0484180674 0.0210513342 0.0442078039
      0.0378924012 0.0378924012 0.061048869 0.061048869 0.0778899342
      0.0210513342 0.027366735 0.0505232029 0.0357872695 0.027366735
      0.0547334701 0.0694693998 0.0842053369 0.0484180674 0.0357872695
      0.0926258713 0.033682134 0.0210513342 0.0694693998 0.0778899342
      0.0631540045 0.0568386018 0.1389388 0.016841067 0.016841067
      0.0442078039 0.0357872695 0.0505232029 0.0757848024 0.0357872695
      0.0357872695 0.0315770023 0.0378924012 0.0526283346 0.0399975367
      0.027366735 0.0189462006 0.0757848024 0.14525421 0.0189462006
      0.0147359343 0.0421026684 0.0463129357 0.027366735 0.0799950734
      0.027366735 0.033682134 0.0231564678 0.0694693998 0.0694693998
      0.107361808 0.0736796707 0.0694693998 0.0357872695 0.016841067
      0.0189462006 0.0757848024 0.027366735 0.0799950734 0.094731003
      0.027366735 0.0421026684 0.122097738 0.0505232029 0.0484180674
      0.0189462006 0.0799950734 0.0694693998 0.0126308007 0.0294718686
      0.0105256671 0.027366735 0.0631540045 0.0252616014 0.0463129357
      0.098941274 0.0484180674 0.0905207396 0.0210513342 0.0799950734
      0.0252616014 0.0084205335 0.0589437373 0.0399975367 0.0399975367
      0.0463129357 0.0231564678 0.0568386018 0.0084205335 0.0821002051
      0.0631540045 0.061048869 0.0505232029 0.0357872695 0.0526283346
      0.0421026684 0.0399975367 0.0252616014 0.0378924012 0.115782335
      0.0652591363 0.0147359343 0.0715745389 0.0757848024 0.027366735
      0.027366735 0.0757848024 0.0421026684 0.0399975367 0.0399975367
      0.0378924012 0.0357872695 0.0231564678 0.0505232029 0.0189462006
      0.0463129357 0.0505232029 0.0799950734 0.033682134 0.0421026684
      0.0231564678 0.107361808 0.0421026684 0.0189462006 0.0589437373
      0.0484180674 0.0315770023 0.0463129357 0.033682134 0.0505232029
      0.0378924012 0.0252616014 0.0378924012 0.0357872695 0.0463129357
      0.033682134 0.0357872695 0.0463129357 0.0105256671 0.0421026684
      0.0905207396 0.0505232029 0.0821002051 0.067364268 0.0484180674
      0.067364268 0.061048869 0.0799950734 0.0589437373 0.016841067
      0.0757848024 0.0294718686 0.0799950734 0.098941274 0.10946694
      0.0442078039 0.107361808 0.033682134 0.0778899342 0.103151537
      0.0736796707 0.0884156078 0.0799950734 0.0842053369 0.0526283346
      0.0757848024 0.0863104686 0.0421026684 0.0589437373 0.130518273
      0.107361808 0.0147359343 0.0294718686 0.0842053369 0.0294718686
      0.0252616014 0.0736796707 0.033682134 0.0463129357 0.0231564678
      0.0231564678 0.0442078039 0.0189462006 0.0652591363 0.0210513342
      0.0547334701 0.0547334701 0.027366735 0.033682134 0.0442078039
      0.0547334701 0.0252616014 0.0252616014 0.0294718686 0.0442078039
      0.0126308007 0.0442078039 0.0821002051 0.0357872695 0.0736796707
      0.0399975367 0.0357872695 0.0231564678 0.0505232029 0.0357872695
      0.0463129357 0.0210513342 0.0799950734 0.122097738 0.0463129357
      0.0926258713 0.0526283346 0.0294718686 0.0399975367</_>
    <_>
      0.00770567916 0.0154113583 0.0154113583 0.0616454333 0.0231170375
      0.0154113583 0.038528394 0.107879505 0.0308227167 0.00770567916
      0.046234075 0.0154113583 0.0308227167 0. 0.0616454333 0.0231170375
      0.0616454333 0.0616454333 0.0308227167 0.00770567916 0.0154113583
      0.046234075 0.0308227167 0.138702229 0.00770567916 0.0539397523
      0.0308227167 0.09246815 0.046234075 0.0308227167 0.0154113583
      0.00770567916 0.0154113583 0.115585186 0.0154113583 0.115585186
      0.0308227167 0.038528394 0.00770567916 0.0616454333 0.038528394
      0.0308227167 0.038528394 0.0154113583 0.0308227167 0.200347647
      0.0693511143 0.09246815 0.00770567916 0.0154113583 0.0308227167
      0.0308227167 0.0539397523 0.0231170375 0.0231170375 0.00770567916
      0.038528394 0.0231170375 0.100173824 0.0616454333 0. 0.0154113583
      0.038528394 0. 0. 0.00770567916 0.0847624689 0.100173824
      0.0308227167 0.0693511143 0.0154113583 0.0539397523 0.100173824
      0.0308227167 0.038528394 0.0308227167 0.0154113583 0.0154113583
      0.0616454333 0.0539397523 0.0308227167 0.0231170375 0.00770567916
      0.0154113583 0.0154113583 0.0231170375 0.038528394 0.046234075
      0.038528394 0.0231170375 0.0693511143 0.0616454333 0.0308227167
      0.0616454333 0. 0.0154113583 0.00770567916 0.046234075
      0.0231170375 0.0308227167 0.0308227167 0.115585186 0.00770567916
      0. 0.161819264 0.038528394 0.0154113583 0.0308227167 0.0770567879
      0.0154113583 0.0154113583 0.046234075 0.0154113583 0.046234075
      0.0308227167 0.0308227167 0.00770567916 0.0231170375 0.00770567916
      0.0539397523 0.0154113583 0.046234075 0.00770567916 0.0616454333
      0.223464683 0. 0.0154113583 0.0154113583 0.0231170375 0.038528394
      0.115585186 0.00770567916 0.0308227167 0. 0.046234075 0.0539397523
      0.09246815 0.038528394 0.0231170375 0.0308227167 0.0231170375
      0.0154113583 0.038528394 0.0154113583 0.0308227167 0.0693511143
      0.0154113583 0.0231170375 0.046234075 0.046234075 0.038528394
      0.00770567916 0.038528394 0.0308227167 0. 0.046234075 0.0231170375
      0. 0.0308227167 0. 0.046234075 0.00770567916 0.0154113583
      0.0231170375 0. 0.0154113583 0.0231170375 0.00770567916
      0.0308227167 0.0308227167 0.0308227167 0.0231170375 0.00770567916
      0.0616454333 0. 0.0154113583 0.0616454333 0.0231170375 0.038528394
      0.0154113583 0.046234075 0.0539397523 0.0231170375 0.0231170375
      0.0231170375 0.09246815 0.0539397523 0.00770567916 0.046234075
      0.0847624689 0.00770567916 0.00770567916 0.046234075 0.0693511143
      0.038528394 0.00770567916 0.0154113583 0.0231170375 0.0308227167
      0.0154113583 0.00770567916 0.0308227167 0.0539397523 0.107879505
      0.138702229 0.0308227167 0.0308227167 0.0616454333 0.0154113583
      0.0231170375 0.038528394 0.038528394 0.0308227167 0.0308227167
      0.046234075 0.208053336 0.0231170375 0.0231170375 0.0231170375 0.
      0.0231170375 0. 0.00770567916 0.038528394 0. 0.0308227167
      0.0847624689 0.0539397523 0.0770567879 0.0308227167 0.
      0.0693511143 0.0231170375 0.0770567879 0.0539397523 0.00770567916
      0.0770567879 0.0154113583 0.0616454333 0.046234075 0.0693511143
      0.046234075 0.0847624689 0.0154113583 0.0231170375 0.0770567879
      0.038528394 0.0308227167 0.09246815 0.038528394 0.0308227167
      0.0847624689 0.0539397523 0.046234075 0.0308227167 0.47775209
      0.0693511143 0.0770567879 0.00770567916 0.0616454333 0.0231170375
      0.00770567916 0.09246815 0.00770567916 0.0231170375 0.00770567916
      0.00770567916 0.0154113583 0.0231170375 0.0539397523 0.0231170375
      0.0231170375 0.0154113583 0.0308227167 0.00770567916 0.038528394
      0.038528394 0.00770567916 0.0231170375 0.0231170375 0.0231170375
      0.0154113583 0.0231170375 0.0693511143 0.00770567916 0.138702229
      0.00770567916 0.038528394 0.038528394 0.0539397523 0.046234075
      0.00770567916 0.038528394 0.0539397523 0.0693511143 0.038528394
      0.107879505 0.0539397523 0. 0.0616454333</_>
    <_>
      0.021391958 0.00950753689 0.0178266317 0.0404070318 0.0415954739
      0.0332763791 0.0166381896 0.0808140635 0.0285226125 0.00475376844
      0.032087937 0.0166381896 0.0499145687 0.010695979 0.021391958
      0.0178266317 0.053479895 0.0190150738 0.010695979 0.0130728632
      0.00831909478 0.0451608002 0.0190150738 0.0439723581 0.00950753689
      0.0451608002 0.0308994967 0.0511030108 0.0237688422 0.032087937
      0.0225804001 0.0392185897 0.0202035159 0.120032661 0.00356532657
      0.0178266317 0.0380301476 0.042783916 0.0249572843 0.0178266317
      0.0178266317 0.010695979 0.00594221056 0.0273341704 0.0796256214
      0.131917074 0.0344648212 0.0285226125 0.0261457264 0.0404070318
      0.0225804001 0.0380301476 0.0202035159 0.0582336672 0.00950753689
      0.0237688422 0.0582336672 0.0558567829 0.0475376844 0.0796256214
      0.0285226125 0.0130728632 0.0190150738 0.0190150738 0.324444711
      0.0368417054 0.0594221093 0.0237688422 0.0166381896 0.0308994967
      0.0130728632 0.120032661 0.0249572843 0.00118844211 0.0190150738
      0.0178266317 0.0273341704 0.0154497484 0.0202035159 0.0463492423
      0.0154497484 0.0225804001 0.00950753689 0.0237688422 0.0154497484
      0.0202035159 0.0332763791 0.0356532633 0.262645721 0.0237688422
      0.0356532633 0.0273341704 0.0118844211 0.0344648212 0.0261457264
      0.0178266317 0.0154497484 0.021391958 0.0415954739 0.0606105514
      0.0261457264 0.12954019 0.0178266317 0.00594221056 0.351778865
      0.0285226125 0.010695979 0.0261457264 0.0404070318 0.0261457264
      0.0166381896 0.0130728632 0.032087937 0.0178266317 0.0202035159
      0.0439723581 0.0154497484 0.0237688422 0.0154497484 0.0285226125
      0.0154497484 0.0202035159 0.00594221056 0.131917074 0.192527622
      0.00713065313 0.042783916 0.032087937 0.0724949688 0.0439723581
      0.0166381896 0.021391958 0.0285226125 0.0142613063 0.0261457264
      0.0190150738 0.0938869268 0.0261457264 0.0130728632 0.0249572843
      0.0154497484 0.0285226125 0.0439723581 0.021391958 0.0606105514
      0.0130728632 0.0178266317 0.0285226125 0.0570452251 0.032087937
      0.0308994967 0.00237688422 0.0475376844 0.0938869268 0.117655776
      0.0202035159 0.0118844211 0.0285226125 0.0249572843 0.0415954739
      0.0356532633 0.0701180845 0.0297110546 0.010695979 0.00713065313
      0.0356532633 0.0225804001 0.00594221056 0.0285226125 0.021391958
      0.0202035159 0.053479895 0.0190150738 0.0380301476 0. 0.042783916
      0.0594221093 0.0463492423 0.0475376844 0.0249572843 0.021391958
      0.0202035159 0.042783916 0.0154497484 0.0487261266 0.0285226125
      0.0249572843 0.0154497484 0.0570452251 0.0404070318 0.0237688422
      0.0261457264 0.0202035159 0.0237688422 0.0249572843 0.00356532657
      0.053479895 0.0392185897 0.0487261266 0.0202035159 0.0154497484
      0.0368417054 0.0879447162 0.032087937 0.0463492423 0.0237688422
      0.021391958 0.0344648212 0.0475376844 0.0308994967 0.0332763791
      0.0202035159 0.00950753689 0.00356532657 0.0166381896 0.14617838
      0.10695979 0.00713065313 0.0225804001 0.0178266317 0.0225804001
      0.0225804001 0.0558567829 0.0237688422 0.00237688422 0.0487261266
      0.021391958 0.0736834109 0.042783916 0.0392185897 0.0178266317
      0.148555264 0.0118844211 0.032087937 0.0154497484 0.0118844211
      0.118844219 0.0475376844 0.0261457264 0.105771348 0.0617989935
      0.0202035159 0.0404070318 0.0118844211 0.0356532633 0.0582336672
      0.0285226125 0.0273341704 0.236499995 0.0475376844 0.0166381896
      0.0463492423 0.0570452251 0.0344648212 0.0606105514 0.188962296
      0.0154497484 0.021391958 0.0202035159 0.0332763791 0.00713065313
      0.0142613063 0.021391958 0.00713065313 0.0202035159 0.0118844211
      0.0166381896 0.0332763791 0.00950753689 0.0344648212 0.0190150738
      0.0178266317 0.032087937 0.0332763791 0.0154497484 0.0724949688
      0.0724949688 0.032087937 0.010695979 0.0154497484 0.0261457264
      0.16875878 0.0308994967 0.123597987 0.0225804001 0.0867562741
      0.0285226125 0.0202035159 0.00950753689 0.0297110546 0.0166381896
      0.0225804001 0.010695979 0.0974522531 0.0285226125 0.0308994967
      0.159251243 0.0629874319 0.0237688422 0.00594221056</_>
    <_>
      0.0534345061 0.0445287526 0.026717253 0.026717253 0.0534345061 0.
      0.0356230028 0.0623402558 0.0712460056 0.0089057507 0.0712460056
      0.0712460056 0.026717253 0.0178115014 0.0089057507 0.0623402558
      0.0534345061 0.0445287526 0.026717253 0.0356230028 0.0356230028
      0.026717253 0.0178115014 0.0623402558 0.0801517591 0.0089057507
      0.0623402558 0.0712460056 0.0623402558 0. 0.0356230028
      0.0534345061 0.0623402558 0.124680512 0.026717253 0.0890575051
      0.0534345061 0.0445287526 0.0534345061 0.026717253 0.0356230028
      0.026717253 0.0534345061 0.0712460056 0.0089057507 0.0089057507
      0.0178115014 0.0089057507 0.0534345061 0.115774758 0.0534345061
      0.0712460056 0.0623402558 0.0089057507 0.0356230028 0.0979632586
      0.0534345061 0.0712460056 0.0712460056 0.0979632586 0.0890575051
      0.0356230028 0.0445287526 0.0445287526 0. 0.0712460056
      0.0623402558 0.0178115014 0.0623402558 0.026717253 0.0356230028
      0.106869012 0.0178115014 0.026717253 0.115774758 0.0178115014
      0.0089057507 0.026717253 0.0623402558 0.0534345061 0. 0.0623402558
      0.0356230028 0.0801517591 0.0356230028 0. 0.0445287526
      0.0623402558 0.0089057507 0.0623402558 0.0356230028 0.0178115014
      0.0445287526 0.0890575051 0.0356230028 0.0178115014 0.0445287526
      0.0445287526 0.0356230028 0.0712460056 0.0534345061 0.0178115014
      0. 0.0801517591 0.0178115014 0.0445287526 0.026717253 0.0801517591
      0.0445287526 0. 0.0979632586 0.026717253 0.0712460056 0.0445287526
      0.0178115014 0.026717253 0.0089057507 0.0534345061 0.0356230028
      0.0623402558 0.0356230028 0.0712460056 0.0623402558 0.106869012
      0.0801517591 0.0445287526 0.0178115014 0.0356230028 0.0979632586
      0.0178115014 0.0890575051 0.0445287526 0.026717253 0.026717253
      0.0356230028 0.0089057507 0.124680512 0.0089057507 0.0445287526
      0.0801517591 0.0712460056 0.0801517591 0.0356230028 0.142492011
      0.026717253 0.0445287526 0.0445287526 0.0623402558 0.026717253
      0.0445287526 0.0089057507 0.0089057507 0.115774758 0.0890575051 0.
      0.106869012 0.0712460056 0.026717253 0.0979632586 0.0890575051
      0.0623402558 0.0356230028 0.0445287526 0.026717253 0.0356230028
      0.0445287526 0.0356230028 0.0445287526 0.0445287526 0.0801517591
      0.0178115014 0.0356230028 0.0356230028 0.0445287526 0.0089057507
      0.0890575051 0.160303518 0.0445287526 0.026717253 0.0801517591
      0.0356230028 0.0178115014 0.0801517591 0. 0.0089057507
      0.0534345061 0.0445287526 0.0979632586 0.0623402558 0.0890575051
      0.0623402558 0.0534345061 0.026717253 0.0178115014 0.0890575051
      0.0089057507 0.0801517591 0.115774758 0.0712460056 0.0712460056
      0.0356230028 0.115774758 0.0089057507 0.0623402558 0. 0.026717253
      0.0356230028 0.0801517591 0.0801517591 0.0178115014 0.0356230028
      0.0445287526 0.0712460056 0.026717253 0.0712460056 0.0089057507 0.
      0.026717253 0.026717253 0.0534345061 0.0089057507 0.0534345061
      0.0801517591 0.026717253 0.0534345061 0.0623402558 0.0356230028
      0.0712460056 0.115774758 0.0356230028 0.0534345061 0.0979632586
      0.0534345061 0.0089057507 0.0534345061 0.026717253 0.0890575051
      0.115774758 0.0801517591 0.026717253 0.0445287526 0.0445287526
      0.0712460056 0.0712460056 0.0534345061 0.0534345061 0.0178115014
      0.0356230028 0.0623402558 0.0089057507 0.0356230028 0.0534345061
      0.0445287526 0.0890575051 0.151397765 0.0712460056 0.0534345061
      0.0356230028 0.0712460056 0.0445287526 0.0356230028 0.0445287526
      0.0623402558 0.0178115014 0.026717253 0.0623402558 0.0178115014 0.
      0.0178115014 0.0356230028 0.0890575051 0.0178115014 0.0445287526
      0.0445287526 0.0534345061 0.106869012 0.0801517591 0.0356230028
      0.0445287526 0.026717253 0.0890575051 0.0089057507 0.106869012 0.
      0.026717253 0.0178115014 0.106869012 0.0623402558 0.0356230028
      0.0712460056 0.0979632586 0.0623402558 0.0356230028 0.0712460056
      0.0356230028 0.026717253 0. 0.0356230028 0.0534345061 0.0178115014</_>
    <_>
      0.117315479 0.0304151233 0.0564852282 0.0608302467 0.0347601399
      0.0173800699 0.0260701068 0.0173800699 0.0564852282 0.0130350534
      0.0521402135 0.0217250884 0.0695202798 0.0477951951 0.0651752651
      0.0130350534 0.0434501767 0.0304151233 0.00869003497 0.0521402135
      0.0347601399 0.00434501749 0.00434501749 0.0173800699 0.0130350534
      0.104280427 0.165110677 0. 0.0564852282 0.0260701068 0.117315479
      0.0434501767 0.00869003497 0.0912453681 0.0738653019 0.0608302467
      0.0260701068 0.00869003497 0.0391051583 0.0260701068 0.0260701068
      0.0347601399 0.00869003497 0.0260701068 0.0173800699 0.0651752651
      0.0825553387 0.0304151233 0.0217250884 0.0391051583 0.0738653019
      0.160765648 0.169455692 0.0304151233 0.0477951951 0. 0.0477951951
      0.00869003497 0.0434501767 0.0347601399 0.0304151233 0.0608302467
      0.0304151233 0.0304151233 0. 0.0347601399 0.0869003534
      0.0260701068 0.0217250884 0.13904056 0.0695202798 0.0782103166
      0.0477951951 0.0434501767 0.00434501749 0.00869003497 0.0173800699
      0.0217250884 0.0217250884 0.112970456 0.0521402135 0.0391051583
      0.0130350534 0.0304151233 0. 0.0477951951 0.0130350534
      0.0869003534 0.0391051583 0.0608302467 0.0260701068 0.0564852282
      0.0477951951 0.0130350534 0.0347601399 0.0521402135 0.00434501749
      0.0304151233 0.0434501767 0.0217250884 0.0608302467 0.0260701068
      0.0782103166 0.0738653019 0.0217250884 0.0521402135 0.0304151233
      0.0217250884 0.0912453681 0.0130350534 0.00869003497 0.0217250884
      0.0173800699 0.0217250884 0.0347601399 0.0434501767 0.0217250884
      0.099935405 0.0173800699 0.0173800699 0.0130350534 0.13035053
      0.0260701068 0.108625442 0.165110677 0.00434501749 0.0173800699
      0.0608302467 0.00869003497 0.0564852282 0.0651752651 0.0130350534
      0.0477951951 0.0391051583 0.099935405 0.0477951951 0.0825553387
      0.0477951951 0.0564852282 0.186835766 0.0955903903 0.00434501749
      0.0173800699 0.0347601399 0.0347601399 0.0521402135 0.0260701068
      0.134695545 0.0869003534 0.0347601399 0.0347601399 0.0217250884
      0.0130350534 0.0434501767 0.0130350534 0.0304151233 0.0347601399
      0.0304151233 0.0521402135 0.00869003497 0.0391051583 0.0608302467
      0.0260701068 0.0651752651 0.0130350534 0.0434501767 0.0477951951
      0.0477951951 0.0347601399 0.0434501767 0.0217250884 0.0651752651
      0.0260701068 0.0217250884 0.0130350534 0.0434501767 0.0955903903
      0.0825553387 0.0173800699 0.0130350534 0.0391051583 0.0434501767
      0.104280427 0.0173800699 0.00869003497 0.0477951951 0.0130350534
      0.0130350534 0.0738653019 0.0477951951 0.0564852282 0.0304151233
      0.0260701068 0.0217250884 0.0608302467 0.0347601399 0.0651752651
      0.0391051583 0.0782103166 0.0217250884 0.0130350534 0.0173800699
      0.0391051583 0.0217250884 0.0260701068 0.0347601399 0.0608302467
      0.112970456 0.0564852282 0.0217250884 0.0130350534 0.0347601399
      0.00434501749 0.0521402135 0.13035053 0.0130350534 0.0173800699
      0.0477951951 0.104280427 0.191180781 0.0260701068 0.0304151233
      0.0217250884 0.0391051583 0.00869003497 0.0173800699 0.0260701068
      0.0912453681 0.0347601399 0.0260701068 0.0477951951 0.0912453681
      0.0477951951 0.0217250884 0.112970456 0.0869003534 0.0608302467
      0.0304151233 0.0304151233 0.0347601399 0.0608302467 0.117315479
      0.0304151233 0.0173800699 0.0304151233 0.0173800699 0.0173800699
      0.0347601399 0.0825553387 0.0434501767 0.0260701068 0.00434501749
      0.117315479 0.0347601399 0.0695202798 0.0738653019 0.0651752651
      0.0391051583 0.0173800699 0.0260701068 0.0304151233 0.0130350534
      0.0477951951 0.0173800699 0.0391051583 0.0521402135 0.0130350534
      0.0130350534 0.108625442 0.0391051583 0.0260701068 0.0130350534
      0.00434501749 0.26939109 0.0130350534 0. 0.134695545 0.0521402135
      0.0217250884 0.117315479 0.0217250884 0.0130350534 0.00869003497
      0.0304151233 0.0608302467 0.0130350534 0.0434501767 0.0434501767
      0.0217250884 0.0347601399 0.0130350534 0.0130350534 0.0173800699
      0.0304151233 0.0391051583 0.0260701068 0.0782103166 0.0130350534
      0.0434501767 0.0173800699</_>
    <_>
      0.0565950312 0.0339570194 0. 0. 0.0339570194 0. 0. 0.113190062
      0.0339570194 0. 0.0792330429 0.0792330429 0.0339570194
      0.0226380117 0.0565950312 0.0113190059 0.0339570194 0.0226380117
      0.101871051 0.0113190059 0.0452760234 0.0679140389 0.0565950312
      0.0905520469 0.0339570194 0.0905520469 0.113190062 0.0113190059
      0.0565950312 0. 0.0452760234 0. 0.0565950312 0.0792330429
      0.0226380117 0.0113190059 0.0113190059 0.0339570194 0.0113190059
      0.0113190059 0.0113190059 0.0226380117 0. 0.0226380117 0.
      0.181104094 0.0113190059 0.0226380117 0.0792330429 0.0679140389
      0.0679140389 0.0792330429 0.0113190059 0. 0.0792330429
      0.0452760234 0.135828078 0.0679140389 0.0452760234 0.124509066
      0.0113190059 0. 0.0226380117 0.0113190059 0. 0.0452760234
      0.0226380117 0.0452760234 0. 0.0452760234 0.0339570194
      0.0905520469 0.0113190059 0. 0.0226380117 0.0452760234 0.
      0.0226380117 0.0792330429 0.0679140389 0.0339570194 0.0792330429
      0.0226380117 0.0679140389 0.0452760234 0.0565950312 0.
      0.0452760234 0. 0. 0.0339570194 0.0565950312 0.0113190059 0.
      0.0339570194 0.0339570194 0.0113190059 0.0452760234 0. 0.113190062
      0.0452760234 0.135828078 0.0339570194 0.0339570194 0.203742102
      0.0226380117 0. 0.0339570194 0.0452760234 0. 0.0226380117 0. 0. 0.
      0.0113190059 0. 0. 0.0565950312 0. 0.0452760234 0.0226380117
      0.0679140389 0.0339570194 0.169785097 0.113190062 0. 0.
      0.0452760234 0.0226380117 0.0792330429 0.0452760234 0. 0.169785097
      0.0113190059 0.0226380117 0.0226380117 0.0792330429 0.0339570194
      0.0565950312 0.0226380117 0.0905520469 0.0452760234 0.0679140389
      0.0339570194 0. 0. 0.0339570194 0.0226380117 0.0226380117 0.
      0.0452760234 0. 0.0905520469 0.0679140389 0.0113190059
      0.0113190059 0.0226380117 0.0339570194 0.0113190059 0.0565950312
      0.0792330429 0. 0.0339570194 0.0113190059 0.0113190059
      0.0339570194 0.0679140389 0.0339570194 0.0679140389 0.0339570194
      0.0226380117 0.0113190059 0.0339570194 0.0565950312 0.0113190059
      0.0565950312 0.101871051 0.0113190059 0.0679140389 0.0113190059
      0.0226380117 0. 0.0565950312 0.0339570194 0. 0. 0.0565950312
      0.0679140389 0.0339570194 0. 0.0452760234 0.0226380117
      0.0113190059 0. 0.0452760234 0. 0.0339570194 0.113190062
      0.158466086 0.0452760234 0.0565950312 0.124509066 0. 0.0226380117
      0.147147074 0.0113190059 0.0792330429 0.0226380117 0.0565950312 0.
      0.0113190059 0.0226380117 0. 0. 0.0565950312 0.30561316 0.
      0.0113190059 0.101871051 0.0905520469 0. 0. 0.0565950312
      0.0565950312 0.0113190059 0.0339570194 0.0226380117 0.0792330429
      0.0452760234 0.0226380117 0.0226380117 0.124509066 0.0452760234
      0.0226380117 0.0339570194 0.0452760234 0.0792330429 0.0339570194
      0.0226380117 0.0226380117 0.0452760234 0.0452760234 0.0339570194
      0.0452760234 0.0792330429 0.0565950312 0. 0.0339570194
      0.0905520469 0. 0.0226380117 0.0113190059 0.0113190059
      0.0565950312 0.0339570194 0.0339570194 0.0113190059 0.0339570194
      0.0226380117 0.0679140389 0.0339570194 0.0226380117 0.0113190059
      0.0226380117 0. 0.0113190059 0.0226380117 0. 0.0452760234 0.
      0.0339570194 0.0226380117 0.0565950312 0.113190062 0.0565950312
      0.0339570194 0.101871051 0.0565950312 0.0679140389 0.0452760234
      0.0452760234 0. 0.0339570194 0.158466086 0.0452760234 0.0679140389
      0.0226380117 0. 0. 0.0113190059 0. 0.0792330429 0.0226380117
      0.0339570194 0.0113190059 0. 0.0792330429 0.215061113 0.0452760234
      0.0339570194</_>
    <_>
      0.0122004561 0. 0.0122004561 0. 0.0122004561 0. 0. 0.0610022806 0.
      0.0244009122 0.0122004561 0. 0. 0. 0.0122004561 0.0244009122
      0.0488018245 0.0244009122 0.0122004561 0. 0. 0.0366013683 0.
      0.0610022806 0.0610022806 0.329412311 0.0732027367 0.0488018245
      0.0122004561 0. 0.0732027367 0.0122004561 0.0610022806
      0.0244009122 0.0122004561 0.0488018245 0.0122004561 0.0122004561
      0. 0.0122004561 0. 0.0122004561 0.0122004561 0. 0.0122004561
      0.170806393 0. 0.0244009122 0.0122004561 0. 0.0244009122
      0.0244009122 0.0244009122 0. 0.0366013683 0.0122004561
      0.0244009122 0.0122004561 0.0366013683 0.0488018245 0. 0.
      0.109804109 0.0122004561 0. 0.0122004561 0.0488018245 0.0366013683
      0. 0.0122004561 0.0244009122 0.0244009122 0.0122004561 0.
      0.0244009122 0. 0. 0. 0.0244009122 0. 0.0122004561 0.0366013683 0.
      0.0366013683 0.0244009122 0. 0. 0.0122004561 0. 0.0244009122 0.
      0.207407758 0. 0. 0.0366013683 0. 0.0122004561 0. 0.0244009122
      0.0488018245 0.0122004561 0.219608217 0.0732027367 0.0854031965
      0.170806393 0. 0. 0.0122004561 0.0244009122 0. 0.0366013683 0. 0.
      0.0122004561 0.0366013683 0.0854031965 0. 0.0366013683
      0.0122004561 0.0244009122 0.0244009122 0.0244009122 0.0122004561
      0.0854031965 0.170806393 0. 0. 0.0122004561 0.0732027367
      0.0122004561 0.0122004561 0.0122004561 0.0976036489 0.0244009122
      0.0366013683 0. 0.0122004561 0. 0.0244009122 0.0244009122
      0.0244009122 0.0244009122 0. 0. 0. 0.0244009122 0.0122004561
      0.0122004561 0.0488018245 0.0244009122 0.0244009122 0.
      0.0122004561 0.0488018245 0. 0.0244009122 0. 0.122004561 0.
      0.0366013683 0.0244009122 0.0244009122 0.0122004561 0.
      0.0366013683 0.0122004561 0.0366013683 0.0122004561 0.0488018245
      0.0122004561 0.0122004561 0.0122004561 0. 0.158605933 0.
      0.0122004561 0. 0. 0.0244009122 0.0122004561 0.0610022806 0.
      0.0244009122 0.0610022806 0. 0.0488018245 0.0244009122
      0.0122004561 0. 0. 0.0366013683 0.0122004561 0.0366013683 0.
      0.0244009122 0. 0. 0.0122004561 0. 0. 0. 0.0244009122 0.0610022806
      0.0244009122 0.40261507 0.0122004561 0.0244009122 0.0244009122
      0.0366013683 0. 0.0122004561 0. 0.0366013683 0. 0.0732027367
      0.219608217 0. 0.0122004561 0.0732027367 0.0732027367 0. 0.
      0.0244009122 0.0122004561 0.0366013683 0.0122004561 0.0122004561
      0.0122004561 0. 0.0244009122 0.0122004561 0.0610022806
      0.0122004561 0. 0.0122004561 0.0366013683 0.0366013683 0.
      0.0366013683 0.0610022806 0.0244009122 0. 0.0854031965 0.
      0.0122004561 0.0122004561 0. 0.0366013683 0.0732027367
      0.0488018245 0.0244009122 0.0366013683 0. 0.0610022806
      0.0244009122 0.0732027367 0.0366013683 0.195207298 0.0122004561
      0.0366013683 0.0122004561 0.0244009122 0.0122004561 0. 0.
      0.0610022806 0. 0. 0. 0.0122004561 0.0244009122 0.0244009122
      0.0488018245 0.0122004561 0.0244009122 0.0732027367 0.0122004561
      0. 0.0488018245 0.0122004561 0.0244009122 0. 0.0488018245
      0.280610502 0.0854031965 0.109804109 0.0366013683 0. 0.
      0.0122004561 0.0244009122 0.0244009122 0.0244009122 0.0366013683
      0.0488018245 0.0244009122 0.109804109 0.231808677 0. 0.</_>
    <_>
      0.00462255254 0.0138676576 0.0231127627 0.0323578678 0.0231127627
      0.00462255254 0.00462255254 0.110941261 0.0231127627 0.
      0.0231127627 0.00924510509 0.157166794 0.0323578678 0.0138676576
      0.0138676576 0.0277353153 0.0184902102 0.00924510509 0.0184902102
      0.0369804204 0.0416029729 0.0231127627 0.0369804204 0.0231127627
      0.0369804204 0.0323578678 0.124808922 0.0277353153 0.00462255254
      0.0462255254 0.00462255254 0.0138676576 0.0693382919 0.00462255254
      0.0554706305 0.00462255254 0.0184902102 0.00924510509
      0.00462255254 0. 0.0231127627 0.0138676576 0.0138676576
      0.00462255254 0.189524665 0.0554706305 0.078583397 0.0184902102
      0.00924510509 0.0554706305 0.0184902102 0.0323578678 0.00462255254
      0.0323578678 0.0231127627 0.050848078 0.0600931831 0.0600931831
      0.0323578678 0.00924510509 0.0184902102 0.110941261 0.0554706305
      0. 0.0277353153 0.0693382919 0.0693382919 0.0231127627
      0.0554706305 0.0277353153 0.0416029729 0.0369804204 0.00462255254
      0.0138676576 0.0138676576 0.00462255254 0.0231127627 0.0462255254
      0.0832059458 0.0693382919 0.050848078 0.0184902102 0. 0.
      0.0416029729 0. 0.00462255254 0.00924510509 0.0277353153
      0.0277353153 0.0693382919 0.00462255254 0.0369804204 0.00924510509
      0. 0. 0.0231127627 0.0369804204 0.0323578678 0.0277353153
      0.0970736071 0.0462255254 0.00924510509 0.152544245 0.0462255254
      0.00924510509 0.0462255254 0.0693382919 0. 0.0231127627
      0.00462255254 0.0184902102 0.0600931831 0.00924510509 0.0138676576
      0.0184902102 0.0231127627 0.0277353153 0.0554706305 0.00924510509
      0.0231127627 0.0323578678 0.0416029729 0.6147995 0.00924510509 0.
      0.00462255254 0.106318712 0.050848078 0.050848078 0. 0.0323578678
      0.00462255254 0.0416029729 0.0138676576 0.0970736071 0.00924510509
      0.0416029729 0.0231127627 0.0323578678 0.0416029729 0.0369804204
      0.0277353153 0.00462255254 0.0277353153 0.0277353153 0.0184902102
      0.0739608407 0.0184902102 0.0693382919 0. 0.0138676576 0.106318712
      0.00462255254 0.0231127627 0.0231127627 0.0184902102 0.0554706305
      0.0554706305 0.0277353153 0.0600931831 0.0369804204 0.0277353153
      0.0184902102 0.0277353153 0.0138676576 0.0277353153 0.0231127627
      0.0231127627 0.050848078 0. 0.0231127627 0.0554706305
      0.00462255254 0.050848078 0.0462255254 0.050848078 0.0462255254
      0.0323578678 0.0277353153 0.00924510509 0.0323578678 0.0323578678
      0.00462255254 0.0369804204 0.0231127627 0.0323578678 0.0554706305
      0.0600931831 0.0231127627 0.0369804204 0.0184902102 0.00462255254
      0.0138676576 0.00462255254 0.0138676576 0.0184902102 0.0462255254
      0.0231127627 0.0138676576 0.00924510509 0.171034455 0.0277353153
      0.0369804204 0.0138676576 0.0138676576 0.00462255254 0.0231127627
      0. 0.00924510509 0.0323578678 0.0554706305 0.00462255254
      0.050848078 0.078583397 0. 0.0138676576 0.0277353153 0.0184902102
      0.0600931831 0.00924510509 0.0554706305 0.0693382919 0.00462255254
      0.0138676576 0.0277353153 0.0832059458 0.0832059458 0.0231127627
      0.0138676576 0.078583397 0.0323578678 0.0231127627 0.0138676576 0.
      0.050848078 0.0138676576 0.0277353153 0.0970736071 0.050848078
      0.0323578678 0.0600931831 0.00924510509 0.050848078 0.0231127627
      0.0231127627 0.00924510509 0.050848078 0.0323578678 0.00924510509
      0.078583397 0.0184902102 0.0231127627 0.050848078 0.212637424
      0.00924510509 0.0600931831 0.0277353153 0.0369804204 0.00924510509
      0.00462255254 0.00462255254 0.0138676576 0. 0.0138676576
      0.0138676576 0.00462255254 0.00462255254 0.0138676576 0.0138676576
      0.0277353153 0.0739608407 0.00924510509 0.0184902102 0.0277353153
      0.0554706305 0.00924510509 0.0138676576 0.0369804204 0.00462255254
      0.00462255254 0.0184902102 0.101696156 0.0138676576 0.138676584
      0.0462255254 0.00462255254 0.00462255254 0.0184902102 0.0277353153
      0.0184902102 0. 0.0554706305 0.0416029729 0.0184902102 0.129431471
      0.078583397 0.00924510509 0.</_>
    <_>
      0.0488201641 0.0134432344 0.0120281568 0.011320618 0.14716804
      0.00424523186 0.00459900126 0.0474050865 0.0364382379 0.014858311
      0.0272402372 0.0626171678 0.0693387836 0.027947776 0.0106130792
      0.0201648511 0.0258251596 0.0650935546 0.0176884662 0.0137970028
      0.0283015445 0.0222874675 0.0215799287 0.152474567 0.0389146246
      0.268864691 0.0346693918 0.144691646 0.00672161719 0.00742915552
      0.119927801 0.00601407839 0.102239333 0.0399759337 0.0123819262
      0.022641236 0.0155658498 0.0159196183 0.00955177192 0.0254713912
      0.0116743874 0.00955177192 0.0304241609 0.0286553148 0.0155658498
      0.0859659463 0.00990554038 0.00318392389 0.0930413306 0.0452824719
      0.0304241609 0.169455498 0.0304241609 0.024410082 0.0321930088
      0.0976403281 0.0520040877 0.12028157 0.024410082 0.0707538649
      0.044574935 0.0127356956 0.166979119 0.00813669432 0. 0.0905649439
      0.0102593098 0.0145045416 0.00778292492 0.0162733886 0.0820744783
      0.123819262 0.00566030899 0.0159196183 0.0686312467 0.013089465
      0.011320618 0.0191035438 0.0424523167 0.0587257072 0.027947776
      0.0297166221 0.0166271571 0.118158951 0.0852584019 0.0180422347
      0.00778292492 0.113559946 0.000707538624 0.0367920101 0.0205186196
      0.154243425 0.0544804744 0.0127356956 0.0435136259 0.018396005
      0.0481126271 0.0106130792 0.011320618 0.0863197148 0.022641236
      0.0502352417 0.0102593098 0.14150773 0.0622633994 0.00601407839
      0.0502352417 0.0141507722 0.0162733886 0.00778292492 0.0505890138
      0.0106130792 0.00636784779 0.0120281568 0.0127356956 0.0275940057
      0.00707538612 0.0810131729 0.0116743874 0.0145045416 0.00778292492
      0.108253412 0.0176884662 0.0707538649 0.0449287035 0.014858311
      0.00672161719 0.0318392366 0.135139883 0.0102593098 0.0219336972
      0.00919800252 0.119927801 0.0191035438 0.00566030899 0.00530653959
      0.0346693918 0.0297166221 0.0176884662 0.0590794757 0.0410372391
      0.0258251596 0.0173346959 0.0275940057 0.00459900126 0.0116743874
      0.0127356956 0.0495277047 0.0159196183 0.0162733886 0.0205186196
      0.018396005 0.098701641 0.0240563136 0.00601407839 0.0212261584
      0.0314854681 0.00955177192 0.00955177192 0.0459900126 0.013089465
      0.00495277019 0.0247638524 0.0102593098 0.00990554038 0.0141507722
      0.0520040877 0.0353769325 0.0382070877 0.0212261584 0.00672161719
      0.0346693918 0.013089465 0.112498641 0.203063592 0.0201648511
      0.0495277047 0.0187497735 0.0272402372 0.0912724808 0.0516503192
      0.0173346959 0.0831357911 0.00601407839 0.0127356956 0.00636784779
      0.0258251596 0.0194573123 0.0523578599 0.0711076334 0.0286553148
      0.0420985483 0.0314854681 0.00601407839 0.0523578599 0.0123819262
      0.0321930088 0.0590794757 0.074999094 0.00849046372 0.0520040877
      0.139031336 0.018396005 0.0145045416 0.142922804 0.00849046372
      0.0297166221 0.0166271571 0.056603089 0.00919800252 0.00459900126
      0.00495277019 0.0102593098 0.00778292492 0.027947776 0.0926875621
      0.00459900126 0.0145045416 0.113913722 0.0293628536 0.013089465
      0.0325467773 0.0155658498 0.027947776 0.0622633994 0.0873810202
      0.00742915552 0.0530653968 0.0297166221 0.00884423312 0.0321930088
      0.0732302517 0.0222874675 0.00459900126 0.0544804744 0.0286553148
      0.0314854681 0.0696925521 0.00778292492 0.00459900126 0.0191035438
      0.00990554038 0.00778292492 0.0240563136 0.0339618549 0.0141507722
      0.00884423312 0.0134432344 0.0923337936 0.0109668486 0.00778292492
      0.12417303 0.0159196183 0.0916262493 0.0481126271 0.0332543142
      0.0134432344 0.0714614019 0.0410372391 0.0169809274 0.0208723899
      0.0307779312 0.02617893 0.011320618 0.00813669432 0.146460503
      0.0137970028 0.0109668486 0.0102593098 0.00389146246 0.0916262493
      0.00530653959 0.123465493 0.17723842 0.0116743874 0.14610672
      0.0658010915 0.0972865596 0.0955177173 0.0247638524 0.113913722
      0.00318392389 0.098701641 0.109668486 0.0166271571 0.0325467773
      0.0300703924 0.0219336972 0.00884423312 0.0106130792 0.013089465
      0.0442211628 0.013089465 0.0431598574 0.0208723899 0.0024763851
      0.128064498 0.0435136259 0.0505890138 0.00530653959</_>
    <_>
      0.0261623394 0.00678282883 0.00872077979 0.039727997 0.0164725836
      0. 0.000968975539 0.08236292 0.0213174615 0. 0.0155036086
      0.0658903345 0.0503867269 0.0213174615 0.00872077979 0.0135656577
      0.0164725836 0.0193795115 0.038759023 0.00193795108 0.0164725836
      0.0348831192 0.0707352161 0.28487882 0.0281002913 0.0213174615
      0.0261623394 0.0775180459 0.0106587308 0.000968975539 0.0474798009
      0.00387590216 0.0562005825 0.0658903345 0.00678282883 0.0203484856
      0.00193795108 0.045541849 0.00872077979 0.00387590216
      0.00193795108 0.00968975574 0.0377900451 0.0213174615
      0.00484487787 0.0717041865 0.0135656577 0.0251933634 0.0358520932
      0.0222864375 0.0281002913 0.039727997 0.0222864375 0.00968975574
      0.0348831192 0.0658903345 0.0552316047 0.565881729 0.0184105355
      0.0474798009 0.00678282883 0.00581385335 0.0232554134 0.0242243875
      0. 0.0329451673 0.0290692654 0.0184105355 0.0184105355
      0.0203484856 0.0348831192 0.0552316047 0.0145346327 0.00387590216
      0.0251933634 0.0300382413 0.00193795108 0.0125966817 0.045541849
      0.0329451673 0.0174415596 0.0348831192 0.00581385335 0.0794559941
      0.0552316047 0.0145346327 0.00290692667 0.0242243875 0.00678282883
      0.0106587308 0.0222864375 0.0222864375 0.0155036086 0.0106587308
      0.0445728749 0.00581385335 0.0116277067 0.0261623394 0.0155036086
      0.0978665277 0.0242243875 0.0726731643 0.0125966817 0.0416659489
      0.0620144345 0.00968975574 0.00968975574 0.0339141451 0.0319761932
      0.00193795108 0.0978665277 0.00290692667 0.00775180431
      0.00968975574 0.0222864375 0.00581385335 0.00581385335
      0.0184105355 0.0116277067 0.0649213642 0.0164725836 0.0465108268
      0.00775180431 0.0532936528 0.185074329 0.00193795108 0.00290692667
      0.0193795115 0.143408373 0.0251933634 0.0203484856 0.00193795108
      0.042634923 0.00581385335 0.0125966817 0.00968975574 0.0668593124
      0.0125966817 0.0106587308 0.0135656577 0.0164725836 0.0310072172
      0.0562005825 0.0300382413 0.00484487787 0.00484487787 0.0213174615
      0.0281002913 0.0290692654 0.0145346327 0.0329451673 0.00678282883
      0.149222225 0.042634923 0. 0.0377900451 0.0135656577 0.0164725836
      0.0145346327 0.091083698 0.0222864375 0.0116277067 0.0784870163
      0.00872077979 0.0213174615 0.0125966817 0.0998044834 0.0135656577
      0.0542626306 0.0213174615 0.039727997 0.00581385335 0.0155036086
      0.038759023 0.0174415596 0.0261623394 0.0329451673 0.0281002913
      0.048448775 0.0377900451 0.0125966817 0.00968975574 0.0290692654
      0.0232554134 0.00484487787 0.0503867269 0.0319761932 0.0329451673
      0.0290692654 0.0213174615 0.0242243875 0.0436039008 0.0116277067
      0.00678282883 0.0658903345 0.00484487787 0.0174415596 0.0406969711
      0.0494177528 0.0116277067 0.0552316047 0.091083698 0.0591075085
      0.0203484856 0.045541849 0.00775180431 0.0348831192 0.0164725836
      0.0445728749 0.00290692667 0.00872077979 0.00387590216
      0.0358520932 0.00484487787 0.0377900451 0.0571695566
      0.000968975539 0.0184105355 0.0562005825 0.0242243875 0.0358520932
      0.0174415596 0.0368210711 0.0552316047 0.0116277067 0.0813939422
      0.00872077979 0.038759023 0.0329451673 0.0222864375 0.0222864375
      0.0678282902 0.0290692654 0.00678282883 0.00775180431 0.0222864375
      0.0717041865 0.0474798009 0.0145346327 0.0155036086 0.0581385307
      0.0155036086 0.0358520932 0.0203484856 0.0203484856 0.0242243875
      0.0145346327 0.0106587308 0.0494177528 0.0184105355 0.0193795115
      0.246119782 0.0251933634 0.0765490681 0.0843008682 0.16472584
      0.00775180431 0.0581385307 0.042634923 0.0271313153 0.0251933634
      0.0290692654 0.0164725836 0.0106587308 0.00193795108 0.0329451673
      0.0164725836 0.000968975539 0.0145346327 0.000968975539
      0.045541849 0.0222864375 0.108525261 0.0406969711 0.0106587308
      0.203484863 0.0377900451 0.0620144345 0.048448775 0.0290692654
      0.0707352161 0.00290692667 0.0406969711 0.0591075085 0.0184105355
      0.0784870163 0.0348831192 0.00387590216 0.000968975539
      0.0135656577 0.0251933634 0.0862388238 0.00872077979 0.115308091
      0.0135656577 0.00193795108 0.0755800903 0.0591075085 0.0232554134
      0.00193795108</_>
    <_>
      0.040433608 0.0857303664 0.0687788203 0.0986524522 0.0243157446
      0.0300125759 0.0218146965 0.0109768221 0.0484925434 0.0398778208
      0.0729472339 0.0245936383 0.0277894232 0.0561346337 0.0830903724
      0.0515493788 0.0765598565 0.0603030473 0.0794777498 0.0300125759
      0.072391443 0.0630819872 0.0532167442 0.0227873269 0.0493262261
      0.00541893719 0.0509935915 0.0255662687 0.0812840611 0.0218146965
      0.0157010239 0.0402946621 0.0479367524 0.036404144 0.0693346113
      0.0644714609 0.0286231041 0.0651661977 0.0472420193 0.0477978066
      0.0430736057 0.0716967061 0.0704461858 0.0629430413 0.0307073109
      0.00569683174 0.0829514265 0.0794777498 0.0159789175 0.0687788203
      0.056690421 0.0176462829 0.0671114549 0.0295957346 0.0604419932
      0.0416841321 0.0457135998 0.0200083833 0.0854524747 0.0414062403
      0.0476588607 0.0586356819 0.00750314398 0.0783661678
      0.000416841329 0.0357094072 0.0855914205 0.0711409226 0.0854524747
      0.0725303888 0.0336252004 0.0340420417 0.0944840387 0.0263999514
      0.0544672683 0.0878145769 0.0227873269 0.0689177662 0.0548841096
      0.0329304673 0.0554398969 0.0584967323 0.0704461858 0.0314020477
      0.0397388749 0.0735030249 0.0219536442 0.0361262485 0.0425178148
      0.0862861574 0.0833682641 0.00375157199 0.0565514751 0.0923998281
      0.0675283 0.0209810138 0.0505767502 0.0776714385 0.0946229845
      0.0302904695 0.0665556639 0.00277894223 0.0504378006 0.0376546681
      0.00764209125 0.0797556415 0.0504378006 0.0758651197 0.0609977804
      0.0175073352 0.0344588831 0.0440462343 0.0546062142 0.0654440895
      0.0722524971 0.0537725314 0.0300125759 0.0523830615 0.0716967061
      0.0532167442 0.0883703604 0.0158399716 0.0789219588 0.039044138
      0.00680840854 0.030568365 0.0191747006 0.0650272518 0.0119494516
      0.0557177924 0.0779493302 0.0272336341 0.0184799656 0.072391443
      0.0928166732 0.0819787979 0.0541893728 0.0769767016 0.0822566897
      0.0682230294 0.0516883247 0.0650272518 0.0662777722 0.0676672459
      0.0471030697 0.0783661678 0.0697514489 0.0308462586 0.0739198625
      0.0826735348 0.0587746277 0.0376546681 0.0393220335 0.0504378006
      0.0173683893 0.0703072399 0.0740588084 0.0846187919 0.0875366777
      0.0530777983 0.0712798685 0.0797556415 0.0482146479 0.0828124806
      0.072391443 0.0828124806 0.0284841582 0.0668335631 0.0661388263
      0.0679451376 0.0740588084 0.0397388749 0.0737809166 0.00527999038
      0.0382104553 0.0689177662 0.0469641238 0.0628040954 0.030568365
      0.037793614 0.0741977543 0.0641935691 0.0423788689 0.0662777722
      0.0209810138 0.106572434 0.0878145769 0.0690567121 0.0541893728
      0.0484925434 0.0548841096 0.0444630757 0.0612756759 0.0333473086
      0.0318188891 0.0194525961 0.040989399 0.0550230555 0.0307073109
      0.0961514041 0.0250104796 0.0225094315 0.00569683174 0.0842019469
      0.00291788927 0.0464083366 0.0471030697 0.084063001 0.0433514975
      0.0190357547 0.0933724567 0.0837851092 0.0755872279 0.0280673169
      0.0379325598 0.00277894223 0.0258441623 0.0754482821 0.00833682716
      0.0395999253 0.0710019767 0.0664167181 0.0651661977 0.0594693646
      0.0441851802 0.0315409936 0.0775324851 0.0183410179 0.0697514489
      0.100319818 0.072808288 0.0394609794 0.0676672459 0.0912882537
      0.0689177662 0.0439072885 0.0476588607 0.0447409712 0.0994861349
      0.0714188144 0.0703072399 0.0765598565 0.0758651197 0.0733640715
      0.0737809166 0.0880924687 0.0829514265 0.0783661678 0.0348757245
      0.0753093362 0.0926777199 0.0307073109 0.0689177662 0.0289009996
      0.0232041683 0.00555788446 0.0826735348 0.00472420175 0.0719746053
      0.0601640977 0.0508546419 0.0584967323 0.0571072623 0.0812840611
      0.0291788932 0.0471030697 0.0764209107 0.0223704856 0.0546062142
      0.0329304673 0.0293178409 0.0912882537 0.0105599808 0.0165347066
      0.0771156475 0.00986524485 0.0314020477 0.0244546924 0.0444630757
      0.0596083105 0.0273725819 0.0169515479 0.0419620275 0.00430736039
      0.052105166 0.00458525447 0.049465172 0.0502988547 0.0393220335
      0.0789219588 0.0810061693 0.0459914953 0.0823956355 0.0268167928
      0.0744756535 0.042239923 0.00375157199 0.00347367791 0.0666946173
      0.0197304897</_>
    <_>
      0.0456646867 0.00507385423 0.0202954169 0.0507385395 0.0507385395
      0. 0. 0.0761078075 0.0304431245 0. 0.0405908339 0.0913293734
      0.0811816677 0.0253692698 0.0304431245 0.0101477085 0.0253692698
      0.0152215622 0.0456646867 0.00507385423 0.0304431245 0.0608862489
      0.0405908339 0.0659601018 0.0710339546 0.162363335 0.0507385395
      0.0405908339 0.0101477085 0. 0.126846358 0. 0.0608862489
      0.162363335 0.0202954169 0.0202954169 0. 0.0507385395 0.
      0.00507385423 0. 0.00507385423 0.0152215622 0.0152215622
      0.0101477085 0.0710339546 0.0304431245 0.106550932 0.0405908339
      0.0507385395 0.0710339546 0.162363335 0.0304431245 0.00507385423
      0.0811816677 0.121772498 0.0558123961 0.0811816677 0.0558123961
      0.0405908339 0.00507385423 0. 0.0405908339 0.0405908339 0.
      0.0964032263 0.0456646867 0.0355169773 0. 0.0405908339
      0.0456646867 0.0507385395 0.0355169773 0. 0.0304431245
      0.0253692698 0. 0.0405908339 0.106550932 0.0405908339 0.0558123961
      0.0811816677 0.0405908339 0.0862555206 0.0659601018 0.0355169773
      0.00507385423 0.0710339546 0.0202954169 0.0355169773 0.0304431245
      0.0558123961 0.0253692698 0.0507385395 0.0608862489 0.
      0.0152215622 0.0304431245 0.0152215622 0.106550932 0.0355169773
      0.0355169773 0.0253692698 0.14714177 0.0558123961 0.0304431245
      0.0202954169 0.0253692698 0.0558123961 0.00507385423 0.0608862489
      0.00507385423 0.00507385423 0.0152215622 0.0152215622
      0.00507385423 0.0101477085 0.0456646867 0.0355169773 0.0405908339
      0.0253692698 0.136994064 0.0202954169 0.0710339546 0.187732592
      0.0101477085 0. 0.0355169773 0.0862555206 0.0253692698
      0.0355169773 0. 0.0456646867 0.0101477085 0.0456646867
      0.0101477085 0.121772498 0.00507385423 0.0355169773 0.0202954169
      0.0456646867 0.0456646867 0.0710339546 0.0456646867 0.00507385423
      0.0152215622 0.0456646867 0.0761078075 0.0202954169 0.0202954169
      0.0101477085 0. 0.172511041 0.0811816677 0. 0.0202954169
      0.0304431245 0.0456646867 0.0152215622 0.0456646867 0.0304431245
      0.0355169773 0.0558123961 0.0152215622 0.00507385423 0.0152215622
      0.0862555206 0.0507385395 0.0913293734 0.0558123961 0.0558123961
      0.0152215622 0.0355169773 0.0507385395 0.0456646867 0.0710339546
      0.0405908339 0.0507385395 0.0507385395 0.0355169773 0.0304431245
      0.0202954169 0.0405908339 0.0253692698 0. 0.0456646867
      0.0405908339 0.0355169773 0.0202954169 0.0304431245 0.0558123961
      0.0253692698 0.0202954169 0. 0.0608862489 0. 0.00507385423
      0.0913293734 0.0964032263 0.0202954169 0.0964032263 0.116698645
      0.0710339546 0.0405908339 0.14714177 0.0152215622 0.0355169773
      0.00507385423 0.0355169773 0. 0.0152215622 0.0202954169
      0.0608862489 0.00507385423 0.0355169773 0.126846358 0.
      0.0202954169 0.111624792 0.0405908339 0.0405908339 0.0253692698
      0.0710339546 0.187732592 0.0304431245 0.0964032263 0.0253692698
      0.121772498 0.0862555206 0.0202954169 0.0304431245 0.101477079
      0.0253692698 0.0202954169 0.0456646867 0.0608862489 0.0964032263
      0.101477079 0.0101477085 0.0304431245 0.0558123961 0.0101477085
      0.0152215622 0.0202954169 0.0355169773 0.0253692698 0.0355169773
      0.0101477085 0.101477079 0.0355169773 0.00507385423 0.0558123961
      0.0101477085 0.142067909 0.0913293734 0.136994064 0.0101477085
      0.0710339546 0.0355169773 0.0558123961 0.0101477085 0.0152215622
      0.0202954169 0.0101477085 0. 0.101477079 0. 0.00507385423
      0.0304431245 0.00507385423 0.101477079 0.0152215622 0.0355169773
      0.0913293734 0.0101477085 0.0507385395 0.0405908339 0.0456646867
      0.0659601018 0.0304431245 0.116698645 0. 0.0304431245 0.0913293734
      0.0456646867 0.0253692698 0.0558123961 0.0152215622 0.0101477085
      0.0253692698 0.0202954169 0.0608862489 0.0355169773 0.106550932
      0.0202954169 0. 0.142067909 0.0659601018 0.0456646867 0.</_></support_vectors>
  <decision_functions>
    <_>
      <sv_count>17</sv_count>
      <rho>-1.1095830824094002</rho>
      <alpha>
        2.7763029524822114e-07 3.019231097679126e-07
        2.3673331589841022e-07 1.044906065168071e-07
        1.792764315909834e-08 2.1034479223533265e-07
        1.1303836846020015e-07 1.3413686880621496e-07
        8.1142543433797386e-08 -3.7207986079836201e-07
        -1.9080377831561319e-07 -1.1662448763381556e-07
        -2.4947959645892425e-07 -1.5321429663228643e-07
        -1.0927700640643213e-07 -2.5449074157737348e-07
        -3.1397775703187396e-08</alpha>
      <index>
        10 16 15 14 13 12 11 9 8 0 7 6 5 4 3 2 1</index></_></decision_functions></opencv_ml_svm>
</opencv_storage>
