<?xml version="1.0"?>
<opencv_storage>
<opencv_ml_svm>
  <format>3</format>
  <svmType>C_SVC</svmType>
  <kernel>
    <type>POLY</type>
    <degree>3.</degree>
    <gamma>224.37919356574628</gamma>
    <coef0>0.</coef0></kernel>
  <C>1.</C>
  <term_criteria><epsilon>1.1920928955078125e-07</epsilon>
    <iterations>1000</iterations></term_criteria>
  <var_count>300</var_count>
  <class_count>2</class_count>
  <class_labels type_id="opencv-matrix">
    <rows>2</rows>
    <cols>1</cols>
    <dt>i</dt>
    <data>
      0 1</data></class_labels>
  <sv_total>18</sv_total>
  <support_vectors>
    <_>
      0.0395136252 0.0386546366 0.00257697562 0.0730143115 0.10651499
      0.00171798375 0.0377956443 0.00429495936 0.0738733038 0.0498215295
      0.0532574952 0.136579707 0.0790272504 0.00773092685 0.00515395124
      0.0755912885 0.0652833804 0.0395136252 0.0549754798 0.0103079025
      0.0919121355 0.00171798375 0.00171798375 0.0240517724 0.0438085869
      0.0695783421 0.0635654032 0.0721553192 0.0120258862 0.0223337896
      0.0498215295 0.0214747973 0.0558344722 0.0858991891 0.111668944
      0.0283467323 0.00515395124 0.0644243881 0.0292057246 0.17609334
      0.0206158049 0.0180388298 0.00858991873 0.0240517724 0.0369366519
      0.0549754798 0.0970660821 0.00343596749 0.0317827016 0.00858991873
      0.0420906022 0.146887615 0.0326416902 0.0446675792 0.000858991873
      0.0429495946 0.0455265716 0.0601294339 0.0231927801 0.0309237074
      0.00515395124 0.122835837 0.00343596749 0.0463855602 0.00515395124
      0.0489625372 0.0231927801 0.0249107648 0.0575524569 0.0704373345
      0.0120258862 0.0395136252 0.0111668948 0.0386546366 0.0403726175
      0.0644243881 0.0575524569 0.0884761661 0.0970660821 0.0274877399
      0.00429495936 0.121976845 0.0566934645 0.0858991891 0.0326416902
      0.113386929 0.00601294311 0.0489625372 0.0369366519 0.0841812044
      0.0996430591 0.0274877399 0.0523985066 0.0438085869 0.0747322962
      0.00257697562 0.0317827016 0.109091967 0.0309237074 0.0309237074
      0.0704373345 0.0352186672 0.0850401968 0.0850401968 0.0953480974
      0.0515395142 0.0317827016 0.0481035449 0.0128848786 0.00429495936
      0.0953480974 0.0481035449 0.0644243881 0. 0.0257697571
      0.0910531431 0.0240517724 0.0171798375 0.0652833804 0.0549754798
      0.00944891106 0.0609884225 0.0695783421 0.0893351585 0.0386546366
      0.0231927801 0.0420906022 0.0317827016 0.0403726175 0.0515395142
      0.0566934645 0.0180388298 0.0403726175 0.0386546366 0.0274877399
      0.0429495946 0.0197568126 0.0446675792 0.0678603575 0.101361044
      0.0171798375 0.0412316099 0.00257697562 0.108232975 0.0317827016
      0.0798862427 0.0111668948 0.0489625372 0.00944891106 0.01374387
      0.0824632198 0.0360776596 0.0618474148 0.0446675792 0.0498215295
      0.0661423728 0.0566934645 0.0592704415 0.0472445525 0.0188978221
      0.0395136252 0.0309237074 0.0412316099 0.0343596749 0.0180388298
      0.0429495946 0.0704373345 0.180388302 0.0309237074 0.0197568126
      0.0841812044 0.0601294339 0.0429495946 0.0352186672 0.0807452351
      0.0412316099 0.10995096 0.0317827016 0.0549754798 0.0438085869
      0.0541164875 0.0618474148 0.0652833804 0.1374387 0.0274877399
      0.0326416902 0.140874669 0.0962070897 0.0661423728 0.10995096
      0.126271814 0.0309237074 0.0498215295 0.00429495936 0.0532574952
      0.0481035449 0.0369366519 0.0575524569 0.0326416902 0.00429495936
      0.0566934645 0.0292057246 0.0300647169 0.0369366519 0.0292057246
      0.00858991873 0.0455265716 0.0506805219 0.0352186672 0.0635654032
      0.0360776596 0.0223337896 0.00257697562 0.00858991873 0.0377956443
      0.100502051 0.0412316099 0.0687193498 0.0627064109 0.0644243881
      0.0644243881 0.10995096 0.00429495936 0.0584114492 0.0377956443
      0.0395136252 0.0678603575 0.12369483 0.0755912885 0.0335006826
      0.0704373345 0.0541164875 0.0523985066 0.0609884225 0.00429495936
      0.125412822 0.0386546366 0.0163208451 0.0214747973 0.0223337896
      0.0575524569 0.0661423728 0.0472445525 0.0438085869 0.0463855602
      0.00858991873 0.0214747973 0.0214747973 0.0163208451 0.0618474148
      0.0266287476 0.0979250744 0.00429495936 0.0523985066 0.0283467323
      0.0541164875 0.00515395124 0.0300647169 0.094489105 0.0472445525
      0.0188978221 0.0481035449 0.0326416902 0.0463855602 0.0360776596
      0.0704373345 0.0429495946 0.0523985066 0.0446675792 0.0420906022
      0.00343596749 0.0317827016 0.0489625372 0.0575524569 0.0103079025
      0.0635654032 0.0523985066 0.0403726175 0. 0.1374387 0.00773092685
      0.0429495946 0.0738733038 0.0412316099 0.0506805219 0.00601294311
      0.0455265716 0.00171798375 0.0180388298 0.0377956443 0.0807452351
      0.0627064109 0.01374387 0.0893351585 0.0678603575 0.00429495936
      0.0180388298 0.0120258862 0.0395136252 0.0541164875</_>
    <_>
      0.0902045667 0.0461511761 0.012586684 0.023075588 0.11537794
      0.0566400774 0.0503467359 0.0209778063 0.0251733679 0.0314667113
      0.0398578346 0.0734223276 0.0314667113 0.0335644931 0.0209778063
      0.0377600528 0.0797156692 0.0461511761 0.0755201057 0.0146844648
      0.0377600528 0.0188800264 0.0461511761 0.0461511761 0.0419556126
      0.0692267641 0.0503467359 0.012586684 0.0356622711 0.0461511761
      0.0146844648 0.0524445176 0.0314667113 0.0566400774 0.0818134472
      0.0503467359 0.0272711497 0.0272711497 0.0398578346 0.113280155
      0.0671289861 0.0755201057 0.0356622711 0.0335644931 0.0251733679
      0.0314667113 0.0734223276 0.0167822465 0.0503467359 0.0419556126
      0.0377600528 0.0923023522 0.0881067887 0.0524445176 0.00629334198
      0.100693472 0.012586684 0.0629334226 0.0440533943 0.0776178837
      0.0167822465 0.109084599 0.0272711497 0.0398578346 0.0251733679
      0.0461511761 0.0545422994 0.0419556126 0.0377600528 0.0314667113
      0.0566400774 0.0272711497 0.0461511761 0.0566400774 0.0440533943
      0.0503467359 0.0272711497 0.241244778 0.0440533943 0.0377600528
      0.0272711497 0.0440533943 0.0377600528 0.0293689296 0.0734223276
      0.203484729 0.0293689296 0.0272711497 0.0419556126 0.0356622711
      0.0314667113 0.0440533943 0.0524445176 0.0188800264 0.0398578346
      0.0272711497 0.0482489578 0.0818134472 0.0818134472 0.0356622711
      0.0335644931 0.0587378591 0.0209778063 0.0985956937 0.201386943
      0.0650312006 0.0860090107 0.0356622711 0.0377600528 0.0167822465
      0.228658095 0.0524445176 0.0293689296 0. 0.0503467359 0.0608356409
      0.0440533943 0.0734223276 0.0587378591 0.0377600528 0.0272711497
      0.0587378591 0.0482489578 0.0293689296 0.0209778063 0.00419556163
      0.0650312006 0.0461511761 0.023075588 0.0293689296 0.0818134472
      0.0356622711 0.0650312006 0.0629334226 0.0419556126 0.0293689296
      0.0356622711 0.0713245422 0.0482489578 0.0587378591 0.0419556126
      0.0419556126 0.0293689296 0.0314667113 0.023075588 0.0209778063
      0.0272711497 0.0314667113 0.0251733679 0.0251733679 0.012586684
      0.0692267641 0.0923023522 0.0377600528 0.023075588 0.0734223276
      0.0524445176 0.0776178837 0.0860090107 0.0503467359 0.0272711497
      0.0461511761 0.012586684 0.0167822465 0.0440533943 0.0167822465
      0.0461511761 0.195093602 0.0503467359 0.023075588 0.0692267641
      0.0608356409 0.0587378591 0.0377600528 0.0377600528 0.0272711497
      0.0251733679 0.0377600528 0.0419556126 0.0356622711 0.0293689296
      0.023075588 0.0272711497 0.0377600528 0.0335644931 0.0587378591
      0.0461511761 0.0335644931 0.0335644931 0.0188800264 0.192995831
      0.0356622711 0.0293689296 0.023075588 0.0146844648 0.0503467359
      0.0524445176 0.0272711497 0.0964979157 0.0314667113 0.0440533943
      0.0902045667 0.0188800264 0.0524445176 0.0293689296 0.0146844648
      0.0608356409 0.0461511761 0.0482489578 0.0146844648 0.023075588
      0.0545422994 0.023075588 0.0104889031 0.0608356409 0.0272711497
      0.0398578346 0.0314667113 0.0251733679 0.0293689296 0.0398578346
      0.0272711497 0.0188800264 0.16572468 0.0272711497 0.0251733679
      0.0188800264 0.117475718 0.0293689296 0.0398578346 0.0734223276
      0.0209778063 0.0440533943 0.0524445176 0.0209778063 0.157333553
      0.0356622711 0.0545422994 0.0902045667 0.0545422994 0.0503467359
      0.0545422994 0.0251733679 0.0482489578 0.0167822465 0.0188800264
      0.0629334226 0.0692267641 0.0419556126 0.0440533943 0.0482489578
      0.0482489578 0.0209778063 0.0356622711 0.0671289861 0.125866845
      0.023075588 0.113280155 0.0524445176 0.0629334226 0.0419556126
      0.0314667113 0.0272711497 0.0755201057 0.0671289861 0.0146844648
      0.0188800264 0.0314667113 0.0440533943 0.0293689296 0.0272711497
      0.0419556126 0.0398578346 0.0293689296 0.0398578346 0.0419556126
      0.0356622711 0.0440533943 0.00419556163 0.0293689296 0.0293689296
      0.0398578346 0.0335644931 0.0608356409 0.0503467359 0.023075588
      0.0335644931 0.0440533943 0.0566400774 0.0356622711 0.0356622711
      0.0104889031 0.023075588 0.0251733679 0.023075588 0.0356622711
      0.0146844648 0.0734223276 0.0461511761 0.0251733679</_>
    <_>
      0.0287847687 0.0183175802 0.00261679711 0.052335944 0.130839854
      0.0104671884 0.0235511754 0.00261679711 0.0654199272 0.0444855504
      0.0706535205 0.0811207145 0.0785039142 0.0157007836 0.013083986
      0.0811207145 0.0968214944 0.0287847687 0.0471023507 0.00261679711
      0.0549527407 0. 0.00261679711 0.026167972 0.0497191474
      0.0863543078 0.0654199272 0.0837375075 0.00261679711 0.013083986
      0.0340183638 0.0209343769 0.0497191474 0.0863543078 0.104671888
      0.0314015672 0.0104671884 0.0366351604 0.0392519571 0.180559009
      0.0104671884 0.026167972 0.00523359422 0.013083986 0.0209343769
      0.0287847687 0.0915879011 0.00261679711 0.013083986 0.0157007836
      0.0235511754 0.196259782 0.026167972 0.060186334 0. 0.0340183638
      0.0549527407 0.0654199272 0.0157007836 0.013083986 0.00523359422
      0.183175802 0. 0.0366351604 0.00523359422 0.0444855504
      0.0549527407 0.0235511754 0.0418687537 0.0418687537 0.00523359422
      0.0706535205 0.0157007836 0.0444855504 0.0366351604 0.0497191474
      0.0444855504 0.167475015 0.0837375075 0.0497191474 0.00261679711
      0.120372668 0.026167972 0.0654199272 0.0314015672 0.0915879011 0.
      0.0575695373 0.0654199272 0.0497191474 0.0889711007 0.0366351604
      0.0366351604 0.0497191474 0.052335944 0.00261679711 0.0235511754
      0.0758871213 0.0444855504 0.0314015672 0.0837375075 0.026167972
      0.0680367276 0.102055088 0.170091823 0.060186334 0.026167972
      0.0366351604 0.0157007836 0. 0.130839854 0.0549527407 0.0340183638
      0. 0.0314015672 0.0811207145 0.013083986 0.026167972 0.0209343769
      0.0340183638 0.013083986 0.0575695373 0.0811207145 0.052335944
      0.0575695373 0.0235511754 0.0497191474 0.0235511754 0.0811207145
      0.0392519571 0.0549527407 0.0287847687 0.0340183638 0.0575695373
      0.0183175802 0.0287847687 0.013083986 0.0575695373 0.0497191474
      0.060186334 0.0209343769 0.0706535205 0.00261679711 0.0889711007
      0.0366351604 0.0575695373 0.00785039179 0.0444855504 0.00785039179
      0.0104671884 0.0758871213 0.0340183638 0.0889711007 0.0811207145
      0.026167972 0.0444855504 0.0497191474 0.0340183638 0.0680367276
      0.0157007836 0.0392519571 0.0287847687 0.0497191474 0.0287847687
      0.026167972 0.0811207145 0.0680367276 0.191026196 0.0340183638
      0.00785039179 0.0471023507 0.060186334 0.0366351604 0.0183175802
      0.0994382948 0.0235511754 0.0889711007 0.0209343769 0.0680367276
      0.0366351604 0.0392519571 0.0392519571 0.026167972 0.107288681
      0.0104671884 0.026167972 0.128223062 0.0628031343 0.0863543078
      0.0628031343 0.230278149 0.0392519571 0.0366351604 0.00261679711
      0.0497191474 0.0418687537 0.0418687537 0.0575695373 0.0235511754
      0.0104671884 0.0549527407 0.0340183638 0.0287847687 0.0706535205
      0.0235511754 0.00523359422 0.0392519571 0.0785039142 0.0340183638
      0.0497191474 0.0287847687 0.013083986 0.0104671884 0.013083986
      0.0287847687 0.0654199272 0.052335944 0.052335944 0.060186334
      0.0968214944 0.0471023507 0.0497191474 0.0104671884 0.0549527407
      0.0863543078 0.0575695373 0.0680367276 0.0758871213 0.0366351604
      0.0183175802 0.0392519571 0.0549527407 0.0340183638 0.0471023507
      0. 0.109905481 0.0314015672 0.013083986 0.013083986 0.0183175802
      0.060186334 0.0706535205 0.0549527407 0.0287847687 0.0418687537
      0.00785039179 0.0287847687 0.0157007836 0.0104671884 0.0575695373
      0.0340183638 0.0628031343 0.00785039179 0.0785039142 0.0287847687
      0.0994382948 0.0104671884 0.0157007836 0.0706535205 0.0340183638
      0.026167972 0.0628031343 0.0549527407 0.0575695373 0.0340183638
      0.0549527407 0.0471023507 0.0497191474 0.0366351604 0.0654199272
      0.00261679711 0.0471023507 0.0549527407 0.0366351604 0.0104671884
      0.0811207145 0.0183175802 0.0340183638 0.00261679711 0.115139075
      0.0104671884 0.0392519571 0.0575695373 0.0444855504 0.0392519571
      0.00785039179 0.0392519571 0.0157007836 0.00261679711 0.0575695373
      0.0758871213 0.052335944 0.0157007836 0.0811207145 0.0628031343
      0.00523359422 0.0157007836 0.00261679711 0.0497191474 0.0575695373</_>
    <_>
      0.0463632308 0.0463632308 0.00309088221 0.055635877 0.179271162
      0.00618176442 0.0185452923 0. 0.0772720501 0.0401814692
      0.0679994076 0.0494541153 0.0834538192 0.0618176423 0.021636175
      0.0679994076 0.0710902885 0.0463632308 0.0710902885 0.00618176442
      0.0525449961 0.00927264616 0.00618176442 0.0339997038 0.055635877
      0.0494541153 0.0741811693 0.055635877 0.00927264616 0.0525449961
      0.0772720501 0.0370905846 0.055635877 0.0834538192 0.108180873
      0.0247270577 0.00618176442 0.0278179385 0.0370905846 0.132907927
      0.0309088212 0.0370905846 0.0154544106 0.0587267615 0.055635877
      0.04327235 0.101999111 0. 0.021636175 0.00618176442 0.0463632308
      0.0772720501 0.0247270577 0.0649085268 0.00309088221 0.0123635288
      0.0649085268 0.0618176423 0.0649085268 0.0278179385 0.00927264616
      0.111271754 0.021636175 0.0618176423 0.00618176442 0.0278179385
      0.055635877 0.0278179385 0.0587267615 0.0525449961 0.021636175
      0.0494541153 0.0278179385 0.04327235 0.0896355808 0.0185452923
      0.0525449961 0.0927264616 0.126726165 0.0339997038 0.00618176442
      0.0865447 0.0370905846 0.0865447 0.0463632308 0.132907927
      0.00927264616 0.0339997038 0.055635877 0.0865447 0.0463632308
      0.0494541153 0.0494541153 0.0401814692 0.0772720501 0.00618176442
      0.0339997038 0.0989082307 0.0401814692 0.0247270577 0.04327235
      0.0401814692 0.111271754 0.0649085268 0.111271754 0.055635877
      0.0339997038 0.0618176423 0.0185452923 0.0123635288 0.0741811693
      0.055635877 0.0587267615 0. 0.0463632308 0.0958173424 0.021636175
      0.0339997038 0.0741811693 0.0309088212 0.0123635288 0.0649085268
      0.0649085268 0.0649085268 0.0154544106 0.0278179385 0.0401814692
      0.0339997038 0.0278179385 0.0525449961 0.0803629383 0.0154544106
      0.0401814692 0.055635877 0.0587267615 0.04327235 0.00618176442
      0.0679994076 0.114362635 0.0123635288 0.0154544106 0.0463632308
      0.00927264616 0.0834538192 0.0803629383 0.0370905846 0.00309088221
      0.0649085268 0.0185452923 0.0123635288 0.0989082307 0.0463632308
      0.0525449961 0.0370905846 0.0494541153 0.0710902885 0.055635877
      0.0865447 0.0679994076 0.0309088212 0.0247270577 0.0679994076
      0.0803629383 0.0309088212 0.0154544106 0.0123635288 0.0649085268
      0.139089689 0.0339997038 0.021636175 0.0463632308 0.0587267615
      0.0679994076 0.0339997038 0.0618176423 0.0494541153 0.0463632308
      0.0463632308 0.0525449961 0.0463632308 0.0865447 0.0618176423
      0.0834538192 0.04327235 0.0401814692 0.0370905846 0.0896355808
      0.0679994076 0.0525449961 0.0927264616 0.135998815 0.0679994076
      0.055635877 0. 0.0865447 0.0278179385 0.0247270577 0.0525449961
      0.04327235 0.00927264616 0.0494541153 0.0587267615 0.0278179385
      0.0834538192 0.0339997038 0.00309088221 0.0463632308 0.105089992
      0.0741811693 0.0618176423 0.0649085268 0.0309088212 0.00618176442
      0.00618176442 0.0772720501 0.0649085268 0.0185452923 0.0401814692
      0.0525449961 0.0896355808 0.108180873 0.0834538192 0.0185452923
      0.108180873 0.0401814692 0.0896355808 0.0896355808 0.0958173424
      0.0618176423 0.0339997038 0.0587267615 0.0525449961 0.0710902885
      0.055635877 0.00309088221 0.0587267615 0.0618176423 0.0370905846
      0.0370905846 0.0401814692 0.0741811693 0.055635877 0.0587267615
      0.0401814692 0.0772720501 0.0154544106 0.0370905846 0.0123635288
      0.00927264616 0.055635877 0.0525449961 0.0772720501 0.00927264616
      0.0865447 0.0339997038 0.0679994076 0.0123635288 0.0649085268
      0.0927264616 0.0525449961 0.0123635288 0.0463632308 0.0309088212
      0.0587267615 0.0309088212 0.0525449961 0.04327235 0.055635877
      0.04327235 0.0463632308 0.00618176442 0.0370905846 0.0772720501
      0.0618176423 0.0185452923 0.0494541153 0.0772720501 0.0463632308
      0. 0.0679994076 0.0154544106 0.0463632308 0.0741811693
      0.0185452923 0.055635877 0. 0.0679994076 0.0309088212 0.021636175
      0.055635877 0.055635877 0.0649085268 0.021636175 0.0649085268
      0.0710902885 0.00927264616 0.0494541153 0.00309088221 0.0803629383
      0.0494541153</_>
    <_>
      0. 0.0668264329 0. 0.0534611456 0.0400958583 0.0133652864
      0.0935570002 0.0133652864 0.0668264329 0.0133652864 0.0400958583
      0.0267305728 0. 0. 0.0668264329 0.0267305728 0.120287575
      0.0668264329 0.0668264329 0.0133652864 0.106922291 0. 0.0267305728
      0.0267305728 0. 0.133652866 0.0267305728 0.0267305728 0.0133652864
      0.0133652864 0.0534611456 0.0133652864 0.0133652864 0.0668264329
      0.0400958583 0.0400958583 0. 0.0668264329 0.0534611456 0.173748717
      0.0534611456 0.0534611456 0.0400958583 0.0133652864 0.0400958583
      0.0400958583 0. 0. 0.0801917166 0.0133652864 0.0133652864 0.
      0.0801917166 0.106922291 0. 0. 0. 0.106922291 0.0133652864
      0.0935570002 0. 0.0534611456 0. 0.0267305728 0.0400958583
      0.0801917166 0.0133652864 0.0267305728 0.0534611456 0.0534611456
      0.0267305728 0.0534611456 0.0267305728 0.0534611456 0.0400958583
      0.0801917166 0.0801917166 0.200479284 0.0935570002 0.0668264329
      0.0133652864 0.0935570002 0.0267305728 0.0267305728 0.0668264329
      0.106922291 0.0133652864 0.0400958583 0.0133652864 0. 0.
      0.0267305728 0. 0.360862732 0.133652866 0. 0.0400958583
      0.0267305728 0.0801917166 0. 0.0133652864 0.0267305728
      0.0133652864 0.106922291 0.0534611456 0.0133652864 0.147018149 0.
      0.0133652864 0. 0.0400958583 0.0267305728 0.0668264329 0.
      0.0400958583 0.0133652864 0.0267305728 0.0400958583 0.187114
      0.0133652864 0. 0.0400958583 0.0267305728 0.0534611456
      0.0267305728 0.0133652864 0.0267305728 0.0801917166 0.0400958583
      0.0267305728 0.0267305728 0. 0.0267305728 0.0267305728
      0.0267305728 0.0400958583 0.0534611456 0.106922291 0. 0.0534611456
      0.0267305728 0.0133652864 0.0133652864 0.0267305728 0.
      0.0267305728 0.0267305728 0.0668264329 0.0400958583 0.0267305728
      0.0534611456 0.0400958583 0.0668264329 0.0534611456 0.0668264329
      0.0534611456 0.0400958583 0.147018149 0.0133652864 0.0267305728 0.
      0.0133652864 0. 0.0267305728 0.0668264329 0.0133652864
      0.0534611456 0.0267305728 0.0935570002 0.0133652864 0.120287575
      0.0935570002 0.0668264329 0.0133652864 0.0400958583 0.0534611456
      0.0534611456 0.0133652864 0.0534611456 0.0133652864 0.120287575
      0.0668264329 0.0267305728 0.0133652864 0.0133652864 0.0267305728
      0.0133652864 0.0801917166 0.0801917166 0.0935570002 0.120287575
      0.0534611456 0. 0. 0.0267305728 0.0267305728 0.0534611456
      0.0534611456 0.106922291 0.0400958583 0.0133652864 0.0133652864
      0.0534611456 0.0267305728 0.0400958583 0.0267305728 0.0534611456
      0.133652866 0.0133652864 0. 0.0133652864 0.0133652864 0.0267305728
      0. 0.0935570002 0.106922291 0.0133652864 0.0267305728 0.0133652864
      0.0133652864 0.0534611456 0.120287575 0.0133652864 0.106922291 0.
      0.0267305728 0. 0.0400958583 0.120287575 0.0400958583 0.0267305728
      0.0267305728 0.0267305728 0.0400958583 0.0267305728 0.120287575
      0.0400958583 0.0133652864 0.0668264329 0.0400958583 0.0133652864
      0.0534611456 0.0935570002 0.0267305728 0.0267305728 0. 0.120287575
      0.0668264329 0.0267305728 0.0267305728 0.0534611456 0.0668264329
      0. 0.0133652864 0.0133652864 0.0400958583 0. 0.106922291
      0.0133652864 0.0133652864 0.0267305728 0.0133652864 0.0400958583
      0.0267305728 0.0534611456 0.0267305728 0.0267305728 0.0400958583
      0.0801917166 0.0133652864 0. 0.0267305728 0.0668264329
      0.0400958583 0.0133652864 0.0133652864 0.0133652864 0.0133652864
      0. 0.0133652864 0.0133652864 0.0133652864 0.0668264329
      0.0133652864 0.0267305728 0. 0.0267305728 0. 0.0267305728 0.
      0.0400958583 0. 0.0133652864 0.0534611456 0.0668264329 0.
      0.0133652864 0.0133652864 0.0400958583 0.0133652864</_>
    <_>
      0.0336331315 0.0777766183 0.0210207086 0.0420414172 0.0609600544
      0.0483476296 0.0651641935 0.0168165658 0.0294289906 0.027326921
      0.0609600544 0.0525517687 0.0231227782 0.0294289906 0.0504496992
      0.0231227782 0.0924911126 0.0840828344 0.0798786879 0.0168165658
      0.0399393439 0.0231227782 0.054653842 0.0777766183 0.0609600544
      0.031531062 0.0588579811 0.0105103543 0.0357352048 0.0777766183
      0.0189186372 0.0735724792 0.031531062 0.0798786879 0.0840828344
      0.0441434868 0.031531062 0.0525517687 0.0840828344 0.0378372744
      0.0714704096 0.136634603 0.0294289906 0.0378372744 0.0357352048
      0.0609600544 0.0567559116 0.0147144953 0.0987973288 0.0504496992
      0.109307684 0.0147144953 0.157655314 0.0714704096 0.0126124248
      0.0189186372 0.031531062 0.063062124 0.0693683401 0.0693683401
      0.0420414172 0.0504496992 0.0210207086 0.0483476296 0.0357352048
      0.054653842 0.0840828344 0.0399393439 0.027326921 0.0714704096
      0.0504496992 0.0378372744 0.0693683401 0.0840828344 0.086184904
      0.0882869735 0.0231227782 0.0987973288 0.0147144953 0.0567559116
      0.0168165658 0.0693683401 0.0378372744 0.0294289906 0.054653842
      0.0525517687 0.0336331315 0.0441434868 0.0483476296 0.0189186372
      0.0147144953 0.0672662631 0.031531062 0.142940819 0.0462455563
      0.0399393439 0.0441434868 0.0441434868 0.109307684 0.0462455563
      0.0168165658 0.0462455563 0.0147144953 0.0567559116 0.086184904
      0.0336331315 0.126124248 0.031531062 0.0714704096 0.0252248496
      0.16396153 0.0693683401 0.0378372744 0. 0.0798786879 0.0525517687
      0.0504496992 0.0819807649 0.149247035 0.063062124 0.0231227782
      0.0525517687 0.0336331315 0.0504496992 0.0231227782 0.00840828288
      0.0504496992 0.0504496992 0.0147144953 0.0105103543 0.0462455563
      0.0504496992 0.105103537 0.0567559116 0.0336331315 0.027326921
      0.0819807649 0.119818039 0.027326921 0.031531062 0.0420414172
      0.0378372744 0.031531062 0.0357352048 0.0231227782 0.0252248496
      0.0525517687 0.063062124 0.0252248496 0.0399393439 0.0126124248
      0.0672662631 0.0756745487 0.0252248496 0.031531062 0.0609600544
      0.0609600544 0.0672662631 0.086184904 0.0777766183 0.0252248496
      0.0567559116 0.00420414144 0.0231227782 0.0966952592 0.0147144953
      0.0525517687 0.140838742 0.0651641935 0.031531062 0.0504496992
      0.0399393439 0.0756745487 0.0399393439 0.0252248496 0.0399393439
      0.0189186372 0.0693683401 0.063062124 0.0231227782 0.0294289906
      0.0231227782 0.0189186372 0.0252248496 0.0399393439 0.0567559116
      0.0420414172 0.0357352048 0.027326921 0.0252248496 0.054653842
      0.0609600544 0.0378372744 0.0294289906 0.0336331315 0.0924911126
      0.0756745487 0.0588579811 0.113511823 0.0399393439 0.0399393439
      0.0651641935 0.027326921 0.0462455563 0.086184904 0.031531062
      0.0504496992 0.0525517687 0.0672662631 0.0231227782 0.0147144953
      0.0714704096 0.0399393439 0.0105103543 0.0777766183 0.0294289906
      0.0651641935 0.0231227782 0.0483476296 0.0189186372 0.0525517687
      0.0504496992 0.0189186372 0.0777766183 0.0378372744 0.0336331315
      0.0168165658 0.086184904 0.0609600544 0.0357352048 0.0756745487
      0.0210207086 0.0504496992 0.0378372744 0.0252248496 0.0924911126
      0.0798786879 0.0609600544 0.0798786879 0.0882869735 0.031531062
      0.0378372744 0.0525517687 0.0903890431 0.0189186372 0.0231227782
      0.0945931897 0.0735724792 0.0399393439 0.0336331315 0.0756745487
      0.0210207086 0.0252248496 0.0399393439 0.063062124 0.0672662631
      0.0567559116 0.121920109 0.0357352048 0.0504496992 0.0735724792
      0.0378372744 0.0651641935 0.0378372744 0.100899398 0.0147144953
      0.0231227782 0.0525517687 0.0672662631 0.0399393439 0.0336331315
      0.0357352048 0.100899398 0.0294289906 0.0294289906 0.0483476296
      0.0504496992 0.0483476296 0.0105103543 0.0252248496 0.031531062
      0.0567559116 0.054653842 0.0336331315 0.0420414172 0.0294289906
      0.0336331315 0.0336331315 0.0693683401 0.0147144953 0.0294289906
      0.0336331315 0.027326921 0.0483476296 0.0504496992 0.0252248496
      0.0420414172 0.111409754 0.113511823 0.027326921</_>
    <_>
      0.0317326561 0.0713984743 0.00793316402 0.0317326561 0.0713984743
      0.015866328 0.10313113 0.0237994902 0.0237994902 0.015866328
      0.0872647986 0.0396658182 0.00793316402 0.015866328 0.0396658182
      0.0317326561 0.118997455 0.0713984743 0.0396658182 0.00793316402
      0.015866328 0.00793316402 0.0396658182 0.0317326561 0.0317326561
      0.0237994902 0.0396658182 0.00793316402 0.00793316402 0.0713984743
      0.0317326561 0.0793316364 0.015866328 0.0555321462 0.0555321462
      0.015866328 0.015866328 0.0396658182 0.0396658182 0.150730103
      0.0396658182 0.111064292 0.0317326561 0.0555321462 0.0237994902
      0.0237994902 0.015866328 0. 0.0555321462 0.0396658182 0.0713984743
      0.0872647986 0.0793316364 0.0951979607 0.00793316402 0.0555321462
      0. 0.0634653121 0.0555321462 0.0396658182 0.015866328 0.0634653121
      0.015866328 0.00793316402 0.0475989804 0.00793316402 0.0475989804
      0.0396658182 0.015866328 0.015866328 0.0396658182 0.015866328
      0.0396658182 0.0475989804 0.0237994902 0.0872647986 0.0317326561
      0.222128585 0.0396658182 0.0317326561 0.00793316402 0.0713984743
      0.0317326561 0. 0.0317326561 0.142796949 0.00793316402
      0.0396658182 0.0396658182 0.0237994902 0.0317326561 0.0317326561
      0.0237994902 0.0872647986 0.0237994902 0.0396658182 0.0237994902
      0.015866328 0.0793316364 0.0317326561 0.00793316402 0.0317326561
      0. 0.0634653121 0.111064292 0.0396658182 0.0793316364 0.0237994902
      0.0317326561 0. 0.436324 0.0634653121 0.0237994902 0. 0.0793316364
      0.0317326561 0.015866328 0.0793316364 0.0951979607 0.0396658182
      0.0317326561 0.0317326561 0.0475989804 0.0317326561 0.015866328 0.
      0.0713984743 0.0793316364 0.00793316402 0.00793316402 0.0475989804
      0.0317326561 0.0872647986 0.0634653121 0.0237994902 0.
      0.0396658182 0.0713984743 0.0237994902 0.0555321462 0.015866328
      0.00793316402 0.0555321462 0.00793316402 0.00793316402
      0.00793316402 0.015866328 0.0475989804 0.0396658182 0.0237994902
      0.015866328 0.0634653121 0.0793316364 0.0237994902 0.0237994902
      0.0555321462 0.0555321462 0.0317326561 0.0793316364 0.0237994902
      0.015866328 0.0317326561 0. 0.0317326561 0.0396658182 0.
      0.0317326561 0.237994909 0.0396658182 0.0555321462 0.0555321462
      0.0237994902 0.0396658182 0.0237994902 0.015866328 0.0396658182
      0.0317326561 0.015866328 0.0396658182 0.0237994902 0.0317326561
      0.015866328 0. 0.00793316402 0.015866328 0.015866328 0.00793316402
      0.0237994902 0.0396658182 0.0237994902 0.206262261 0.015866328 0.
      0.0317326561 0. 0.0793316364 0.0713984743 0.0237994902
      0.0555321462 0.0237994902 0.0475989804 0.0396658182 0.015866328
      0.0634653121 0.0555321462 0.0317326561 0.0237994902 0.0634653121
      0.0317326561 0.0237994902 0.00793316402 0.0555321462 0.0237994902
      0. 0.0475989804 0.0475989804 0.00793316402 0.00793316402
      0.0317326561 0.015866328 0.0793316364 0.0713984743 0. 0.134863779
      0.0317326561 0.0396658182 0.015866328 0.0793316364 0.0475989804
      0.0317326561 0.0634653121 0.0317326561 0.0713984743 0.0237994902
      0.00793316402 0.111064292 0.0475989804 0.0475989804 0.0396658182
      0.0396658182 0.0396658182 0.00793316402 0.00793316402 0.0713984743
      0. 0.00793316402 0.0634653121 0.0555321462 0.0555321462
      0.0317326561 0.00793316402 0.015866328 0.0396658182 0.00793316402
      0.0713984743 0.182462767 0.0237994902 0.0634653121 0.0475989804
      0.0237994902 0.10313113 0.0475989804 0.0713984743 0.0475989804
      0.0793316364 0.015866328 0.00793316402 0.0396658182 0.0555321462
      0.0317326561 0.0317326561 0.0237994902 0.0475989804 0.00793316402
      0.015866328 0.0237994902 0.0317326561 0.0237994902 0. 0.0634653121
      0.00793316402 0.0396658182 0.0317326561 0.0317326561 0.015866328
      0. 0.00793316402 0.0317326561 0.0396658182 0. 0.015866328
      0.015866328 0.0634653121 0.00793316402 0.015866328 0.0237994902
      0.015866328 0.0793316364 0.0634653121 0.0317326561</_>
    <_>
      0.0595574304 0.021020269 0.00817454886 0.021020269 0.0677319765
      0.021020269 0.101597972 0.00934234168 0.049047295 0.00467117084
      0.152980849 0.0362015739 0.0233558547 0.0794099048 0.0397049524
      0.0163490977 0.128457204 0.0128457202 0.0478795022 0.0186846834
      0.0326981954 0.0163490977 0.0245236475 0.0338659883 0.028027026
      0.0233558547 0.0583896376 0.0128457202 0.0338659883 0.0432083309
      0.0163490977 0.0151813058 0.0455439165 0.0548862591 0.0945912153
      0.0198524762 0.042040538 0.0070067565 0.0326981954 0.0432083309
      0.0397049524 0.0245236475 0.0303626116 0.0256914403 0.0105101345
      0.00817454886 0.0385371596 0.0432083309 0.0291948188 0.0198524762
      0.0432083309 0.0268592332 0.0595574304 0.0817454904 0.268592328
      0.0291948188 0.0151813058 0.0969268009 0.0221880618 0.0397049524
      0.0128457202 0.0817454904 0.00116779271 0.0128457202 0.0338659883
      0.0221880618 0.0548862591 0.0198524762 0.0105101345 0.0373693667
      0.0268592332 0.014013513 0.0151813058 0.0221880618 0.0618930161
      0.0537184663 0.0163490977 0.170497745 0.0175168905 0.0326981954
      0.00350337825 0.0443761237 0.0163490977 0.0198524762 0.0221880618
      0.326981962 0.0221880618 0.0233558547 0.0572218448 0.0105101345
      0.0256914403 0.0315304026 0.0373693667 0.0385371596 0.0432083309
      0.0256914403 0.0128457202 0.0864166617 0.0233558547 0.0151813058
      0.021020269 0.0221880618 0.0186846834 0.0455439165 0.124953821
      0.0326981954 0.0665641874 0.0116779273 0.0163490977 0.021020269
      0.195021391 0.127289414 0.0221880618 0.315304041 0.0233558547
      0.0642286018 0.0105101345 0.0233558547 0.0747387335 0.0268592332
      0.0105101345 0.0665641874 0.042040538 0.0221880618 0.0233558547
      0.00116779271 0.0595574304 0.0186846834 0.0128457202 0.0070067565
      0.0350337811 0.0163490977 0.0303626116 0.0221880618 0.00934234168
      0.014013513 0.0443761237 0.0724031478 0.028027026 0.0303626116
      0.0175168905 0.0443761237 0.0432083309 0.028027026 0.021020269
      0.0233558547 0.0408727452 0.0198524762 0.00934234168 0.0186846834
      0.0175168905 0.0233558547 0.15181306 0.0397049524 0.028027026
      0.0362015739 0.0186846834 0.0326981954 0.0665641874 0.0151813058
      0.0221880618 0.021020269 0.0070067565 0.0105101345 0.0256914403
      0.00817454886 0.0291948188 0.182175666 0.0233558547 0.0175168905
      0.0245236475 0.021020269 0.0326981954 0.0163490977 0.00934234168
      0.00934234168 0.00817454886 0.0116779273 0.0432083309
      0.00934234168 0.014013513 0.0151813058 0.0221880618 0.0350337811
      0.0116779273 0.0338659883 0.028027026 0.0245236475 0.0175168905
      0.0233558547 0.130792782 0.0175168905 0.0151813058 0.0128457202
      0.0151813058 0.00817454886 0.0186846834 0.0338659883 0.0373693667
      0.0373693667 0.0326981954 0.0175168905 0.00817454886 0.211370483
      0.0443761237 0.00817454886 0.056054052 0.028027026 0.0513828807
      0.014013513 0.0128457202 0.0315304026 0.138967335 0.0116779273
      0.0315304026 0.0443761237 0.0478795022 0.028027026 0.0268592332
      0.014013513 0.028027026 0.0256914403 0.00350337825 0.0852488726
      0.021020269 0.0116779273 0.0128457202 0.154148638 0.028027026
      0.0221880618 0.0338659883 0.014013513 0.0186846834 0.0408727452
      0.0163490977 0.162323192 0.042040538 0.0151813058 0.0350337811
      0.0303626116 0.0583896376 0.049047295 0.0186846834 0.0397049524
      0.028027026 0.00934234168 0.0513828807 0.0408727452 0.0373693667
      0.0175168905 0.028027026 0.0338659883 0.0163490977 0.0245236475
      0.0163490977 0.0595574304 0.0198524762 0.0315304026 0.021020269
      0.0186846834 0.0291948188 0.0175168905 0.0163490977 0.0688997731
      0.0315304026 0.0128457202 0.0198524762 0.0175168905 0.0256914403
      0.0163490977 0.00934234168 0.00817454886 0.0864166617 0.0105101345
      0.014013513 0.0525506735 0.0198524762 0.014013513 0.237061933
      0.0268592332 0.1132759 0.0268592332 0.0151813058 0.0128457202
      0.0315304026 0.0256914403 0.0233558547 0.0630608052 0.021020269
      0.0268592332 0.0128457202 0.0245236475 0.0151813058 0.0221880618
      0.0198524762 0.00583896367 0.0233558547 0.0245236475 0.0572218448
      0.00583896367</_>
    <_>
      0.0358339399 0.00895848498 0.0268754549 0.0537509099 0.0358339399
      0.0268754549 0.0268754549 0.01791697 0.0447924249 0.0268754549
      0.0627093986 0.0627093986 0.0895848498 0. 0.00895848498
      0.0537509099 0.10750182 0.0537509099 0.0716678798 0.01791697
      0.0447924249 0.0268754549 0.0537509099 0.0358339399 0.0537509099
      0.00895848498 0.0716678798 0.0268754549 0.0537509099 0.00895848498
      0.0447924249 0.01791697 0.0716678798 0.14333576 0.0985433385
      0.0806263685 0.0268754549 0.0806263685 0.0447924249 0.
      0.0268754549 0.0268754549 0.0268754549 0.0268754549 0.0716678798
      0.01791697 0.0985433385 0.00895848498 0.0447924249 0.0537509099
      0.0447924249 0.0806263685 0.01791697 0.0537509099 0.01791697
      0.01791697 0.0627093986 0.10750182 0.00895848498 0.0985433385
      0.01791697 0.01791697 0. 0.0268754549 0.01791697 0.0806263685
      0.116460308 0.0447924249 0.0716678798 0.152294248 0.0806263685
      0.0537509099 0.01791697 0.0358339399 0.0268754549 0.0895848498
      0.0537509099 0.0447924249 0.0985433385 0.0537509099 0.0358339399
      0.125418797 0.0447924249 0.0268754549 0.0447924249 0.01791697
      0.00895848498 0.0447924249 0.0627093986 0.0358339399 0.0895848498
      0.0358339399 0.134377286 0.0627093986 0.125418797 0.00895848498
      0.0537509099 0.0895848498 0.0447924249 0.0537509099 0.0537509099
      0.0447924249 0.0537509099 0.0447924249 0.01791697 0.0447924249
      0.0358339399 0.0447924249 0.0447924249 0.01791697 0.01791697
      0.0806263685 0.0716678798 0. 0.0537509099 0.0985433385
      0.0358339399 0.0537509099 0.125418797 0.0627093986 0.0537509099
      0.0895848498 0.0895848498 0.0537509099 0.0716678798 0.00895848498
      0.0806263685 0.0537509099 0.0537509099 0.0358339399 0.0806263685
      0.0447924249 0.0358339399 0.0716678798 0.0358339399 0.0895848498
      0.0537509099 0.0985433385 0.0537509099 0.00895848498 0.0268754549
      0.0716678798 0. 0.0447924249 0.0716678798 0.0627093986
      0.0537509099 0.0537509099 0.0447924249 0.0268754549 0.0895848498
      0.0358339399 0.0985433385 0.0537509099 0.116460308 0.0806263685
      0.0627093986 0.0895848498 0.0806263685 0.0358339399 0.0447924249
      0.00895848498 0.0268754549 0.01791697 0.0716678798 0.0447924249
      0.0806263685 0.0537509099 0.0268754549 0.01791697 0.0537509099
      0.0268754549 0.01791697 0.0537509099 0.0268754549 0.01791697
      0.0716678798 0.0268754549 0.0895848498 0.0716678798 0.0358339399
      0.0358339399 0.00895848498 0.0716678798 0.0447924249 0.00895848498
      0.0447924249 0.0268754549 0.0358339399 0.0537509099 0.00895848498
      0.0358339399 0.01791697 0.01791697 0.0447924249 0.0268754549
      0.0358339399 0.0985433385 0.0806263685 0.01791697 0.0985433385 0.
      0.0268754549 0.0716678798 0.0268754549 0.00895848498 0.0716678798
      0.0627093986 0.0447924249 0.0537509099 0.0447924249 0.00895848498
      0.00895848498 0.0358339399 0.00895848498 0.0627093986 0.0895848498
      0.0985433385 0.116460308 0.0268754549 0.01791697 0.0447924249
      0.0268754549 0.0806263685 0.0716678798 0.0806263685 0.01791697 0.
      0.0358339399 0.0985433385 0.01791697 0.0447924249 0.01791697
      0.0447924249 0. 0. 0.0985433385 0.0447924249 0.0447924249
      0.0627093986 0.0447924249 0.0806263685 0.0895848498 0.0447924249
      0.0806263685 0.0268754549 0.0447924249 0.0895848498 0.0716678798
      0.0447924249 0.0627093986 0.0447924249 0.00895848498 0.0716678798
      0.0537509099 0.10750182 0.0358339399 0.00895848498 0.0895848498
      0.0268754549 0.10750182 0.0358339399 0.0447924249 0.0985433385
      0.0447924249 0.0447924249 0.0627093986 0.0268754549 0.0447924249
      0.0447924249 0. 0.01791697 0.0447924249 0.0716678798 0.0537509099
      0.0716678798 0.0358339399 0.0537509099 0. 0.01791697 0.01791697
      0.0806263685 0.0537509099 0.0358339399 0.0358339399 0.0537509099
      0.0806263685 0.00895848498 0.0627093986 0.0716678798 0.0447924249
      0.0627093986 0.0358339399 0.0806263685 0. 0. 0.0627093986
      0.0358339399 0.0716678798 0.</_>
    <_>
      0.063104108 0.0126208207 0.0462763421 0.0294485819 0.0168277621
      0.00420694053 0.0546902232 0.0252416413 0. 0.0546902232
      0.0588971637 0.399659336 0.0294485819 0.00841388106 0.0504832827
      0.0504832827 0.109380446 0.063104108 0.0126208207 0.0294485819
      0.0294485819 0.00841388106 0.00841388106 0.0252416413 0.0462763421
      0.0462763421 0.0168277621 0.0757249221 0.0168277621 0.0210347008
      0.00841388106 0.0378624611 0. 0.151449844 0.0336555243
      0.00420694053 0.0252416413 0.00420694053 0.0462763421 0.0336555243
      0.0294485819 0.0504832827 0.0504832827 0.0378624611 0.0126208207
      0.0546902232 0.0252416413 0.0126208207 0.0462763421 0.0336555243
      0.0294485819 0.0504832827 0.0925526842 0.0757249221 0.0168277621
      0.0504832827 0.0504832827 0.0420694016 0.0168277621 0.0336555243
      0.0336555243 0.0336555243 0.0210347008 0.0168277621 0.0252416413
      0.0168277621 0.0252416413 0.0336555243 0.0168277621 0.00841388106
      0.0378624611 0.0336555243 0.0336555243 0.071517989 0.0294485819 0.
      0.0799318627 0.0883457437 0.00841388106 0.0883457437 0.0210347008
      0.0420694016 0.0546902232 0.0126208207 0.0378624611 0.0126208207
      0.0378624611 0.0841388032 0.0757249221 0.0462763421 0.134622097
      0.0378624611 0.0504832827 0.00841388106 0.0294485819 0.0294485819
      0.0546902232 0.00841388106 0.0420694016 0.147242919 0.0462763421
      0.0126208207 0.0294485819 0.0588971637 0.0252416413 0.0504832827
      0.0925526842 0.0210347008 0.0210347008 0.0210347008 0.0546902232
      0.0799318627 0.0126208207 0. 0.0336555243 0. 0.100966565
      0.0378624611 0.0126208207 0.0420694016 0.0336555243 0.0378624611
      0.105173506 0.0378624611 0.0210347008 0.0168277621 0.0673110485
      0.0504832827 0.0378624611 0.0252416413 0.0168277621 0.0504832827
      0.0588971637 0.0210347008 0.0210347008 0.00841388106 0.0420694016
      0.0336555243 0.0799318627 0.0462763421 0.0294485819 0.0757249221
      0.00841388106 0.201933131 0.0210347008 0.0210347008 0.0252416413
      0.00841388106 0.0294485819 0.0504832827 0.0252416413 0.063104108
      0.105173506 0.0252416413 0.0420694016 0.0462763421 0.0673110485
      0.0252416413 0.0757249221 0.0126208207 0.0967596248 0.0420694016
      0.0210347008 0.0294485819 0.0294485819 0.0420694016 0.071517989
      0.134622097 0.0378624611 0.0168277621 0.147242919 0.0168277621
      0.0210347008 0.0126208207 0.105173506 0.0462763421 0.0925526842
      0.0799318627 0.0799318627 0.00841388106 0.00841388106
      0.00420694053 0.00841388106 0.134622097 0.0504832827 0.0420694016
      0.155656785 0.0336555243 0.0378624611 0.105173506 0.0252416413
      0.0210347008 0.0210347008 0.00420694053 0.0420694016 0.0546902232
      0.0378624611 0.00841388106 0.0462763421 0.0210347008 0.206140071
      0.0546902232 0.00841388106 0.0757249221 0.0462763421 0.00841388106
      0.063104108 0.0126208207 0.0925526842 0.0252416413 0.0126208207
      0.0336555243 0.0126208207 0.0336555243 0.0210347008 0.0799318627
      0.0336555243 0.0126208207 0.0168277621 0.0168277621 0.0336555243
      0.0168277621 0.0126208207 0.0168277621 0.0588971637 0.00841388106
      0.0378624611 0.0252416413 0.0210347008 0.0252416413 0.117794327
      0.0168277621 0.0336555243 0.0462763421 0.0252416413 0.0841388032
      0.0504832827 0.0294485819 0.0504832827 0.0210347008 0.109380446
      0.0336555243 0.0588971637 0.109380446 0.0252416413 0.0210347008
      0.0294485819 0.0294485819 0.0210347008 0.0168277621 0.0673110485
      0.0336555243 0.0378624611 0.0126208207 0.00841388106 0.0673110485
      0.0294485819 0.0336555243 0.113587387 0.0378624611 0.0252416413
      0.0420694016 0.0378624611 0.063104108 0.0294485819 0.0673110485
      0.00841388106 0.0673110485 0.0378624611 0.0294485819 0.0294485819
      0.0126208207 0.0378624611 0.0378624611 0.0378624611 0.0168277621
      0.00841388106 0.0210347008 0.00420694053 0.0925526842 0.0462763421
      0.0757249221 0.071517989 0.0336555243 0.0210347008 0.0210347008
      0.0504832827 0.0168277621 0.0336555243 0.0252416413 0.122001268
      0.0420694016 0.0294485819 0.0294485819 0.0588971637 0.0168277621
      0.0546902232 0.063104108 0.0252416413 0.0546902232</_>
    <_>
      0.0442829356 0.0221414678 0. 0.0774951354 0.199273199 0.
      0.0442829356 0.0221414678 0.0110707339 0.0553536676 0.0553536676
      0.0221414678 0.0442829356 0. 0. 0.0664243996 0.0885658711
      0.0221414678 0.0221414678 0. 0.0553536676 0. 0.0110707339
      0.0221414678 0.0332121998 0.143919528 0.0774951354 0.0221414678 0.
      0.0110707339 0.0553536676 0.0442829356 0.0221414678 0.121778071
      0.0442829356 0.0221414678 0. 0.0221414678 0.0221414678 0.121778071
      0.0110707339 0.0332121998 0. 0.0110707339 0.0221414678
      0.0332121998 0.0996365994 0. 0.0221414678 0. 0.0110707339
      0.0332121998 0.0110707339 0.0553536676 0. 0.0553536676 0.
      0.166060999 0.0110707339 0.0664243996 0. 0.0221414678 0.
      0.0221414678 0. 0.0553536676 0.0553536676 0. 0.0110707339
      0.0774951354 0.0110707339 0.0332121998 0.0332121998 0.0332121998
      0.0221414678 0.0110707339 0.0442829356 0.25462687 0.0442829356
      0.0110707339 0. 0.143919528 0.0221414678 0.0332121998 0.0664243996
      0.177131742 0. 0.0442829356 0.0664243996 0.0996365994 0.177131742
      0.0332121998 0.0664243996 0.0996365994 0.0442829356 0. 0.
      0.0221414678 0.0332121998 0.0221414678 0.0664243996 0.0110707339
      0.0442829356 0.0553536676 0.121778071 0.0332121998 0.0221414678
      0.0221414678 0. 0. 0.0442829356 0.110707335 0.0221414678 0.
      0.0110707339 0.0221414678 0. 0. 0.0774951354 0.0664243996 0.
      0.0664243996 0.0664243996 0.0664243996 0.0332121998 0.0221414678
      0.0664243996 0.0221414678 0.0442829356 0.0221414678 0.0996365994
      0. 0.0553536676 0.0110707339 0.0110707339 0.0553536676
      0.0221414678 0.0553536676 0.0996365994 0.0885658711 0.0221414678
      0.0553536676 0. 0.0885658711 0.0110707339 0.0332121998 0.
      0.0442829356 0. 0. 0.0996365994 0.0110707339 0.132848799
      0.0774951354 0.0774951354 0.0996365994 0.0110707339 0.0332121998
      0.0332121998 0.0221414678 0.0221414678 0.0221414678 0.0110707339
      0.0442829356 0. 0.0221414678 0.0885658711 0.110707335 0.0221414678
      0.0110707339 0.0442829356 0.0110707339 0.0332121998 0.0442829356
      0.0442829356 0.0221414678 0.0553536676 0. 0.0885658711 0.
      0.0332121998 0.0553536676 0.0110707339 0.0996365994 0.0442829356
      0. 0.110707335 0.0774951354 0.0553536676 0.0221414678 0.276768327
      0.0553536676 0.0332121998 0. 0.0332121998 0.0110707339
      0.0332121998 0.0996365994 0.0221414678 0. 0.0110707339
      0.0221414678 0.0221414678 0.0885658711 0.0110707339 0. 0.121778071
      0.0221414678 0.0110707339 0.0774951354 0.0332121998 0.0332121998
      0. 0. 0.0110707339 0.110707335 0.0110707339 0.0553536676
      0.0332121998 0.0774951354 0.0664243996 0.0332121998 0. 0.154990271
      0.0332121998 0.0221414678 0.0442829356 0.188202471 0.0221414678 0.
      0.0664243996 0.0110707339 0.0221414678 0.0553536676 0.
      0.0553536676 0.0332121998 0. 0.0110707339 0.0332121998
      0.0553536676 0.0996365994 0.0442829356 0.0221414678 0.
      0.0110707339 0. 0.0110707339 0.0110707339 0.0221414678
      0.0221414678 0.0332121998 0. 0.0442829356 0.0221414678
      0.0332121998 0.0110707339 0.0332121998 0.0664243996 0.0332121998
      0.0110707339 0.0110707339 0.0221414678 0.0553536676 0.0221414678
      0.0332121998 0.0221414678 0.0442829356 0.0110707339 0.0664243996
      0. 0.0110707339 0.0996365994 0.0332121998 0. 0.0332121998
      0.0664243996 0.0221414678 0. 0.0996365994 0. 0.0442829356
      0.0996365994 0.0110707339 0.0221414678 0.0110707339 0.0221414678
      0. 0. 0.0110707339 0.0996365994 0.0221414678 0. 0.0664243996
      0.0332121998 0. 0.0110707339 0. 0.0553536676 0.0332121998</_>
    <_>
      0.0146566266 0.0512981936 0.0219849404 0.0732831359 0.0366415679
      0.080611445 0.0586265065 0.0512981936 0.00732831331 0.00732831331
      0.102596387 0.0586265065 0. 0.0366415679 0.0659548193 0.0146566266
      0.0586265065 0.0586265065 0.0439698808 0.0293132532 0.0219849404
      0.0219849404 0.0366415679 0.0659548193 0.0732831359 0.00732831331
      0.0659548193 0.0293132532 0.00732831331 0.0659548193 0.0146566266
      0.080611445 0.0732831359 0.0512981936 0.0366415679 0.0512981936
      0.0512981936 0.0219849404 0.0293132532 0.00732831331 0.0586265065
      0.0439698808 0.0586265065 0.0586265065 0.0146566266 0.0586265065
      0. 0. 0.146566272 0.0732831359 0.0586265065 0.0219849404
      0.0293132532 0.131909639 0.0219849404 0.0293132532 0.0366415679
      0.0293132532 0.0439698808 0.0293132532 0.0293132532 0.0586265065
      0.0146566266 0.080611445 0.0586265065 0.0439698808 0.0879397616
      0.0366415679 0.0366415679 0.0732831359 0.0293132532 0.00732831331
      0.0146566266 0.0952680707 0.080611445 0.0732831359 0.0293132532
      0.0586265065 0.0146566266 0.0439698808 0.0219849404 0.0366415679
      0.0439698808 0.0366415679 0.0732831359 0.212521091 0.0366415679
      0.0439698808 0.0366415679 0.0146566266 0.0293132532 0.102596387
      0.0659548193 0.0293132532 0.0659548193 0.0146566266 0.0952680707
      0.0219849404 0.0879397616 0.109924704 0.00732831331 0.0512981936
      0. 0.0146566266 0.0146566266 0.0512981936 0.0659548193
      0.0293132532 0.0952680707 0.0293132532 0.146566272 0.12458133
      0.0366415679 0. 0.0879397616 0.0146566266 0.12458133 0.0659548193
      0.0439698808 0.0586265065 0.0366415679 0.0879397616 0.0366415679
      0.0146566266 0.0366415679 0.00732831331 0.102596387 0.0439698808
      0.00732831331 0.0512981936 0.0439698808 0.0659548193 0.0586265065
      0.0366415679 0.0219849404 0.0293132532 0.109924704 0.0732831359
      0.0146566266 0.0219849404 0.0219849404 0.0952680707 0.0659548193
      0.0366415679 0.0293132532 0.0219849404 0.0512981936 0.0439698808
      0.0586265065 0.0293132532 0.0146566266 0.117253013 0.0879397616
      0.0219849404 0.109924704 0.0879397616 0.0659548193 0.0512981936
      0.109924704 0.0293132532 0.0439698808 0.0293132532 0. 0.0146566266
      0.131909639 0.0366415679 0.0366415679 0.0659548193 0.0659548193
      0.0586265065 0.0439698808 0.00732831331 0.0586265065 0.00732831331
      0.00732831331 0.0146566266 0.00732831331 0.0659548193 0.0586265065
      0.0219849404 0.00732831331 0.0293132532 0.0586265065 0.00732831331
      0.0366415679 0.0659548193 0.0146566266 0.0439698808 0.
      0.0146566266 0.0879397616 0.0512981936 0.0293132532 0.0366415679
      0.0366415679 0.0879397616 0.080611445 0.0659548193 0.0366415679
      0.0586265065 0.0439698808 0.0659548193 0.0366415679 0.131909639
      0.0659548193 0.0293132532 0.0586265065 0.0366415679 0.0659548193
      0.0512981936 0. 0.0659548193 0.0512981936 0.0146566266
      0.0219849404 0.0439698808 0.0219849404 0.0219849404 0.0366415679
      0.00732831331 0.0293132532 0. 0.00732831331 0.0586265065
      0.00732831331 0.0293132532 0.0219849404 0.0586265065 0.0659548193
      0.0659548193 0.102596387 0.0219849404 0.0732831359 0.0732831359
      0.0293132532 0.190536141 0.0879397616 0.0293132532 0.109924704
      0.0732831359 0.0439698808 0.0219849404 0.0293132532 0.0366415679
      0.00732831331 0.0146566266 0.0512981936 0.0293132532 0.
      0.0293132532 0.0439698808 0.00732831331 0.0219849404 0.0293132532
      0.0512981936 0.117253013 0.0952680707 0.0439698808 0.0439698808
      0.0586265065 0.0879397616 0. 0.0732831359 0.0293132532 0.117253013
      0.0366415679 0.0219849404 0.0439698808 0.0586265065 0.0659548193
      0.0366415679 0.0439698808 0.0732831359 0.00732831331 0.0293132532
      0.0879397616 0.0219849404 0.0732831359 0. 0.0146566266
      0.0293132532 0.0952680707 0.0952680707 0.00732831331 0.102596387
      0.0439698808 0.0439698808 0.102596387 0.0512981936 0.0659548193
      0.0366415679 0.0146566266 0.00732831331 0.00732831331 0.0146566266
      0.0293132532 0.0366415679 0.0293132532 0.0512981936 0.0219849404</_>
    <_>
      0.136218786 0.0227031317 0. 0.0227031317 0.0862719044
      0.00454062643 0.0136218788 0. 0.0499468893 0.0136218788
      0.0499468893 0.0272437576 0.0136218788 0.0136218788 0.00454062643
      0.0181625057 0.0771906525 0.00454062643 0.0227031317 0.00454062643
      0.0499468893 0.00454062643 0.00908125285 0.0408656374 0.0363250114
      0.0317843854 0.0317843854 0.00908125285 0.0136218788 0.0181625057
      0.0227031317 0.0136218788 0.0408656374 0.0454062633 0.0544875152
      0.00908125285 0.00454062643 0.0136218788 0.0272437576 0.0317843854
      0.0317843854 0.0499468893 0. 0.0317843854 0.0272437576
      0.0317843854 0.0771906525 0.00454062643 0.00908125285
      0.00454062643 0.0408656374 0.0635687709 0.0817312747 0.154381305
      0. 0.0681093931 0.00454062643 0.0272437576 0.0181625057
      0.0454062633 0. 0.168003172 0. 0.0136218788 0.00454062643
      0.0136218788 0.0363250114 0.0272437576 0.0136218788 0.0227031317
      0.0181625057 0.0408656374 0.0136218788 0.0181625057 0.0272437576
      0.136218786 0.0363250114 0.213409439 0.0454062633 0.0317843854 0.
      0.0136218788 0.0227031317 0.00908125285 0.0408656374 0.136218786
      0.00908125285 0. 0.0590281449 0.0272437576 0.00908125285
      0.00454062643 0.0317843854 0.0181625057 0.00908125285 0.
      0.0317843854 0.0998937786 0.0454062633 0.0181625057 0.00454062643
      0.0136218788 0.00908125285 0.0590281449 0.10897503 0.0317843854
      0.0726500228 0.0272437576 0.0181625057 0.00454062643 0.295140713
      0.0544875152 0.0272437576 0. 0.0317843854 0.0227031317
      0.0227031317 0.0317843854 0.0635687709 0.0317843854 0.00908125285
      0.0499468893 0.0272437576 0.0272437576 0.0227031317 0.00454062643
      0.0635687709 0.0454062633 0.00908125285 0.0272437576 0.0454062633
      0.0181625057 0.0817312747 0.00908125285 0.0227031317 0.0363250114
      0.0136218788 0.0635687709 0.00908125285 0.0363250114 0.0272437576
      0.0499468893 0.00908125285 0.0181625057 0.00908125285 0.
      0.00908125285 0.0317843854 0.00908125285 0.00454062643
      0.00454062643 0.0136218788 0.0681093931 0.0363250114 0.00908125285
      0.0454062633 0.0454062633 0.0499468893 0.0953531563 0.0181625057
      0.0272437576 0.0454062633 0.00454062643 0.0181625057 0.0363250114
      0.00454062643 0.0363250114 0.599362671 0.0136218788 0.0136218788
      0.0227031317 0.0590281449 0.0227031317 0.00908125285 0.00908125285
      0.0635687709 0.00908125285 0.0181625057 0.0363250114 0.0499468893
      0.0272437576 0.00908125285 0.0181625057 0. 0. 0.0181625057
      0.0317843854 0.0590281449 0.0408656374 0.0454062633 0.0817312747
      0.0136218788 0.0181625057 0.00908125285 0.0317843854 0.0272437576
      0.0181625057 0.0136218788 0.0408656374 0.00454062643 0.0317843854
      0.0317843854 0.0136218788 0.0544875152 0.0272437576 0.00454062643
      0.0272437576 0.0408656374 0.0317843854 0.0136218788 0.0317843854
      0.0181625057 0.00454062643 0.00454062643 0.0272437576 0.0272437576
      0.0363250114 0.0681093931 0.00908125285 0.00454062643 0.0544875152
      0.0726500228 0. 0.122596912 0.00908125285 0.0136218788
      0.0317843854 0.0908125266 0.0544875152 0.0227031317 0.0635687709
      0.00908125285 0.0454062633 0.0181625057 0. 0.122596912
      0.0408656374 0.0272437576 0.0454062633 0.0272437576 0.0726500228
      0.0544875152 0.00454062643 0.0317843854 0.0181625057 0.0136218788
      0.0317843854 0.0227031317 0.0227031317 0.0590281449 0.0454062633
      0.0363250114 0. 0.0363250114 0.0272437576 0.0635687709
      0.00454062643 0.0635687709 0.0272437576 0.0317843854 0.0272437576
      0.0454062633 0. 0.0363250114 0.0227031317 0.0136218788
      0.00908125285 0.0454062633 0.0363250114 0.0181625057 0.
      0.0136218788 0.127137542 0.0317843854 0.00454062643 0.0181625057
      0.0136218788 0.0227031317 0. 0.0590281449 0.0181625057
      0.0227031317 0.0317843854 0.104434408 0.0454062633 0.00454062643
      0.0136218788 0.0136218788 0.00908125285 0.0136218788 0.0544875152
      0.0181625057 0.00908125285 0.0136218788 0.0317843854 0.
      0.00908125285 0.0272437576 0.0272437576 0.0363250114</_>
    <_>
      0.0739315972 0.00595657434 0.0115627619 0.0329363532 0.046601437
      0.00560618751 0.0448495001 0.00911005493 0.0946044177 0.0129643092
      0.0602665171 0.0784866288 0.0805889517 0.013314696 0.033637125
      0.0154170161 0.0427471809 0.0161177889 0.0199720431 0.0147162424
      0.0227751378 0.00315348059 0.00385425403 0.0101612154 0.0241766851
      0.124036901 0.0907501653 0.0560618788 0.00735812122 0.00525580114
      0.0182201099 0.00805889443 0.0788370147 0.0553611033 0.0378417671
      0.0900493935 0.0164681766 0.0315348059 0.0049054143 0.14225702
      0.0108619891 0.00525580114 0.0252278447 0.00840928126 0.0196216572
      0.02242475 0.172390267 0.00700773485 0.0157674029 0.00350386743
      0.0105116023 0.083041653 0.0147162424 0.0108619891 0.00420464063
      0.149965525 0.0427471809 0.0812897235 0.0049054143 0.0143658556
      0.0126139224 0.0196216572 0.00385425403 0.0294324849 0.00560618751
      0.102663316 0.02242475 0.0108619891 0.0329363532 0.102663316
      0.00735812122 0.0189208835 0.0140154697 0.0129643092 0.00770850806
      0.153118998 0.0185704976 0.101962537 0.0560618788 0.0767346919
      0.00770850806 0.139804304 0.0308340322 0.033637125 0.011212375
      0.0588649698 0.0087596681 0.101612151 0.057813812 0.026979778
      0.138753146 0.0241766851 0.038192153 0.137001216 0.0462510474
      0.00946044177 0.0322355777 0.14015469 0.011212375 0.0560618788
      0.103364088 0.0108619891 0.0585145839 0.148914367 0.0385425389
      0.0129643092 0.0171689503 0.0147162424 0.0129643092 0.0105116023
      0.0364402197 0.0798881724 0.0364402197 0. 0.0203224309 0.159425959
      0.0301332586 0.0273301657 0.155221328 0.0241766851 0.0175193362
      0.024527071 0.0378417671 0.0546603315 0.0480029806 0.207428947
      0.058164198 0.0126139224 0.127190381 0.024527071 0.033637125
      0.0287317112 0.0143658556 0.0469518229 0.00665734801 0.0150666293
      0.0192712694 0.026979778 0.0875966847 0.26489237 0.00840928126
      0.0416960195 0.00525580114 0.0564122647 0.0280309394 0.118430719
      0.00946044177 0.0367906056 0.0087596681 0.00385425403 0.0753331482
      0.033637125 0.046601437 0.0567626506 0.060616903 0.0350386724
      0.00630696118 0.0154170161 0.042396795 0.00805889443 0.0889982283
      0.0049054143 0.0592153594 0.0098108286 0.026979778 0.139804304
      0.038192153 0.0413456336 0.0087596681 0.029082099 0.0217239782
      0.0129643092 0.0154170161 0.033637125 0.013314696 0.00700773485
      0.0648215488 0.0280309394 0.0451998897 0.00770850806 0.00420464063
      0.0171689503 0.0140154697 0.150666296 0.00805889443 0.00946044177
      0.1345485 0.0508060753 0.0241766851 0.0192712694 0.0928524807
      0.0266293921 0.0154170161 0.0049054143 0.0409952477 0.0182201099
      0.011212375 0.0967067406 0.0136650829 0.0115627619 0.0767346919
      0.00700773485 0.0276805516 0.0798881724 0.00946044177 0.0217239782
      0.0767346919 0.0108619891 0.0154170161 0.116678782 0.0189208835
      0.00665734801 0.00280309375 0.0217239782 0.00770850806
      0.0385425389 0.112123758 0.0357394479 0.0991594419 0.0592153594
      0.013314696 0.100911379 0.00840928126 0.0476525947 0.0473022088
      0.011212375 0.0322355777 0.118080325 0.0308340322 0.0252278447
      0.0129643092 0.0126139224 0.0122635355 0.0122635355 0.00210232032
      0.127190381 0.0126139224 0.00770850806 0.0129643092 0.0192712694
      0.0546603315 0.0150666293 0.0553611033 0.00525580114 0.0406448618
      0.0154170161 0.0147162424 0.0119131487 0.150666296 0.00946044177
      0.0154170161 0.0318851918 0.0196216572 0.0434479564 0.060616903
      0.0522076227 0.017869724 0.00385425403 0.0262790043 0.00770850806
      0.0529083982 0.0199720431 0.0329363532 0.0602665171 0.0217239782
      0.0189208835 0.0171689503 0.00911005493 0.0087596681 0.0357394479
      0.00525580114 0.0098108286 0.011212375 0.00911005493 0.00735812122
      0.101612151 0.0143658556 0.0388929285 0. 0.117029168 0.00420464063
      0.042396795 0.0122635355 0.159075573 0.011212375 0.0087596681
      0.0189208835 0.00911005493 0.00700773485 0.0280309394 0.0241766851
      0.0322355777 0.013314696 0.11597801 0.0357394479 0.0161177889
      0.0406448618 0.00700773485 0.0210232046 0.00946044177</_>
    <_>
      0.0913586915 0.00222826074 0.00278532598 0.0284103248 0.0679619536
      0.00334239122 0.00612771744 0.00278532598 0.095815219 0.0128124999
      0.0189402178 0.0473505445 0.0311956517 0.00222826074 0.00557065196
      0.0150407609 0.0289673917 0.00891304296 0.0161548909 0.00111413037
      0.0167119559 0. 0.00557065196 0.0100271739 0.0178260859 0.34370923
      0.0406657606 0.0306385867 0.00278532598 0.00445652148
      0.00445652148 0.0094701089 0.0378804356 0.0311956517 0.0434510857
      0.0178260859 0.00167119561 0.0122554349 0.00445652148 0.423369557
      0.0094701089 0.00445652148 0.00389945647 0.00779891293
      0.00557065196 0.0167119559 0.119211957 0.000557065185
      0.00668478245 0.00501358695 0.00334239122 0.0501358695
      0.0133695649 0.0100271739 0.000557065185 0.228953794 0.0183831528
      0.0323097818 0.00278532598 0.0105842389 0.000557065185
      0.0172690209 0.00167119561 0.0128124999 0.000557065185
      0.0250679348 0.0150407609 0.00724184792 0.0178260859 0.0289673917
      0.00668478245 0.0167119559 0.00501358695 0.0100271739
      0.00612771744 0.186059773 0.0178260859 0.113641299 0.0261820648
      0.0323097818 0.00612771744 0.0501358695 0.0189402178 0.0183831528
      0.00891304296 0.0245108698 0.00111413037 0.0300815217 0.0278532598
      0.0133695649 0.0913586915 0.00668478245 0.0133695649 0.256249994
      0.0434510857 0.00111413037 0.0256249998 0.0596059784 0.00501358695
      0.0311956517 0.0373233706 0.00557065196 0.0172690209 0.0863451064
      0.0685190186 0.00612771744 0.0150407609 0.0116983689 0.00222826074
      0.00389945647 0.096372284 0.0267391298 0.0105842389 0.
      0.00835597795 0.0796603262 0.00891304296 0.0111413039 0.204999998
      0.00724184792 0.00501358695 0.0116983689 0.0222826079 0.0194972828
      0.0300815217 0.114198364 0.0228396729 0.00557065196 0.0724184737
      0.0183831528 0.0200543478 0.00779891293 0.0116983689 0.0155978259
      0.00222826074 0.0133695649 0.00167119561 0.0183831528 0.0362092368
      0.293016315 0.00334239122 0.0267391298 0.000557065185 0.0367663056
      0.0189402178 0.0233967379 0.00334239122 0.0167119559 0.00167119561
      0.00557065196 0.0512499996 0.0183831528 0.0306385867 0.0473505445
      0.0178260859 0.0211684778 0.00501358695 0.0128124999 0.0250679348
      0.00278532598 0.0306385867 0.00389945647 0.0367663056
      0.00334239122 0.0105842389 0.0735326111 0.0150407609 0.109741844
      0.00389945647 0.00612771744 0.0139266299 0.0161548909
      0.00779891293 0.0122554349 0.0328668468 0.00557065196 0.0373233706
      0.00612771744 0.0144836958 0.00779891293 0.0100271739
      0.00835597795 0.0094701089 0.097486414 0.00668478245 0.00779891293
      0.109184779 0.0233967379 0.0150407609 0.0189402178 0.0562635846
      0.0144836958 0.0155978259 0.00111413037 0.0200543478 0.00724184792
      0.00278532598 0.0245108698 0.00724184792 0.00278532598
      0.0256249998 0.00779891293 0.0111413039 0.0172690209 0.00501358695
      0.00278532598 0.0189402178 0.0100271739 0.00557065196 0.0284103248
      0.00891304296 0.00389945647 0.00111413037 0.00445652148
      0.00389945647 0.0194972828 0.0389945656 0.00891304296 0.0401086956
      0.0534782596 0.00557065196 0.127567932 0.00557065196 0.0579347834
      0.0194972828 0.00779891293 0.0139266299 0.0813315213 0.0206114128
      0.0100271739 0.0094701089 0.0094701089 0.00389945647 0.0139266299
      0.00111413037 0.127567932 0.00389945647 0.00334239122 0.0100271739
      0.00501358695 0.0272961948 0.0150407609 0.0456793457 0.00278532598
      0.00557065196 0.00557065196 0.0094701089 0.00612771744 0.271847814
      0.00668478245 0.0111413039 0.0233967379 0.00389945647
      0.00835597795 0.0172690209 0.0445652157 0.00557065196
      0.00612771744 0.0518070646 0.00835597795 0.0116983689 0.0183831528
      0.00891304296 0.0228396729 0.0116983689 0.0228396729 0.00612771744
      0.00501358695 0.00557065196 0.0105842389 0.00222826074
      0.00445652148 0.00445652148 0.0122554349 0.00557065196
      0.0479076095 0.00612771744 0.0167119559 0. 0.114755429
      0.00167119561 0.0139266299 0.00501358695 0.218369558 0.00835597795
      0.00334239122 0.0116983689 0.00222826074 0.00278532598
      0.0128124999 0.0395516306 0.0206114128 0.00278532598 0.0512499996
      0.0200543478 0.00278532598 0.0189402178 0.0401086956 0.00668478245
      0.0116983689</_>
    <_>
      0.0539050214 0.0125136664 0.000962589693 0.031765461 0.0635309219
      0. 0.024064742 0.00288776914 0.420651704 0.00385035877
      0.0375409983 0.0298402812 0.0471668951 0.00192517939 0.00866330694
      0.0250273328 0.0712316409 0.00673812767 0.0481294841 0.00481294841
      0.0712316409 0.00192517939 0.0144388452 0.0221395623 0.024064742
      0.0433165357 0.0943337902 0.024064742 0.00385035877 0.00962589681
      0.0365784094 0.0105884867 0.0356158204 0.0413913578 0.123211481
      0.0308028702 0. 0.0385035872 0.00962589681 0.0452417172
      0.0192517936 0.0192517936 0.00577553827 0.0115510765 0.00962589681
      0.0125136664 0.0760445893 0.000962589693 0.0134762553
      0.00192517939 0.0182892047 0.0625683293 0.0356158204 0.0462043062
      0.00192517939 0.0173266139 0.016364025 0.0635309219 0.00673812767
      0.0346532278 0.00288776914 0.0567927919 0.00192517939 0.0231021531
      0.000962589693 0.031765461 0.024064742 0.0105884867 0.0346532278
      0.12032371 0.0192517936 0.0327280499 0.0221395623 0.0144388452
      0.0231021531 0.0847078934 0.0115510765 0.0991467386 0.0827827156
      0.0308028702 0.000962589693 0.0866330713 0.0144388452 0.0211769734
      0.0192517936 0.0577553809 0.00288776914 0.0134762553 0.0385035872
      0.0211769734 0.0404287688 0.0202143844 0.0327280499 0.217545271
      0.0510172546 0.000962589693 0.00673812767 0.151126578 0.0105884867
      0.0144388452 0.049092073 0.0173266139 0.0413913578 0.0462043062
      0.0683438703 0.0105884867 0.0394661762 0.0221395623 0.00481294841
      0.00192517939 0.186742395 0.0635309219 0.0519798435 0.
      0.0221395623 0.131874785 0.00577553827 0.00962589681 0.489958167
      0.0154014351 0.00192517939 0.0259899218 0.0336906388 0.0654560998
      0.0452417172 0.0173266139 0.031765461 0.0144388452 0.0365784094
      0.0211769734 0.031765461 0.00866330694 0.0375409983 0.0202143844
      0.0154014351 0.0394661762 0.0154014351 0.0510172546 0.0519798435
      0.0192517936 0.0105884867 0.0336906388 0.00288776914 0.0462043062
      0.0202143844 0.0914460197 0.00577553827 0.024064742 0.00288776914
      0.00577553827 0.0644935071 0.0134762553 0.087595664 0.0481294841
      0.0259899218 0.0250273328 0.0115510765 0.0471668951 0.0385035872
      0.0182892047 0.0211769734 0.00385035877 0.0144388452 0.00481294841
      0.0192517936 0.0288776904 0.0452417172 0.174228728 0.0182892047
      0.00962589681 0.0279151015 0.0452417172 0.0365784094 0.0288776904
      0.016364025 0.00673812767 0.0336906388 0.00770071754 0.0221395623
      0.0365784094 0.0221395623 0.0346532278 0.0154014351 0.0375409983
      0.00866330694 0.00770071754 0.0567927919 0.0510172546 0.0231021531
      0.0173266139 0.0567927919 0.016364025 0.00481294841 0.
      0.0221395623 0.00866330694 0.00962589681 0.0856704861 0.0154014351
      0.000962589693 0.0192517936 0.00770071754 0.0288776904
      0.0548676141 0.00673812767 0.00288776914 0.0336906388 0.0596805625
      0.0221395623 0.074119404 0.00866330694 0.0192517936 0.
      0.00385035877 0.0115510765 0.0288776904 0.0519798435 0.0770071745
      0.0866330713 0.0596805625 0.0539050214 0.161715075 0.00192517939
      0.0827827156 0.0500546657 0.0221395623 0.0202143844 0.0606431514
      0.0404287688 0.0327280499 0.0250273328 0.00866330694 0.0221395623
      0.0192517936 0.00288776914 0.0750819966 0.0211769734 0.0259899218
      0.0221395623 0.0221395623 0.0336906388 0.0365784094 0.0231021531
      0.00770071754 0.0231021531 0.00192517939 0.0173266139 0.031765461
      0.031765461 0.0433165357 0.0144388452 0.103959687 0.00385035877
      0.0856704861 0.0250273328 0.0991467386 0. 0.0221395623
      0.0442791246 0.0134762553 0.031765461 0.0105884867 0.0202143844
      0.024064742 0.0202143844 0.0144388452 0.016364025 0.0202143844
      0.00962589681 0.024064742 0. 0.016364025 0.0336906388
      0.00866330694 0.00770071754 0.0972215608 0.0250273328
      0.00673812767 0. 0.049092073 0.00288776914 0.016364025
      0.0154014351 0.0182892047 0.016364025 0.00288776914 0.0134762553
      0.00192517939 0.00385035877 0.0279151015 0.0211769734 0.0308028702
      0.00385035877 0.0760445893 0.0308028702 0.00192517939 0.0125136664
      0.0789323524 0.0404287688 0.0144388452</_>
    <_>
      0.0261058602 0.0804004967 0.0236063618 0.0569329932 0.00513785519
      0.0262447204 0.0488790572 0.0134695126 0.0112477373 0.078595303
      0.0452686734 0.0247172508 0.0255504157 0.0295773838 0.0361038484
      0.0708190873 0.0420748703 0.077484414 0.0577661581 0.0272167474
      0.0472127236 0.013886096 0.0552666597 0.085677214 0.0630428717
      0.017913064 0.0295773838 0.047629308 0.0472127236 0.092620261
      0.0651257858 0.065681234 0.029716244 0.0552666597 0.0259669982
      0.0479070321 0.021940032 0.0619319864 0.0747071952 0.00291608018
      0.0963695049 0.0841497406 0.0284664966 0.0697081983 0.0762346685
      0.0828999877 0.0162467323 0.0180519242 0.0698470622 0.0422137305
      0.0877601281 0.0102757104 0.0974803939 0.0531837456 0.0126363467
      0.00291608018 0.0620708466 0.0326323248 0.0910927877 0.0876212642
      0.0309659932 0.0055544381 0.0322157405 0.0717911124 0.0256892778
      0.0590159073 0.0599879324 0.0835942999 0.0679030046 0.0395753719
      0.0627651513 0.0583216026 0.0712356716 0.0734574497 0.0799839124
      0.0292996615 0.0820668265 0.00708190864 0.0490179174 0.0402696766
      0.0294385236 0.0336043499 0.0691527575 0.0433246195 0.103729136
      0.0048601334 0.021940032 0.0492956415 0.0191628113 0.0610988215
      0.0166633148 0.0695693418 0.0604045168 0.0215234477 0.0481847525
      0.0197182558 0.0740128905 0.0152747054 0.0799839124 0.0679030046
      0.0334654897 0.0958140641 0.0397142321 0.0118031809 0.00263835816
      0.0717911124 0.0776232779 0.0676252842 0.0631817356 0.0284664966
      0.0048601334 0.0394365117 0.076373525 0.00055544381 0.0651257858
      0.0111088762 0.0702636465 0.0566552691 0.0415194258 0.0741517544
      0.0455463938 0.0623485707 0.0602656566 0.0534614697 0.034715239
      0.0422137305 0.0449909493 0.090398483 0.0384644866 0.0529060252
      0.0445743687 0.0461018384 0.0497122221 0.0659589544 0.0837331563
      0.077484414 0.0554055236 0.0551277995 0.041658286 0.00430468982
      0.0798450485 0.0549889393 0.0313825756 0.0245783888 0.0729020014
      0.0280499142 0.0359649882 0.0779009983 0.0536003299 0.0316602997
      0.0287442189 0.0733185858 0.0374924578 0.0249949731 0.0617931262
      0.0665143952 0.0865103751 0.078595303 0.0448520891 0.0733185858
      0.0426303148 0.0834554359 0.0459629782 0.0694304779 0.0658200905
      0.0415194258 0.0640149042 0.00583216036 0.0865103751 0.0477681682
      0.0572107136 0.0722076967 0.0670698434 0.0705413669 0.0508231111
      0.0752626359 0.0333266295 0.0615154058 0.0549889393 0.0687361732
      0.0795673281 0.0790118873 0.0748460591 0.0122197643 0.0729020014
      0.0849829093 0.0118031809 0.0447132289 0.0609599613 0.0472127236
      0.00305494107 0.0735963061 0.0758180842 0.0140249571 0.0497122221
      0.0881767049 0.0869269595 0.0374924578 0.0705413669 0.0249949731
      0.0483236127 0.0923425332 0.0519339964 0.0286053568 0.0873435438
      0.0377701819 0.0408251211 0.0588770472 0.0658200905 0.0399919562
      0.0734574497 0.0737351701 0.0230509192 0.0256892778 0.0798450485
      0.0426303148 0.0317991599 0.0604045168 0.0243006684 0.0349929594
      0.0492956415 0.0131917913 0.029855106 0.00888710096 0.0369370133
      0.0747071952 0.0562386885 0.00569329923 0.0565164089 0.0824834108
      0.0724854171 0.0891487375 0.0723465607 0.0615154058 0.0233286414
      0.00430468982 0.0805393532 0.0719299763 0.0953974798 0.0862326548
      0.0186073687 0.0684584528 0.060543377 0.0883155689 0.0549889393
      0.0337432139 0.0847051814 0.089287594 0.0288830791 0.060543377
      0.0859549344 0.039853096 0.0286053568 0.0501288064 0.0562386885
      0.0216623098 0.0336043499 0.0831777155 0.0449909493 0.098452419
      0.0526283011 0.0574884377 0.0660978183 0.0502676666 0.0685973093
      0.0758180842 0.0784564391 0.0756792203 0.0808170736 0.056794133
      0.0202737004 0.0983135551 0.0566552691 0.0712356716 0.0452686734
      0.032771185 0.0899818987 0.0788730234 0.00277721905 0.0118031809
      0.0377701819 0.0638760403 0.0735963061 0.00888710096 0.0720688403
      0.0195793957 0.0812336579 0.0326323248 0.0483236127 0.0666532591
      0.0619319864 0.0576272979 0.0515174158 0.0322157405 0.0562386885
      0.0159690101 0.0479070321 0.105673186 0.0741517544 0.0655423701</_>
    <_>
      0.0711696669 0.0101670958 0. 0.0711696669 0.0559190251
      0.00508354791 0.0254177395 0. 0.0559190251 0.0101670958
      0.0457519293 0.0915038586 0.0965874121 0.00508354791 0.0152506437
      0.0355848335 0.152506441 0.00508354791 0.0355848335 0.
      0.0508354791 0. 0.00508354791 0.0152506437 0.0254177395
      0.0457519293 0.116921604 0.0406683832 0.00508354791 0.00508354791
      0.0305012874 0.00508354791 0.0254177395 0.0762532204 0.116921604
      0.0203341916 0. 0.0203341916 0.0305012874 0.157589987 0.0152506437
      0.0305012874 0. 0.0101670958 0.0254177395 0.0254177395
      0.0457519293 0.00508354791 0.0254177395 0.00508354791 0.0254177395
      0.0965874121 0.0559190251 0.0457519293 0. 0.0559190251
      0.0254177395 0.0559190251 0.0254177395 0.0355848335 0.0101670958
      0.0610025749 0. 0.0355848335 0. 0.0203341916 0.0711696669
      0.0203341916 0.0711696669 0.19825837 0.00508354791 0.0711696669
      0.0203341916 0.0203341916 0.0457519293 0.0508354791 0.0254177395
      0.0813367665 0.0711696669 0.0355848335 0. 0.172840625 0.0305012874
      0.0559190251 0.0355848335 0.0508354791 0.00508354791 0.0864203125
      0.106754504 0.0406683832 0.11183805 0.00508354791 0.0457519293
      0.0508354791 0.0864203125 0.00508354791 0.0254177395 0.0660861209
      0.0203341916 0.0101670958 0.0457519293 0.0152506437 0.0355848335
      0.0864203125 0.0406683832 0.0305012874 0.0254177395 0.0254177395
      0.0152506437 0. 0.116921604 0.0864203125 0.0457519293 0.
      0.0254177395 0.0711696669 0.00508354791 0.0203341916 0.106754504
      0.0203341916 0. 0.0559190251 0.0508354791 0.11183805 0.0355848335
      0.0355848335 0.0610025749 0.0152506437 0.147422895 0.0203341916
      0.0406683832 0.0152506437 0.0711696669 0.0406683832 0.0254177395
      0.0406683832 0.0101670958 0.0864203125 0.0508354791 0.127088696
      0.00508354791 0.0660861209 0.00508354791 0.0711696669 0.0305012874
      0.0965874121 0.00508354791 0.0711696669 0.0203341916 0. 0.11183805
      0.0305012874 0.11183805 0.106754504 0.0305012874 0.0559190251
      0.0559190251 0.0254177395 0.0813367665 0.0254177395 0.0559190251
      0.0457519293 0.0305012874 0.0254177395 0.0254177395 0.0965874121
      0.0457519293 0.157589987 0.0254177395 0.00508354791 0.0406683832
      0.0305012874 0.0305012874 0.0203341916 0.0508354791 0.0254177395
      0.0813367665 0.0152506437 0.0203341916 0.0559190251 0.0305012874
      0.0305012874 0.0101670958 0.132172242 0.00508354791 0.0305012874
      0.147422895 0.132172242 0.0457519293 0.0406683832 0.116921604
      0.0355848335 0.0203341916 0.00508354791 0.0406683832 0.0152506437
      0.0254177395 0.137255788 0.0254177395 0. 0.0355848335 0.0254177395
      0.00508354791 0.0915038586 0.0203341916 0.00508354791 0.0305012874
      0.0406683832 0.0305012874 0.0813367665 0.0406683832 0. 0. 0.
      0.0305012874 0.0660861209 0.0203341916 0.0610025749 0.132172242
      0.116921604 0.137255788 0.0559190251 0.00508354791 0.0864203125
      0.0508354791 0.0203341916 0.0610025749 0.0915038586 0.0915038586
      0.0203341916 0.0355848335 0.0406683832 0.0254177395 0.0254177395
      0. 0.142339334 0.0610025749 0.0203341916 0.0305012874 0.0152506437
      0.0762532204 0.0762532204 0.0559190251 0.00508354791 0.0305012874
      0.00508354791 0.0508354791 0.0406683832 0.0406683832 0.0406683832
      0.0559190251 0.0711696669 0.00508354791 0.0457519293 0.0152506437
      0.0965874121 0. 0.0965874121 0.0406683832 0.0203341916
      0.0355848335 0.00508354791 0.0152506437 0.0406683832 0.0152506437
      0.0508354791 0.0254177395 0.0355848335 0.00508354791 0.0457519293
      0.00508354791 0.0101670958 0.0762532204 0.0305012874 0.0101670958
      0.0965874121 0.0152506437 0.0254177395 0. 0.137255788 0.
      0.0203341916 0.0406683832 0.0457519293 0.0508354791 0.00508354791
      0.0355848335 0.00508354791 0.0203341916 0.0355848335 0.0355848335
      0.0559190251 0.00508354791 0.116921604 0.0559190251 0.
      0.0203341916 0.0711696669 0.0711696669 0.0406683832</_></support_vectors>
  <decision_functions>
    <_>
      <sv_count>18</sv_count>
      <rho>-1.1044824034813854</rho>
      <alpha>
        2.0753284993268578e-07 2.3907152509849978e-07
        1.6146825756222824e-07 8.0703056504297353e-08
        2.0944680288987585e-08 1.5473224459755499e-08
        1.8919003350776478e-07 1.822273769591706e-07
        7.9316411078867187e-08 6.9874465191915021e-08
        -2.8180970858350062e-07 -1.7200628027428906e-07
        -1.0510071760849034e-07 -2.8533166208959837e-07
        -1.1156602606304097e-07 -1.056675459340046e-07
        -1.6328921837158665e-07 -2.1030721659661125e-08</alpha>
      <index>
        10 17 16 15 14 13 12 11 9 8 0 7 6 5 4 3 2 1</index></_></decision_functions></opencv_ml_svm>
</opencv_storage>
