<?xml version="1.0"?>
<opencv_storage>
<opencv_ml_svm>
  <format>3</format>
  <svmType>C_SVC</svmType>
  <kernel>
    <type>POLY</type>
    <degree>3.</degree>
    <gamma>252.64775036919275</gamma>
    <coef0>0.</coef0></kernel>
  <C>1.</C>
  <term_criteria><epsilon>1.1920928955078125e-07</epsilon>
    <iterations>1000</iterations></term_criteria>
  <var_count>300</var_count>
  <class_count>2</class_count>
  <class_labels type_id="opencv-matrix">
    <rows>2</rows>
    <cols>1</cols>
    <dt>i</dt>
    <data>
      0 1</data></class_labels>
  <sv_total>20</sv_total>
  <support_vectors>
    <_>
      0. 0.0120612234 0. 0. 0. 0. 0.0120612234 0.0361836702 0.156795904
      0.0120612234 0.0241224468 0.0241224468 0.0482448936 0.0361836702
      0.0120612234 0. 0.0361836702 0. 0.0603061169 0.0120612234
      0.132673457 0. 0.0361836702 0. 0.0120612234 0.0120612234
      0.0120612234 0.0120612234 0. 0. 0.0241224468 0.0120612234
      0.0120612234 0.253285676 0.0120612234 0.0361836702 0.0120612234
      0.0120612234 0.0241224468 0.192979574 0. 0.0120612234 0.0241224468
      0.0603061169 0.0361836702 0. 0.0361836702 0. 0. 0.0844285637
      0.0241224468 0.0120612234 0.0241224468 0.0723673403 0.
      0.0241224468 0.0120612234 0.0361836702 0.0361836702 0.0241224468
      0.0120612234 0.0482448936 0.0361836702 0.0241224468 0.0603061169
      0.0120612234 0.0241224468 0. 0.0361836702 0.205040798 0. 0.
      0.0241224468 0.0361836702 0.0241224468 0.0241224468 0.0361836702
      0.0964897871 0. 0. 0. 0.0241224468 0. 0.289469361 0.0241224468 0.
      0.0120612234 0. 0.0120612234 0.180918351 0.0120612234 0.0241224468
      0.0120612234 0.0120612234 0.0120612234 0.0482448936 0.0120612234
      0. 0.0482448936 0. 0. 0.0120612234 0.0241224468 0.0120612234 0.
      0.0120612234 0.0120612234 0. 0.0120612234 0.0120612234 0.
      0.0361836702 0. 0. 0.0361836702 0.0482448936 0.0120612234 0.
      0.0482448936 0.0361836702 0.0361836702 0.0120612234 0.0482448936
      0.132673457 0.0241224468 0.0361836702 0.0482448936 0.0120612234
      0.0603061169 0. 0.0241224468 0.0482448936 0.0723673403 0.
      0.0120612234 0.0120612234 0.0120612234 0. 0.0241224468
      0.0361836702 0.0120612234 0.10855101 0.0120612234 0.0120612234 0.
      0. 0.156795904 0. 0.0120612234 0.0241224468 0.0361836702
      0.0361836702 0. 0.0120612234 0.0241224468 0.0844285637 0. 0.
      0.0120612234 0. 0.192979574 0.0241224468 0.0723673403 0.0120612234
      0. 0. 0.0241224468 0.0844285637 0. 0.0120612234 0.0120612234
      0.0120612234 0.0241224468 0.0361836702 0.0120612234 0. 0.156795904
      0.0241224468 0.0241224468 0. 0.0120612234 0.0482448936 0.253285676
      0.0120612234 0. 0.0241224468 0. 0.0120612234 0.0964897871
      0.0120612234 0. 0. 0.0361836702 0.0120612234 0.0241224468
      0.0241224468 0.0120612234 0. 0.0120612234 0.0120612234 0. 0.
      0.0361836702 0. 0. 0. 0. 0.0120612234 0. 0.0120612234 0.0603061169
      0.0120612234 0.0361836702 0. 0.0120612234 0. 0. 0.0241224468 0.
      0.0482448936 0. 0. 0.0482448936 0.0120612234 0. 0.10855101
      0.0120612234 0. 0. 0.0844285637 0.0120612234 0.0844285637 0.
      0.0120612234 0.0361836702 0.0241224468 0. 0.0241224468
      0.0120612234 0. 0. 0. 0.0120612234 0.0361836702 0.0120612234
      0.0120612234 0.0120612234 0. 0.422142804 0.0603061169 0.0603061169
      0.0241224468 0. 0.0120612234 0.0120612234 0. 0.0603061169 0. 0.
      0.0723673403 0.0120612234 0.0120612234 0.0361836702 0.144734681 0.
      0. 0.0120612234 0.229163244 0. 0.0241224468 0. 0. 0.0120612234
      0.0120612234 0. 0.0603061169 0.0603061169 0. 0. 0.0241224468
      0.10855101 0.0844285637 0.0361836702 0. 0. 0.0482448936 0. 0.
      0.0482448936 0.0361836702 0.0120612234 0.0241224468 0.
      0.0120612234 0.0482448936 0.0120612234 0.0723673403 0.0120612234
      0.0361836702 0.0964897871</_>
    <_>
      0.0399755947 0. 0.0399755947 0.059963394 0.0399755947
      0.00999389868 0.0899450853 0.0199877974 0.0899450853 0.0199877974
      0. 0.0899450853 0.0199877974 0.029981697 0.0199877974 0.0199877974
      0.029981697 0.0199877974 0.0699572936 0.029981697 0.0899450853
      0.00999389868 0.0499694943 0.0199877974 0.029981697 0.00999389868
      0. 0.00999389868 0. 0.00999389868 0.0499694943 0.0399755947
      0.00999389868 0.359780341 0.00999389868 0. 0.0199877974
      0.029981697 0.029981697 0.209871873 0.0199877974 0. 0.0399755947
      0.0199877974 0.0199877974 0.00999389868 0.00999389868 0.
      0.059963394 0.189884081 0.0199877974 0.0199877974 0. 0.0699572936
      0. 0. 0.00999389868 0. 0.0399755947 0.00999389868 0.00999389868
      0.059963394 0.00999389868 0.029981697 0.029981697 0. 0.00999389868
      0.0199877974 0.029981697 0.289823055 0.0199877974 0.00999389868
      0.0199877974 0. 0.00999389868 0.029981697 0. 0.139914587
      0.0199877974 0.00999389868 0.0399755947 0.0199877974 0.0199877974
      0.179890171 0.0199877974 0.0699572936 0.0199877974 0.00999389868
      0.0199877974 0.109932885 0.0699572936 0.0199877974 0.029981697
      0.0199877974 0.0199877974 0.0499694943 0.0399755947 0.0199877974
      0.0399755947 0.0399755947 0. 0. 0.0399755947 0.029981697
      0.00999389868 0.029981697 0.00999389868 0. 0.029981697 0.029981697
      0.00999389868 0.059963394 0.00999389868 0.0199877974 0.0499694943
      0.0699572936 0.0199877974 0. 0.0699572936 0.00999389868
      0.00999389868 0.0199877974 0.029981697 0.189884081 0.0199877974
      0.0199877974 0.059963394 0.00999389868 0.0499694943 0.029981697
      0.0199877974 0.00999389868 0.059963394 0. 0.00999389868 0. 0.
      0.0399755947 0.029981697 0.0399755947 0. 0.059963394 0.0699572936
      0.0499694943 0. 0. 0.109932885 0. 0.00999389868 0.00999389868
      0.0499694943 0.029981697 0.0499694943 0.029981697 0.0499694943
      0.0199877974 0. 0.0199877974 0.119926788 0. 0.159902379
      0.059963394 0.059963394 0.0199877974 0.0499694943 0.029981697
      0.0499694943 0.029981697 0.00999389868 0.00999389868 0.029981697
      0.00999389868 0.0699572936 0.00999389868 0.00999389868 0.
      0.119926788 0.00999389868 0.0199877974 0.029981697 0.00999389868
      0.029981697 0.129920676 0.00999389868 0. 0.00999389868
      0.00999389868 0. 0.0699572936 0.0199877974 0.029981697 0.029981697
      0.00999389868 0.00999389868 0.029981697 0.0499694943 0.0199877974
      0.0199877974 0.029981697 0.0199877974 0.029981697 0.0399755947
      0.00999389868 0.0199877974 0.00999389868 0.00999389868
      0.0199877974 0.029981697 0.029981697 0.0199877974 0.029981697
      0.029981697 0.029981697 0.0499694943 0.00999389868 0. 0.0199877974
      0.0199877974 0.029981697 0.0199877974 0.00999389868 0.0399755947
      0.029981697 0.0199877974 0.00999389868 0.109932885 0.0399755947
      0.0399755947 0. 0.029981697 0. 0.0699572936 0. 0.0499694943
      0.0499694943 0.0199877974 0. 0.029981697 0.0399755947
      0.00999389868 0. 0.0199877974 0.0899450853 0.029981697 0.
      0.00999389868 0.00999389868 0.029981697 0.129920676 0.0199877974
      0.0799511895 0.0699572936 0. 0. 0.029981697 0.0399755947
      0.129920676 0.0199877974 0.0499694943 0.0799511895 0.00999389868
      0.00999389868 0.0199877974 0.119926788 0. 0. 0.0399755947
      0.309810847 0.0199877974 0.00999389868 0. 0. 0.029981697
      0.059963394 0.0399755947 0.0399755947 0.0399755947 0.0199877974
      0.00999389868 0.00999389868 0.0999389887 0.0799511895 0.0799511895
      0.00999389868 0.0199877974 0.179890171 0.0199877974 0.0399755947
      0.0399755947 0.029981697 0.0199877974 0.00999389868 0.00999389868
      0.0199877974 0.0499694943 0.0399755947 0.109932885 0.00999389868
      0.0199877974 0.059963394</_>
    <_>
      0.0463611446 0.0408419594 0.0386342853 0.0717493892 0.049672652
      0.0430496335 0.049672652 0.0408419594 0.0562956743 0.0540880002
      0.0927222893 0.0452573076 0.0375304483 0.0827877596 0.0596071854
      0.0463611446 0.0794762447 0.0397381224 0.0562956743 0.0242844094
      0.086099267 0.0463611446 0.0529841632 0.0452573076 0.0916184485
      0.0419457965 0.0419457965 0.0220767353 0.0066230204 0.00220767339
      0.049672652 0.0298035927 0.0518803261 0.0739570633 0.0331151038
      0.0540880002 0.0441534705 0.0463611446 0.0894107744 0.0662302077
      0.0474649817 0.0474649817 0.0309074298 0.0386342853 0.0275959186
      0.0298035927 0.0629186928 0.0165575519 0.0298035927 0.0518803261
      0.0529841632 0.0474649817 0.0750608966 0.0684378818 0.
      0.0375304483 0.0353227742 0.0253882445 0.0320112668 0.0441534705
      0.0507764891 0.0717493892 0.0596071854 0.0728532225 0.0463611446
      0.0176613871 0.0342189409 0.0562956743 0.0529841632 0.0728532225
      0.0551918373 0.0275959186 0.0298035927 0.0838915929 0.0474649817
      0.0474649817 0.0717493892 0.0452573076 0.0551918373 0.0474649817
      0.0430496335 0.0342189409 0.0419457965 0.143498778 0.0827877596
      0.0529841632 0.0485688187 0.0474649817 0.0695417151 0.209728986
      0.0264920816 0.0507764891 0.0231805723 0.0695417151 0.0353227742
      0.0507764891 0.0662302077 0.0463611446 0.0463611446 0.0408419594
      0.0331151038 0.0507764891 0.0982414708 0.0529841632 0.0463611446
      0.00772685744 0.0331151038 0.00110383669 0.0375304483 0.0684378818
      0.0275959186 0.0573995113 0.0474649817 0.0783724114 0.049672652
      0.0485688187 0.0231805723 0.0143498778 0.0728532225 0.0551918373
      0.113695182 0.0540880002 0.0540880002 0.0618148595 0.0253882445
      0.0386342853 0.0386342853 0.0386342853 0.0662302077 0.0331151038
      0.0728532225 0.0342189409 0.0618148595 0.0264920816 0.0430496335
      0.0607110225 0.0419457965 0.0507764891 0.0430496335 0.0220767353
      0.049672652 0.0540880002 0.0286997557 0.0849954262 0.0253882445
      0.0187652241 0.0585033484 0. 0.0452573076 0.0585033484
      0.0596071854 0.067334041 0.0629186928 0.0485688187 0.0706455484
      0.0408419594 0.0618148595 0.0452573076 0.0717493892 0.0320112668
      0.0573995113 0.0717493892 0.0507764891 0.0331151038 0.0375304483
      0.0728532225 0.0264920816 0.0463611446 0.0419457965 0.0375304483
      0.0640225336 0.0419457965 0.0320112668 0.0872031003 0.0386342853
      0.0419457965 0.0397381224 0.0562956743 0.0320112668 0.0419457965
      0.0353227742 0.0452573076 0.0894107744 0.0452573076 0.0110383676
      0.0452573076 0.00772685744 0.0474649817 0.0596071854 0.0507764891
      0.0364266112 0.0485688187 0.0309074298 0.0585033484 0.0585033484
      0.0408419594 0.0618148595 0.0309074298 0.0596071854 0.0397381224
      0.0397381224 0.0618148595 0.0596071854 0.0474649817 0.0375304483
      0.0607110225 0.067334041 0.0518803261 0.0474649817 0.0507764891
      0.0518803261 0.0849954262 0.0452573076 0.0441534705 0.0066230204
      0. 0.0386342853 0.0375304483 0.0441534705 0.049672652 0.0772685707
      0.0474649817 0.0629186928 0.0562956743 0.0728532225 0.0838915929
      0.0518803261 0.0408419594 0.0320112668 0.0883069411 0.0253882445
      0.0838915929 0.0033115102 0.0242844094 0.0386342853 0.0364266112
      0.00993453059 0.0441534705 0.0342189409 0.0629186928 0.00551918382
      0.0629186928 0.0518803261 0.0551918373 0.049672652 0.0551918373
      0.0695417151 0.0397381224 0.158952489 0.0463611446 0.177717716
      0.0331151038 0.00220767339 0.0408419594 0.0331151038 0.0585033484
      0.0540880002 0.0419457965 0.0551918373 0.0938261226 0.0231805723
      0.0607110225 0.0607110225 0.211936653 0.0618148595 0.00220767339
      0.0838915929 0.102656819 0.0717493892 0.0706455484 0.00883069355
      0.0033115102 0.0662302077 0.0485688187 0.0573995113 0.086099267
      0.0916184485 0.0342189409 0.0441534705 0.0573995113 0.0375304483
      0.0640225336 0.0883069411 0.00220767339 0.0607110225 0.131356567
      0.0684378818 0.0253882445 0.0849954262 0.0309074298 0.0529841632
      0.0761647373 0.0408419594 0.0408419594 0.0529841632 0.0231805723
      0.0485688187 0.0805800855 0.0331151038 0.0728532225</_>
    <_>
      0.0180891138 0.0452227816 0.099490121 0.0180891138 0.0633118972
      0.0542673394 0.0271336697 0.0452227816 0.117579237 0.072356455 0.
      0.0452227816 0.0542673394 0.00904455688 0.0633118972 0.072356455
      0.0633118972 0.0633118972 0.0633118972 0.0271336697 0.0452227816
      0.0904455632 0.0271336697 0.0814010054 0. 0.0361782275
      0.0271336697 0.00904455688 0. 0. 0.099490121 0.0633118972
      0.0542673394 0.0361782275 0.0814010054 0.0361782275 0.072356455
      0.0271336697 0.0452227816 0.153757453 0.0271336697 0.0361782275
      0.0904455632 0.0180891138 0.0633118972 0.0452227816 0.0814010054
      0.0180891138 0.0814010054 0. 0.0361782275 0.0271336697
      0.0180891138 0.0361782275 0. 0.0452227816 0.0271336697
      0.00904455688 0.0633118972 0.0180891138 0.0361782275 0.
      0.0542673394 0.0542673394 0.072356455 0.0904455632 0.108534679
      0.0271336697 0.0542673394 0.0452227816 0.0542673394 0.0271336697
      0.0904455632 0.0633118972 0.0633118972 0.108534679 0.0633118972
      0.00904455688 0.0452227816 0.0633118972 0.0361782275 0.0542673394
      0.0361782275 0.0904455632 0.0542673394 0.00904455688 0.117579237
      0.0452227816 0.0542673394 0.0271336697 0.0814010054 0.0452227816
      0. 0.0361782275 0.0452227816 0.0542673394 0.0361782275
      0.0361782275 0.0814010054 0.0452227816 0.0271336697 0.0180891138
      0.0180891138 0.0271336697 0. 0. 0.0361782275 0. 0.0452227816
      0.0452227816 0.0271336697 0.00904455688 0.072356455 0.0271336697
      0.0361782275 0.135668352 0.0271336697 0.0180891138 0.00904455688
      0.0633118972 0.0904455632 0.0904455632 0.0361782275 0.0633118972
      0.0633118972 0.0542673394 0.0271336697 0. 0.0452227816
      0.00904455688 0.0452227816 0.0904455632 0.0361782275 0.0452227816
      0.00904455688 0.00904455688 0.0361782275 0.0633118972 0.0271336697
      0.0904455632 0.0361782275 0.0542673394 0.126623794 0.0180891138
      0.0180891138 0. 0.0542673394 0. 0. 0.0361782275 0.0452227816
      0.0271336697 0.0180891138 0.0542673394 0.0542673394 0.0271336697
      0.0180891138 0.0452227816 0.00904455688 0.0271336697 0.0542673394
      0.00904455688 0.0271336697 0.117579237 0.072356455 0.0271336697
      0.0542673394 0.0542673394 0.0361782275 0.0633118972 0.072356455
      0.0361782275 0.0633118972 0.0542673394 0.0633118972 0.0452227816
      0.0180891138 0.0452227816 0.00904455688 0.0361782275 0.072356455
      0.0542673394 0.072356455 0.0452227816 0. 0.0180891138
      0.00904455688 0.0542673394 0.0180891138 0.099490121 0.0271336697
      0.0633118972 0.00904455688 0.0271336697 0.0633118972 0.0904455632
      0. 0.0361782275 0.0271336697 0.0633118972 0.0271336697
      0.0361782275 0.0814010054 0.0452227816 0.0361782275 0.0180891138
      0.0271336697 0.0542673394 0.0452227816 0.135668352 0.0904455632
      0.00904455688 0.0814010054 0.0452227816 0. 0.0180891138
      0.0271336697 0.0452227816 0.0633118972 0.0633118972 0.0542673394
      0.0452227816 0.0904455632 0.0814010054 0.00904455688 0.0904455632
      0.0542673394 0.0452227816 0.0361782275 0.0361782275 0.0271336697
      0.0361782275 0. 0.0814010054 0.180891126 0.00904455688
      0.0180891138 0.0633118972 0.0452227816 0.0452227816 0.00904455688
      0.0542673394 0.072356455 0.0814010054 0.099490121 0.0361782275
      0.00904455688 0.0452227816 0.0452227816 0.0542673394 0.099490121
      0.0814010054 0. 0.0180891138 0.0271336697 0.0452227816
      0.0633118972 0.0271336697 0.0361782275 0.0633118972 0.0271336697
      0.0633118972 0.0361782275 0.262292147 0.0452227816 0. 0.0180891138
      0.180891126 0.0452227816 0.0361782275 0. 0.00904455688
      0.0271336697 0.126623794 0.0271336697 0.0361782275 0.0452227816
      0.0180891138 0.0633118972 0.0361782275 0.099490121 0.0361782275
      0.108534679 0.0271336697 0.00904455688 0.108534679 0.0180891138
      0.0542673394 0.0361782275 0.0542673394 0.0180891138 0.072356455 0.
      0.0452227816 0.0361782275 0.0180891138 0.117579237 0.0361782275
      0.0180891138 0.0452227816</_>
    <_>
      0.0215163268 0.0107581634 0.10758163 0. 0.0215163268 0.0322744884
      0.0322744884 0.0322744884 0.129097953 0.0215163268 0. 0.0645489767
      0.0107581634 0.0107581634 0.0107581634 0.0322744884 0.0430326536
      0.0107581634 0.0860653073 0.0107581634 0.0215163268 0.0215163268
      0.0430326536 0.0322744884 0. 0.0322744884 0.0107581634
      0.0107581634 0.0107581634 0. 0.0430326536 0. 0.0107581634
      0.0215163268 0.0322744884 0.0537908152 0.0215163268 0.0215163268
      0.0322744884 0.290470421 0. 0. 0.0107581634 0.0430326536
      0.0215163268 0.0430326536 0.0860653073 0. 0.0430326536
      0.0430326536 0.0537908152 0.0107581634 0. 0.0753071457 0.
      0.0107581634 0.0537908152 0.0430326536 0.0215163268 0.0107581634
      0.0215163268 0.0215163268 0.0107581634 0.0430326536 0.0968234688
      0.0322744884 0.0753071457 0. 0.0322744884 0.24743776 0.0645489767
      0.0322744884 0.0645489767 0.0860653073 0. 0.10758163 0.118339792
      0.0322744884 0. 0. 0.0430326536 0.0537908152 0.0215163268
      0.150614291 0. 0.0322744884 0.0968234688 0. 0. 0.0753071457
      0.0860653073 0. 0.0107581634 0.0537908152 0.0430326536
      0.0107581634 0.0215163268 0.0322744884 0.0753071457 0.0322744884
      0.0107581634 0.0645489767 0.0537908152 0.0215163268 0.0107581634
      0. 0.0107581634 0. 0.0215163268 0. 0.0215163268 0. 0.0430326536
      0.0107581634 0.0645489767 0.0968234688 0.0215163268 0.0215163268
      0.0107581634 0.0753071457 0.118339792 0.0537908152 0.0322744884
      0.0968234688 0. 0.0753071457 0.0107581634 0.0107581634
      0.0107581634 0. 0.0107581634 0.0322744884 0.0645489767
      0.0107581634 0.0537908152 0.0107581634 0. 0.0107581634
      0.0322744884 0.0430326536 0.0215163268 0.0968234688 0.0860653073
      0.0107581634 0.0107581634 0.0107581634 0.150614291 0. 0.
      0.0215163268 0.0753071457 0.0107581634 0.0107581634 0.0430326536
      0.0968234688 0. 0. 0.0322744884 0.0537908152 0.0107581634
      0.204405099 0.0215163268 0.0215163268 0.0430326536 0.0107581634
      0.0215163268 0.0215163268 0.0215163268 0.0107581634 0.0215163268
      0.0107581634 0.0107581634 0.0753071457 0.0322744884 0.0322744884
      0.0215163268 0.118339792 0.0107581634 0.0322744884 0.0107581634
      0.0537908152 0.129097953 0.236679584 0.0322744884 0. 0.0107581634
      0. 0.0322744884 0.0537908152 0.0860653073 0.0430326536
      0.0215163268 0. 0.0107581634 0. 0.0107581634 0. 0.0107581634
      0.0215163268 0.0430326536 0.0107581634 0.0215163268 0.0430326536
      0.0537908152 0.0215163268 0.0430326536 0. 0.0860653073
      0.0645489767 0.0107581634 0.0645489767 0.0107581634 0.0430326536
      0. 0.0215163268 0. 0. 0.0537908152 0.0322744884 0.0430326536
      0.0107581634 0.0107581634 0.0860653073 0.0322744884 0.0107581634
      0.0753071457 0.0215163268 0.0215163268 0. 0.0968234688
      0.0107581634 0.0860653073 0.0107581634 0.0753071457 0.0430326536
      0.0430326536 0.0107581634 0.0322744884 0.0107581634 0.0215163268
      0.0107581634 0.0215163268 0.0430326536 0.0430326536 0.0107581634
      0.0107581634 0.0322744884 0.0215163268 0.150614291 0.0968234688
      0.0537908152 0.0322744884 0. 0.0215163268 0.0215163268
      0.0107581634 0.129097953 0.0215163268 0.0322744884 0.10758163 0.
      0.0645489767 0.0537908152 0.161372453 0.0107581634 0. 0.
      0.215163261 0. 0.0107581634 0. 0. 0.0107581634 0.0645489767 0.
      0.0430326536 0.0753071457 0. 0.0430326536 0.0537908152
      0.0860653073 0.10758163 0.0860653073 0.0107581634 0.0430326536
      0.118339792 0.0645489767 0.0322744884 0.0107581634 0.0645489767
      0.0215163268 0.0645489767 0. 0.0107581634 0.0645489767
      0.0430326536 0.150614291 0.0215163268 0.0107581634 0.0645489767</_>
    <_>
      0. 0.0354994573 0.0709989145 0.0354994573 0. 0.0709989145 0.
      0.0354994573 0.159747556 0. 0.0354994573 0.0354994573 0. 0. 0.
      0.053249184 0.0177497286 0. 0.0354994573 0.0177497286 0.0177497286
      0.053249184 0.0354994573 0. 0. 0. 0.0177497286 0.0177497286 0. 0.
      0.0709989145 0. 0. 0.195247009 0.053249184 0.0709989145
      0.0177497286 0. 0.0354994573 0.230746463 0.0354994573 0.0177497286
      0.0177497286 0.0709989145 0.053249184 0.0354994573 0.0177497286 0.
      0.053249184 0.0354994573 0.0354994573 0.0354994573 0.0354994573
      0.0887486413 0. 0.0177497286 0.0177497286 0.0177497286
      0.0887486413 0. 0. 0.0177497286 0.053249184 0.0354994573
      0.0887486413 0.053249184 0.0177497286 0. 0.0354994573 0.106498368
      0.053249184 0.053249184 0.0177497286 0.0354994573 0.0177497286
      0.0354994573 0.0354994573 0.0709989145 0.0177497286 0.0354994573
      0.0887486413 0.0177497286 0. 0.141997829 0.0709989145 0.0709989145
      0.0354994573 0. 0.053249184 0.0354994573 0.0709989145 0.0177497286
      0. 0.0354994573 0.0354994573 0. 0. 0.0177497286 0.053249184 0.
      0.0354994573 0.0709989145 0. 0.0177497286 0.0177497286 0.
      0.0354994573 0. 0.0177497286 0.0354994573 0.0177497286 0.
      0.0177497286 0. 0.053249184 0.0354994573 0. 0. 0.0177497286
      0.0177497286 0.0177497286 0.0177497286 0.0177497286 0. 0.
      0.0709989145 0.124248095 0. 0.0177497286 0.053249184 0.
      0.0354994573 0.0354994573 0. 0.0354994573 0.0177497286 0.
      0.0177497286 0. 0.0354994573 0.0354994573 0.053249184 0.177497283
      0. 0.0177497286 0. 0.0887486413 0. 0.0177497286 0. 0.053249184 0.
      0. 0.0177497286 0.124248095 0.0177497286 0.0177497286 0.0354994573
      0.053249184 0. 0.24849619 0.0354994573 0.0177497286 0.0177497286
      0.0177497286 0. 0.106498368 0.0709989145 0.0177497286 0.053249184
      0. 0.0354994573 0. 0. 0.0177497286 0.0709989145 0.0177497286
      0.0887486413 0.0354994573 0.0177497286 0.0709989145 0.141997829
      0.0887486413 0. 0. 0. 0.0177497286 0.053249184 0.0709989145
      0.053249184 0.0177497286 0. 0.0177497286 0.0177497286 0.053249184
      0.0177497286 0.0177497286 0. 0.0354994573 0.0177497286 0.053249184
      0. 0.0709989145 0.0177497286 0.0177497286 0.0177497286
      0.0177497286 0.0709989145 0.0709989145 0.0354994573 0.0709989145
      0.0354994573 0.0887486413 0.0177497286 0. 0. 0.053249184
      0.053249184 0.0177497286 0.053249184 0. 0.0709989145 0.124248095
      0.053249184 0.0354994573 0.141997829 0.0177497286 0.0177497286 0.
      0.053249184 0. 0.0709989145 0. 0.106498368 0.0887486413
      0.0177497286 0. 0.053249184 0.053249184 0. 0.0177497286 0.
      0.0354994573 0.106498368 0.0177497286 0.0354994573 0. 0.0354994573
      0.0887486413 0.053249184 0.0887486413 0.0354994573 0. 0.0177497286
      0.141997829 0.053249184 0.0177497286 0.0177497286 0.053249184
      0.124248095 0.0177497286 0.0177497286 0.0354994573 0.0709989145 0.
      0. 0.0354994573 0.390494019 0. 0.0177497286 0. 0. 0.0354994573
      0.0177497286 0. 0.0354994573 0.106498368 0.0354994573 0.0354994573
      0.0354994573 0.0887486413 0.053249184 0.0887486413 0.0354994573
      0.053249184 0.0887486413 0.0354994573 0.0354994573 0.0177497286 0.
      0. 0.124248095 0.0177497286 0.0177497286 0.0177497286 0.053249184
      0.0354994573 0. 0. 0.106498368</_>
    <_>
      0.0132178664 0.0230088793 0.0354924202 0.0227641035 0.0178685971
      0.0227641035 0.0305969138 0.0491998345 0.0832236037 0.0550744422
      0.030352138 0.107456356 0.0408774763 0.0178685971 0.0181133728
      0.0210506767 0.0193372499 0.0198267996 0.0249670818 0.0342685431
      0.100113101 0.0227641035 0.044059556 0.022029778 0.022029778
      0.0171342716 0.0200715754 0.0842027068 0.105987705 0.133647323
      0.030352138 0.0188476983 0.0597251728 0.10990411 0.0293730367
      0.0181133728 0.0124835409 0.023498429 0.184315801 0.0413670279
      0.0171342716 0.0132178664 0.0173790473 0.046752084 0.0225193277
      0.0171342716 0.0362267457 0.0905668661 0.0325551145 0.0890982077
      0.0186029226 0.0291282609 0.031820789 0.0418565758 0.148089066
      0.0178685971 0.0367162973 0.0269252844 0.0217850022 0.023498429
      0.0193372499 0.0501789376 0.0168894958 0.0254566316 0.0396535993
      0.0200715754 0.0264357328 0.0122387651 0.0254566316 0.0675579831
      0.0342685431 0.0232536532 0.0127283158 0.0362267457 0.0212954506
      0.0384297222 0.0523819141 0.0274148341 0.0183581486 0.0186029226
      0.0528714657 0.0310864635 0.0188476983 0.0979101211 0.0183581486
      0.0259461831 0.0247223061 0.0247223061 0.0183581486 0.0876295567
      0.0215402264 0.046996858 0.117981695 0.0313312374 0.0237432048
      0.0264357328 0.0198267996 0.0186029226 0.0474864095 0.0381849483
      0.01664472 0.139032379 0.0406326987 0.0401431508 0.0181133728
      0.127038389 0.0274148341 0.195330694 0.0242327545 0.0146865183
      0.0225193277 0.114799619 0.0242327545 0.0726982653 0.0462625325
      0.0257014073 0.0205611251 0.060704276 0.0425909013 0.0494446121
      0.0381849483 0.0266805086 0.0281491596 0.144906983 0.0173790473
      0.0188476983 0.0849370286 0.0215402264 0.0195820238 0.0161551703
      0.0181133728 0.0337789916 0.0247223061 0.0183581486 0.0450386554
      0.0274148341 0.0198267996 0.0286387112 0.0298625864 0.0186029226
      0.0337789916 0.0288834851 0.0447938815 0.0127283158 0.0217850022
      0.11063844 0.0611938275 0.155187547 0.0252118558 0.0149312932
      0.0352476425 0.022029778 0.0159103945 0.0457729809 0.0342685431
      0.100357875 0.0276596099 0.0154208438 0.0379401706 0.0212954506
      0.035981968 0.0308416877 0.0156656187 0.0320655666 0.0190924741
      0.015176069 0.0540953428 0.0320655666 0.0102805626 0.0193372499
      0.0244775303 0.0323103406 0.0279043838 0.0609490499 0.0181133728
      0.0237432048 0.0501789376 0.035981968 0.0313312374 0.0168894958
      0.0271700583 0.0509132631 0.045283433 0.0283939354 0.0976653472
      0.0374506228 0.0976653472 0.0225193277 0.0499341637 0.0386744998
      0.0193372499 0.0171342716 0.0822445005 0.0173790473 0.0227641035
      0.0212954506 0.0462625325 0.0163999461 0.0212954506 0.0212954506
      0.0139521919 0.030352138 0.0411222503 0.0195820238 0.0501789376
      0.0208059009 0.0222745519 0.0242327545 0.0352476425 0.0146865183
      0.0389192738 0.0423461273 0.0350028686 0.0428356789 0.299115419
      0.153718889 0.0178685971 0.0222745519 0.0323103406 0.0249670818
      0.0193372499 0.0205611251 0.0389192738 0.0227641035 0.0171342716
      0.0700057372 0.0195820238 0.0298625864 0.0687818602 0.0616833754
      0.086650461 0.0283939354 0.264846891 0.0239879806 0.0572774224
      0.0342685431 0.1020713 0.0323103406 0.0315760151 0.0230088793
      0.0707400665 0.0435700044 0.0237432048 0.0315760151 0.0313312374
      0.0161551703 0.0602147244 0.0244775303 0.0805310756 0.0288834851
      0.16522333 0.034513317 0.111127988 0.0154208438 0.0173790473
      0.0249670818 0.0337789916 0.0257014073 0.0308416877 0.0558087677
      0.0232536532 0.0538505688 0.0222745519 0.117247373 0.0205611251
      0.124835402 0.0247223061 0.0707400665 0.0178685971 0.0340237655
      0.0749012455 0.162286028 0.0159103945 0.0443043299 0.0215402264
      0.0369610712 0.0685370862 0.0291282609 0.0281491596 0.0411222503
      0.0974205732 0.0320655666 0.045528207 0.144172654 0.0212954506
      0.09081164 0.01664472 0.0195820238 0.0347580947 0.0509132631
      0.0178685971 0.0425909013 0.0119939903 0.0132178664 0.0832236037
      0.0558087677 0.0296178125 0.0320655666 0.0376953967 0.0391640477</_>
    <_>
      0. 0.0373582579 0.11207477 0.018679129 0. 0.0373582579 0.018679129
      0.0373582579 0.0747165158 0.018679129 0. 0.11207477 0.0373582579
      0.056037385 0. 0.056037385 0. 0.056037385 0. 0.0747165158
      0.0373582579 0. 0. 0.018679129 0.0747165158 0.0373582579
      0.018679129 0.0373582579 0. 0. 0.0373582579 0.056037385
      0.0373582579 0.018679129 0.018679129 0. 0.0373582579 0.0373582579
      0.018679129 0.205470413 0.018679129 0.018679129 0.0373582579
      0.018679129 0.0747165158 0.056037385 0.056037385 0. 0.056037385
      0.0373582579 0.018679129 0.056037385 0.0373582579 0.056037385 0.
      0.0747165158 0.0747165158 0.018679129 0. 0. 0.0747165158
      0.018679129 0.018679129 0. 0.018679129 0.018679129 0. 0.056037385
      0.0933956429 0.0747165158 0.056037385 0. 0.0373582579 0.
      0.056037385 0.056037385 0.0747165158 0.018679129 0. 0. 0.056037385
      0.0373582579 0.018679129 0.22414954 0.0373582579 0.0933956429
      0.0933956429 0.018679129 0.0747165158 0.13075389 0.0747165158
      0.0373582579 0. 0.056037385 0.018679129 0.0933956429 0. 0.
      0.018679129 0.018679129 0. 0.056037385 0.0747165158 0.056037385 0.
      0. 0.056037385 0. 0.0373582579 0.0373582579 0.018679129
      0.0747165158 0.0747165158 0. 0.0373582579 0.056037385 0.056037385
      0. 0.056037385 0.0373582579 0.056037385 0.0373582579 0.018679129
      0.0933956429 0.018679129 0.018679129 0.056037385 0.0373582579
      0.0373582579 0.018679129 0.0373582579 0. 0.056037385 0.
      0.018679129 0. 0.018679129 0. 0.0373582579 0.0373582579
      0.0373582579 0.0747165158 0.0373582579 0.018679129 0. 0.
      0.056037385 0. 0.018679129 0.0373582579 0.0747165158 0.
      0.0373582579 0.0933956429 0.0747165158 0.0933956429 0.0373582579
      0.0373582579 0.018679129 0. 0.168112159 0.0933956429 0.0933956429
      0.0747165158 0.0373582579 0. 0.018679129 0.018679129 0.018679129
      0. 0.0373582579 0. 0.0373582579 0. 0.0747165158 0.0373582579
      0.056037385 0.186791286 0.0373582579 0. 0.056037385 0.11207477
      0.149433032 0.056037385 0. 0.018679129 0.018679129 0.0373582579
      0.0373582579 0.056037385 0.018679129 0.018679129 0.018679129
      0.018679129 0.0373582579 0.0747165158 0. 0. 0. 0.0373582579
      0.018679129 0.018679129 0.0373582579 0.0373582579 0. 0. 0.
      0.0933956429 0.0747165158 0. 0.186791286 0.0747165158 0.149433032
      0. 0.018679129 0.018679129 0. 0.056037385 0.0373582579
      0.0373582579 0.0373582579 0.0747165158 0.0933956429 0.0373582579
      0.056037385 0.11207477 0.018679129 0.0373582579 0. 0.0933956429 0.
      0.056037385 0. 0.0373582579 0.056037385 0.018679129 0. 0.018679129
      0.0373582579 0.0373582579 0. 0.018679129 0.056037385 0.0933956429
      0.018679129 0.056037385 0. 0. 0.149433032 0.056037385 0.0933956429
      0.018679129 0. 0. 0.018679129 0.056037385 0.0373582579
      0.0373582579 0.056037385 0.0747165158 0.0747165158 0.0747165158
      0.0373582579 0.0933956429 0.018679129 0. 0.018679129 0.261507779
      0. 0.0373582579 0. 0. 0.0373582579 0.13075389 0. 0.11207477
      0.11207477 0. 0.018679129 0. 0. 0.13075389 0.0373582579 0.
      0.056037385 0.0373582579 0. 0.056037385 0.0933956429 0.056037385
      0.018679129 0.0747165158 0.018679129 0. 0.018679129 0.0373582579
      0.0747165158 0.0373582579 0.056037385 0.11207477</_>
    <_>
      0.0259738993 0.0519477986 0.00865796674 0.0865796655 0.034631867
      0.0432898328 0.034631867 0.173159331 0.034631867 0.0432898328
      0.0432898328 0.0173159335 0.034631867 0.0259738993 0.0606057644
      0.0519477986 0.0519477986 0.0606057644 0.00865796674 0.0692637339
      0.0173159335 0.034631867 0.0519477986 0.0606057644 0.0432898328
      0.034631867 0.0432898328 0.034631867 0. 0. 0.0692637339
      0.0173159335 0.0692637339 0. 0.0432898328 0.0865796655
      0.0259738993 0.0519477986 0.0606057644 0.0259738993 0.034631867
      0.077921696 0.0173159335 0.00865796674 0.0519477986 0.00865796674
      0.077921696 0.00865796674 0.0519477986 0.0692637339 0.00865796674
      0.0519477986 0.034631867 0.0606057644 0. 0.0259738993 0.0952376351
      0.0952376351 0.0692637339 0.0259738993 0.0432898328 0.103895597
      0.034631867 0.0432898328 0.0519477986 0.0173159335 0.0952376351
      0.034631867 0.0259738993 0.0173159335 0.0259738993 0.0519477986
      0.0173159335 0.00865796674 0.00865796674 0.0692637339 0.112553567
      0.00865796674 0.0606057644 0.0173159335 0.103895597 0.0519477986
      0.0432898328 0.0173159335 0.034631867 0.0865796655 0.0173159335
      0.0259738993 0.0865796655 0.00865796674 0.0173159335 0.0692637339
      0.00865796674 0. 0.0173159335 0.0519477986 0.0173159335
      0.0519477986 0.138527468 0.0173159335 0.0519477986 0.0606057644
      0.077921696 0.0865796655 0.0259738993 0.00865796674 0.0606057644
      0. 0.0952376351 0.0259738993 0.129869491 0.077921696 0.034631867
      0.0432898328 0.0865796655 0.00865796674 0.00865796674 0.
      0.034631867 0.0432898328 0.129869491 0.0432898328 0.121211529
      0.00865796674 0.0173159335 0.0432898328 0.0432898328 0.0173159335
      0.0432898328 0.00865796674 0.034631867 0.00865796674 0.034631867
      0.0432898328 0.034631867 0.0606057644 0.0432898328 0.112553567
      0.0606057644 0.0519477986 0.0606057644 0.077921696 0.0259738993
      0.0259738993 0.077921696 0.0173159335 0.0259738993 0.0173159335
      0.0692637339 0.0259738993 0.034631867 0.0259738993 0.0259738993
      0.0606057644 0.181817293 0.0952376351 0.0432898328 0.0606057644
      0.0692637339 0.0173159335 0.0259738993 0.0865796655 0.0952376351
      0.00865796674 0.0432898328 0.0606057644 0.0692637339 0.0432898328
      0.0606057644 0.077921696 0.034631867 0.0173159335 0.0259738993
      0.0519477986 0.077921696 0.0606057644 0.0259738993 0.129869491
      0.0519477986 0.0692637339 0.0432898328 0.0606057644 0.0259738993
      0.0606057644 0.00865796674 0.0259738993 0. 0.0432898328
      0.00865796674 0.0692637339 0.0952376351 0.0173159335 0.077921696
      0.0519477986 0.034631867 0.0432898328 0.0259738993 0.034631867
      0.0952376351 0.0259738993 0.0432898328 0.0606057644 0.0692637339
      0.0692637339 0.0432898328 0.00865796674 0.0692637339 0.0692637339
      0.0519477986 0.0692637339 0.0692637339 0.0692637339 0.0519477986
      0.0519477986 0. 0.00865796674 0.034631867 0.0432898328 0.034631867
      0.129869491 0.0865796655 0.164501369 0.0865796655 0.0606057644
      0.0519477986 0.034631867 0.034631867 0.0432898328 0.077921696
      0.0259738993 0.0432898328 0.0606057644 0. 0.0432898328 0.034631867
      0.103895597 0.0519477986 0.0519477986 0.0432898328 0.0692637339 0.
      0.034631867 0.0259738993 0.0432898328 0.034631867 0.077921696
      0.00865796674 0.0432898328 0. 0.0173159335 0.0952376351
      0.0173159335 0.00865796674 0.077921696 0.0606057644 0.0606057644
      0.00865796674 0.034631867 0.0432898328 0.103895597 0.0865796655
      0.077921696 0.0692637339 0.0865796655 0.0692637339 0. 0.0606057644
      0.00865796674 0.0692637339 0.0692637339 0.0259738993 0.
      0.0865796655 0.034631867 0.0952376351 0.0519477986 0. 0.0692637339
      0.0259738993 0.0259738993 0. 0.0259738993 0.077921696 0.
      0.077921696 0. 0.0692637339 0.034631867 0.0432898328 0.103895597
      0.0432898328 0.00865796674 0.0259738993 0.0519477986 0.0606057644
      0.0259738993 0.0259738993 0.0259738993 0.0952376351 0.164501369</_>
    <_>
      0.0373317152 0.0248878095 0.0207398422 0.0788113996 0.0705154613
      0.0207398422 0.149326861 0.0829593688 0.0414796844 0.0580715574
      0.0829593688 0. 0.132734984 0.0248878095 0.0663674921 0.0539235882
      0.0207398422 0.0414796844 0.0124439048 0.0580715574 0.033183746
      0.0124439048 0.016591873 0.016591873 0.0207398422 0.0373317152
      0.0746634305 0.0207398422 0.016591873 0. 0.0373317152 0.0456276499
      0.0954032689 0.0207398422 0.0788113996 0.0124439048 0.033183746
      0.103699207 0. 0.0788113996 0.0207398422 0.0663674921 0.016591873
      0.016591873 0.0248878095 0.0290357787 0.016591873 0.0124439048
      0.0580715574 0. 0.0456276499 0.0248878095 0.0746634305 0.219842315
      0.00414796825 0.0207398422 0.0290357787 0.0373317152 0.0622195229
      0.0248878095 0.0456276499 0.0207398422 0.132734984 0.0207398422
      0.0746634305 0.0373317152 0.033183746 0.136882961 0.0373317152
      0.0663674921 0.016591873 0.00414796825 0.0248878095 0.0207398422
      0.0290357787 0.0414796844 0.103699207 0.0248878095 0.0788113996
      0.0456276499 0.0414796844 0.016591873 0.033183746 0.0954032689
      0.0705154613 0.116143115 0.016591873 0.248878092 0.190806538
      0.0207398422 0.0746634305 0.0373317152 0.0124439048 0.0746634305
      0.0622195229 0.0248878095 0.0248878095 0.0373317152 0.0497756191
      0.00414796825 0.0248878095 0.00829593651 0.111995146 0.0497756191
      0.0290357787 0.00414796825 0.00829593651 0.00829593651
      0.0248878095 0.0580715574 0.0539235882 0. 0.016591873 0.0705154613
      0.0124439048 0.0746634305 0.0124439048 0.016591873 0.0124439048
      0.0414796844 0.00829593651 0.033183746 0.0705154613 0.0124439048
      0.016591873 0.0497756191 0.00414796825 0.087107338 0.0124439048
      0.0456276499 0.0373317152 0.0207398422 0.0539235882 0.00829593651
      0.0290357787 0.0248878095 0.0248878095 0.132734984 0.0124439048
      0.0207398422 0.0373317152 0.145178884 0.0456276499 0.0373317152
      0.0746634305 0.0207398422 0.016591873 0.00829593651 0.0663674921
      0.0373317152 0.0248878095 0.0456276499 0.0207398422 0.033183746
      0.016591873 0.00829593651 0.265469968 0.033183746 0.033183746
      0.0373317152 0.0497756191 0.116143115 0.0580715574 0.0248878095
      0.0663674921 0.0663674921 0. 0.0829593688 0.0539235882
      0.0207398422 0.0124439048 0.0663674921 0.033183746 0.0290357787
      0.00414796825 0.0829593688 0.0207398422 0.0248878095 0.0414796844
      0.0580715574 0.0248878095 0.0705154613 0.016591873 0.0414796844
      0.00829593651 0.0373317152 0.00414796825 0.033183746 0.0124439048
      0.0124439048 0.0207398422 0.0248878095 0.0456276499 0.111995146
      0.0497756191 0.0207398422 0.0248878095 0.0290357787 0.0207398422
      0.00414796825 0.0373317152 0.0456276499 0.033183746 0.033183746
      0.0207398422 0.00414796825 0.0414796844 0.0539235882 0.016591873
      0.124439046 0.0248878095 0.0995512381 0.0207398422 0.0124439048 0.
      0. 0.0373317152 0.0248878095 0.0622195229 0.0497756191 0.033183746
      0.0663674921 0. 0.120291084 0.0539235882 0.0497756191 0.0290357787
      0.0373317152 0.0373317152 0.0497756191 0.0248878095 0.0788113996
      0.00414796825 0.0248878095 0.0248878095 0.033183746 0.0124439048
      0.0248878095 0.120291084 0.0746634305 0.00414796825 0.0414796844
      0.0373317152 0.0290357787 0.0207398422 0.219842315 0.0290357787
      0.0124439048 0.0622195229 0.0622195229 0.0248878095 0.0290357787
      0.00414796825 0.033183746 0.00829593651 0.0414796844 0.0290357787
      0.0414796844 0.0124439048 0.0290357787 0.0124439048 0.016591873
      0.0414796844 0.128587022 0.0829593688 0. 0.0705154613 0.0373317152
      0.0746634305 0.0912552997 0. 0. 0.0912552997 0.0248878095
      0.0746634305 0.0207398422 0.0248878095 0.0290357787 0.00414796825
      0.00829593651 0.0124439048 0.116143115 0.0207398422 0.0124439048
      0.0456276499 0.033183746 0.0414796844 0.016591873 0.016591873
      0.0124439048 0.00829593651 0.0207398422 0.0207398422 0.0622195229
      0.0248878095 0.00414796825 0.0829593688 0.033183746 0.0124439048
      0.0622195229</_>
    <_>
      0. 0.0450972617 0.0676458925 0.0338229463 0.0676458925
      0.0563715771 0.135291785 0.0901945233 0.0338229463 0.0563715771
      0.0901945233 0. 0.0112743154 0.0338229463 0.0563715771
      0.0563715771 0.0338229463 0.0450972617 0.0225486308 0.0112743154
      0.135291785 0.0338229463 0.0112743154 0.0676458925 0.0112743154
      0.0225486308 0.0225486308 0.0225486308 0. 0. 0.0901945233 0.
      0.101468839 0.12401747 0.0225486308 0.0338229463 0.0225486308
      0.101468839 0. 0.0112743154 0.0338229463 0.0450972617 0.0225486308
      0. 0.0225486308 0.0112743154 0. 0.0225486308 0.0225486308
      0.0225486308 0.0338229463 0.0112743154 0.0338229463 0.0901945233
      0. 0.0225486308 0.0563715771 0.0338229463 0.0563715771
      0.0450972617 0.0450972617 0.112743154 0.0338229463 0.0450972617
      0.146566108 0.0112743154 0.0563715771 0.0563715771 0.0450972617
      0.0789202079 0. 0.0450972617 0.0112743154 0.0225486308
      0.0225486308 0.0450972617 0.0789202079 0.0112743154 0.
      0.0112743154 0.0789202079 0.0338229463 0.0225486308 0.0789202079
      0. 0.157840416 0.0338229463 0.0450972617 0.0112743154 0.0450972617
      0.0563715771 0. 0.0338229463 0.0338229463 0.0225486308
      0.0112743154 0.0563715771 0.0112743154 0.157840416 0.0450972617
      0.0450972617 0.0901945233 0.146566108 0.0563715771 0. 0.
      0.0225486308 0. 0.0112743154 0.0338229463 0.0563715771
      0.0112743154 0.0338229463 0. 0.0789202079 0.0338229463 0. 0.
      0.135291785 0.112743154 0.0225486308 0.0112743154 0.0450972617
      0.180389047 0. 0. 0.0225486308 0.0225486308 0.0112743154 0.
      0.0338229463 0.0225486308 0.0676458925 0. 0. 0. 0.0112743154
      0.146566108 0.0450972617 0. 0. 0.0450972617 0. 0.0112743154
      0.0789202079 0. 0.0225486308 0. 0.0789202079 0.0225486308
      0.0225486308 0.0112743154 0.0450972617 0. 0.101468839 0.0225486308
      0.0901945233 0.0450972617 0.0225486308 0.0338229463 0.202937678
      0.169114739 0.0112743154 0.0450972617 0. 0.0225486308 0.
      0.101468839 0.0450972617 0.0112743154 0. 0.0338229463 0.0563715771
      0.0563715771 0.0225486308 0.0563715771 0. 0.0112743154
      0.0563715771 0. 0.0225486308 0.0563715771 0.19166337 0.0450972617
      0. 0.0225486308 0. 0.0450972617 0.0450972617 0.0112743154
      0.0676458925 0.0676458925 0.0225486308 0.0225486308 0.0225486308
      0.0225486308 0.0338229463 0. 0.0112743154 0. 0.0225486308 0.
      0.0450972617 0.0338229463 0. 0. 0.0789202079 0. 0.0338229463
      0.0112743154 0.0789202079 0.146566108 0.0225486308 0.0225486308
      0.0112743154 0. 0.0676458925 0.0112743154 0.0112743154
      0.0789202079 0.0676458925 0.0563715771 0.0563715771 0.0225486308
      0.0338229463 0.0225486308 0.0112743154 0. 0.0112743154
      0.0450972617 0. 0.0338229463 0. 0.0112743154 0.0676458925
      0.0225486308 0.0112743154 0.0112743154 0.0450972617 0. 0. 0.
      0.0225486308 0.0225486308 0.0112743154 0.0225486308 0.0338229463
      0.0450972617 0.19166337 0.0225486308 0.12401747 0.0338229463 0.
      0.0450972617 0.0112743154 0.0563715771 0.0338229463 0.
      0.0338229463 0.0901945233 0.0338229463 0.0338229463 0.0450972617
      0.112743154 0.0225486308 0.0112743154 0.0225486308 0.236760631
      0.0450972617 0.0676458925 0. 0. 0.0225486308 0.0338229463
      0.112743154 0.0225486308 0.0112743154 0.0112743154 0.0563715771
      0.0338229463 0.12401747 0.101468839 0.0901945233 0. 0.0225486308
      0.0563715771 0.0901945233 0.0338229463 0.0450972617 0.0563715771
      0.0450972617 0.0563715771 0.0338229463 0.0225486308 0.146566108
      0.0225486308 0.0450972617 0.0450972617 0.0225486308 0.0901945233</_>
    <_>
      0.0662005916 0.0662005916 0.0294224862 0.0662005916 0.0441337265
      0.0441337265 0.110334322 0.0809118375 0.0147112431 0.0367781073
      0.0220668633 0.0294224862 0.0220668633 0.0147112431 0.0662005916
      0.0735562146 0.0514893495 0.0147112431 0.0662005916 0.0147112431
      0.00735562155 0.0220668633 0.0441337265 0.0441337265 0.0220668633
      0.0294224862 0.0809118375 0.0367781073 0.0294224862 0. 0.102978699
      0.0735562146 0.0147112431 0.0367781073 0.095623076 0.088267453
      0.102978699 0.110334322 0.0147112431 0.102978699 0.0588449724
      0.0294224862 0.0514893495 0.0809118375 0.0367781073 0.00735562155
      0.0367781073 0.0147112431 0.0367781073 0. 0.0367781073
      0.0441337265 0.0294224862 0.0662005916 0. 0.0809118375
      0.00735562155 0.0294224862 0.0809118375 0.00735562155 0.0220668633
      0. 0.132401183 0.0662005916 0.117689945 0.0367781073 0.0294224862
      0.0514893495 0.0147112431 0.0367781073 0.0147112431 0.0294224862
      0.0588449724 0.0588449724 0.0441337265 0.00735562155 0.0809118375
      0.0294224862 0.0588449724 0.0662005916 0.0294224862 0.0514893495
      0.0220668633 0.0147112431 0.110334322 0.0367781073 0.0441337265
      0.0220668633 0.0588449724 0.0147112431 0.0809118375 0.0514893495
      0.0147112431 0.0367781073 0.0294224862 0.0514893495 0.0147112431
      0.102978699 0.0514893495 0.0220668633 0.00735562155 0.0294224862
      0. 0.117689945 0.0662005916 0.0588449724 0.0367781073 0.0147112431
      0.117689945 0.0294224862 0.0367781073 0.0662005916 0.0367781073
      0.102978699 0.0662005916 0.0735562146 0.0294224862 0.00735562155
      0.0514893495 0.0441337265 0.00735562155 0.0809118375 0.0441337265
      0.0662005916 0.0294224862 0.0294224862 0.0220668633 0.0588449724
      0.0735562146 0.0441337265 0.088267453 0.0367781073 0.0220668633
      0.0147112431 0.0441337265 0.0441337265 0.0147112431 0.0809118375
      0.0367781073 0.00735562155 0.0809118375 0.0147112431 0.00735562155
      0.0588449724 0.0441337265 0.0147112431 0.0294224862 0.00735562155
      0.0147112431 0.0367781073 0.0220668633 0.0294224862 0.0514893495
      0.0662005916 0.0662005916 0.0294224862 0.0735562146 0.125045568 0.
      0.0294224862 0.0514893495 0.0367781073 0.088267453 0.0662005916
      0.0662005916 0.125045568 0. 0.0662005916 0.088267453 0.0220668633
      0.0809118375 0.0220668633 0.0367781073 0.0294224862 0.0809118375
      0.0588449724 0.0147112431 0.0809118375 0.0367781073 0.0220668633
      0.0367781073 0.102978699 0.0367781073 0.0735562146 0. 0.0514893495
      0.00735562155 0.0735562146 0.0514893495 0.0441337265 0.102978699
      0.0588449724 0.0441337265 0.095623076 0.0735562146 0.088267453
      0.0294224862 0.0367781073 0.0514893495 0.0662005916 0.0441337265
      0.0735562146 0.0588449724 0.117689945 0.0588449724 0.0367781073
      0.0514893495 0.0735562146 0.0367781073 0.0367781073 0.0514893495
      0.0147112431 0.0514893495 0.0735562146 0.00735562155 0.00735562155
      0.0367781073 0.0220668633 0.0367781073 0.0294224862 0.0809118375
      0.0735562146 0.0662005916 0.0809118375 0.102978699 0.00735562155
      0.0441337265 0.139756799 0.0441337265 0.205957398 0. 0.0220668633
      0.0147112431 0.0294224862 0.0441337265 0.0294224862 0.0147112431
      0.0735562146 0.0588449724 0.0367781073 0.0220668633 0.095623076
      0.102978699 0.00735562155 0.0220668633 0.0367781073 0.102978699
      0.0147112431 0.0147112431 0.00735562155 0.0294224862 0.0735562146
      0. 0.102978699 0.0662005916 0.0735562146 0.0367781073 0.0220668633
      0.0441337265 0.0294224862 0.0147112431 0.095623076 0.0809118375
      0.0588449724 0.0735562146 0.00735562155 0.088267453 0.0367781073
      0.0514893495 0.0294224862 0.00735562155 0. 0.147112429
      0.00735562155 0.0220668633 0. 0.0514893495 0.0367781073
      0.0294224862 0.0220668633 0.147112429 0.0294224862 0.0294224862
      0.0147112431 0.0220668633 0.139756799 0.0735562146 0.0294224862
      0.0294224862 0.0147112431 0.0294224862 0.00735562155 0.0294224862
      0.0735562146 0.0294224862 0.0147112431 0.0367781073 0.0441337265
      0.0294224862 0.102978699</_>
    <_>
      0.0290738754 0.0533021055 0.038765166 0.00969129149 0.0242282301
      0.00969129149 0.0484564602 0.0726846904 0.0678390414 0.019382583
      0.0290738754 0.019382583 0.0339195207 0.00484564574 0.0339195207
      0.0145369377 0.0145369377 0.043610815 0.0339195207 0.0145369377
      0.0339195207 0.019382583 0.0339195207 0.0290738754 0.00484564574
      0.0290738754 0.0290738754 0.0242282301 0. 0. 0.0533021055
      0.0290738754 0.0339195207 0.0872216299 0.00969129149 0.038765166
      0.0726846904 0.0581477508 0.0678390414 0.188980192 0.0242282301
      0.0242282301 0.0339195207 0.019382583 0.0581477508 0.00484564574
      0.00969129149 0.019382583 0.043610815 0.0484564602 0.0290738754
      0.0533021055 0.00484564574 0.101758562 0. 0.019382583
      0.00484564574 0.0290738754 0.0678390414 0.043610815 0.0145369377
      0.0969129205 0.00969129149 0.0339195207 0.0629933998 0.0242282301
      0.0242282301 0.0290738754 0.0145369377 0.0678390414 0.0484564602
      0.0145369377 0.00969129149 0.0242282301 0.043610815 0.00969129149
      0.0920672715 0.0775303319 0.0339195207 0.019382583 0.0484564602
      0.019382583 0.00969129149 0.0339195207 0.0290738754 0.019382583
      0.0242282301 0.0242282301 0.0242282301 0.0775303319 0.0726846904
      0.043610815 0.0290738754 0.0339195207 0.019382583 0.0242282301
      0.0145369377 0.0145369377 0.038765166 0.0145369377 0.019382583
      0.0726846904 0.043610815 0.0872216299 0.0290738754 0.00969129149
      0.0290738754 0. 0.0290738754 0.00969129149 0.038765166 0.1259868
      0.019382583 0.0242282301 0.043610815 0.0775303319 0.043610815
      0.00484564574 0.106604211 0.019382583 0.038765166 0.043610815
      0.0290738754 0.0629933998 0.00969129149 0.00484564574 0.019382583
      0.038765166 0.0145369377 0.00969129149 0.019382583 0.043610815
      0.0145369377 0.00969129149 0.0339195207 0.00969129149 0.0242282301
      0.043610815 0.00484564574 0.038765166 0.00484564574 0.0581477508
      0.019382583 0.019382583 0.038765166 0.0339195207 0.0290738754 0.
      0.169597611 0.00969129149 0.0290738754 0.038765166 0.0290738754
      0.0242282301 0.0290738754 0.116295502 0.0290738754 0.0629933998
      0.0242282301 0.0242282301 0.213208422 0.0242282301 0.0242282301
      0.019382583 0.0145369377 0.0145369377 0.0339195207 0.0339195207
      0.0242282301 0.019382583 0.0242282301 0.038765166 0.038765166
      0.0581477508 0.00969129149 0.0920672715 0.0533021055 0.043610815
      0.0145369377 0.043610815 0.019382583 0.0629933998 0.0629933998
      0.0339195207 0.00484564574 0.0242282301 0. 0.0290738754
      0.00969129149 0.0145369377 0.00484564574 0.019382583 0.00969129149
      0.00484564574 0.0242282301 0.019382583 0.0339195207 0.0145369377
      0.0242282301 0.0242282301 0.043610815 0.0145369377 0.038765166
      0.019382583 0.00484564574 0.00969129149 0.043610815 0.0339195207
      0.0145369377 0.0242282301 0.019382583 0.019382583 0.019382583
      0.0242282301 0.00484564574 0.00484564574 0.0339195207 0.0290738754
      0.038765166 0.038765166 0.00969129149 0.0145369377 0.0290738754
      0.0629933998 0.0242282301 0.106604211 0.043610815 0.0290738754
      0.00969129149 0.29558441 0.00484564574 0.00969129149 0.
      0.038765166 0.0533021055 0.0581477508 0.00484564574 0.019382583
      0.0290738754 0.0339195207 0.00484564574 0.00969129149
      0.00969129149 0.0145369377 0.0629933998 0.0339195207 0.0339195207
      0.00969129149 0.0581477508 0.0290738754 0.0290738754 0.043610815
      0. 0.0339195207 0.043610815 0.043610815 0.111449853 0.0339195207
      0.019382583 0. 0.0533021055 0.0242282301 0.0242282301 0.562094927
      0.0145369377 0. 0.00969129149 0.1259868 0.00969129149 0.0242282301
      0. 0. 0.0290738754 0.0339195207 0.0339195207 0.0290738754
      0.15021503 0.0242282301 0.0145369377 0.0290738754 0.106604211
      0.0339195207 0.0145369377 0.00484564574 0.00969129149 0.101758562
      0.00969129149 0.0145369377 0.00969129149 0.043610815 0.0339195207
      0.0678390414 0.00969129149 0.0290738754 0.00969129149 0.043610815
      0.0823759809 0.0533021055 0.019382583 0.0726846904</_>
    <_>
      0.0534075275 0.0350213274 0.0577851906 0.0446521938 0.0262659974
      0.0245149303 0.130454451 0.0700426549 0.0350213274 0.056909658
      0.021012798 0.0227638632 0.0411500596 0.0192617308 0.0455277264
      0.0341457948 0.0367723964 0.0306436624 0.0516564585 0.0341457948
      0.0183861982 0.0341457948 0.0446521938 0.046403259 0.0227638632
      0.0332702622 0.0534075275 0.0262659974 0.0131329987 0.00262659974
      0.0700426549 0.0621628575 0.0271415301 0.077922456 0.0761713907
      0.021012798 0.0998107865 0.0665405244 0.0647894591 0.096308656
      0.0499053933 0.0323947296 0.0928065181 0.0411500596 0.10506399
      0.0726692602 0.0385234617 0.0192617308 0.0595362596 0.0218883306
      0.0271415301 0.0402745269 0.0227638632 0.0901799202 0.00350213284
      0.0542830601 0.0175106637 0.0472787954 0.0604117922 0.0288925953
      0.0472787954 0.0306436624 0.0630383939 0.0306436624 0.0884288549
      0.0551585928 0.0350213274 0.0411500596 0.0245149303 0.0472787954
      0.0420255959 0.0175106637 0.0849267244 0.0358968638 0.0656649917
      0.0245149303 0.131329983 0.0901799202 0.0516564585 0.0367723964
      0.048154328 0.0814245865 0.0429011285 0.0823001191 0.0455277264
      0.0332702622 0.0551585928 0.0437766612 0.0472787954 0.0630383939
      0.0884288549 0.0796735212 0.00700426567 0.0402745269 0.110317186
      0.0402745269 0.0192617308 0.0630383939 0.0297681298 0.0157595985
      0.0288925953 0.0183861982 0.0393989943 0.103312917 0.0323947296
      0.00612873258 0.0323947296 0.00787979923 0.0472787954 0.0262659974
      0.0516564585 0.0323947296 0.0306436624 0.0823001191 0.046403259
      0.142711908 0.0858022571 0.0183861982 0.0849267244 0.037647929
      0.0288925953 0.0709181875 0.0332702622 0.0411500596 0.0420255959
      0.0901799202 0.021012798 0.0297681298 0.0358968638 0.0306436624
      0.0385234617 0.183861971 0.037647929 0.0315191969 0.021012798
      0.0490298606 0.0385234617 0.0630383939 0.0297681298 0.0875533223
      0.0577851906 0.0402745269 0.246900365 0.0218883306 0.0639139265
      0.0227638632 0.0341457948 0.00350213284 0.10506399 0.0691671222
      0.0323947296 0.0350213274 0.0148840649 0.0761713907 0.0253904629
      0.0429011285 0.0245149303 0.0639139265 0.0604117922 0.0402745269
      0.133081049 0.0507809259 0.0402745269 0.0630383939 0.106815055
      0.0499053933 0.0245149303 0.0446521938 0.0910554528 0.0665405244
      0.0455277264 0.037647929 0.0849267244 0.0910554528 0.0385234617
      0.0884288549 0.0315191969 0.0639139265 0.0367723964 0.0472787954
      0.0910554528 0.0761713907 0.0726692602 0.0604117922 0.00350213284
      0.0157595985 0.00875533186 0.046403259 0.0472787954 0.0420255959
      0.0323947296 0.0744203255 0.0192617308 0.0411500596 0.0761713907
      0.0542830601 0.0236393977 0.0323947296 0.0262659974 0.0831756592
      0.0656649917 0.0542830601 0.0253904629 0.0437766612 0.0577851906
      0.0157595985 0.0534075275 0.0577851906 0.0455277264 0.0717937276
      0.0341457948 0.0341457948 0.048154328 0.0630383939 0.00612873258
      0.00175106642 0.0323947296 0.0630383939 0.0280170627 0.0709181875
      0.0332702622 0.0639139265 0.046403259 0.0393989943 0.0253904629
      0.0341457948 0.0507809259 0.0551585928 0.0455277264 0.165475786
      0.0306436624 0.0236393977 0.00175106642 0.0901799202 0.0306436624
      0.0367723964 0.00875533186 0.0218883306 0.0560341254 0.0271415301
      0.0175106637 0.0787979886 0.0525319949 0.0367723964 0.0534075275
      0.037647929 0.0560341254 0.0288925953 0.0858022571 0.0236393977
      0.0393989943 0.0551585928 0.00262659974 0.0350213274 0.0516564585
      0.0621628575 0.102437384 0.0787979886 0.0429011285 0.0323947296
      0.0113819316 0.0490298606 0.0201372635 0.163724706 0.0472787954
      0.00175106642 0.0385234617 0.112068251 0.046403259 0.0297681298
      0.0131329987 0. 0.058660727 0.037647929 0.0385234617 0.0341457948
      0.0577851906 0.0332702622 0.0315191969 0.0446521938 0.0639139265
      0.048154328 0.0358968638 0.0183861982 0.0157595985 0.146214053
      0.037647929 0.0315191969 0.0367723964 0.0218883306 0.0507809259
      0.0560341254 0.0271415301 0.0735447928 0.0358968638 0.0183861982
      0.102437384 0.0402745269 0.0227638632 0.048154328</_>
    <_>
      0.0308428612 0.0154214306 0.0539750084 0.0154214306 0.0539750084
      0.0154214306 0.0616857223 0.0693964362 0.0693964362 0.0154214306
      0.0154214306 0.0539750084 0.0385535769 0.00771071529 0.0462642945
      0.0231321473 0.0385535769 0.0385535769 0.0462642945 0.0385535769
      0.0616857223 0.0308428612 0.0462642945 0.0231321473 0.00771071529
      0.0154214306 0.0385535769 0.00771071529 0.00771071529 0.
      0.0154214306 0.0308428612 0.0539750084 0.0693964362 0.0693964362
      0.00771071529 0.0462642945 0.0231321473 0.0539750084 0.0925285891
      0.0154214306 0.0308428612 0.0385535769 0.0308428612 0.0308428612
      0.0231321473 0.0154214306 0. 0.0539750084 0.0308428612
      0.0154214306 0.00771071529 0.0539750084 0.0693964362 0.
      0.0308428612 0.0231321473 0.0539750084 0.0154214306 0.0308428612
      0.0385535769 0.0385535769 0.0308428612 0.0308428612 0.0231321473
      0.0231321473 0.0616857223 0.0154214306 0.00771071529 0.0385535769
      0.0462642945 0.0231321473 0.0154214306 0.123371445 0.0231321473
      0.0539750084 0.0848178715 0.0616857223 0.0154214306 0.
      0.0385535769 0.0616857223 0.0231321473 0.0385535769 0.0154214306
      0.0385535769 0.0462642945 0.0462642945 0.0462642945 0.0462642945
      0.100239299 0.0308428612 0.0154214306 0.0385535769 0.100239299
      0.0693964362 0.0154214306 0.0231321473 0.0231321473 0.0154214306
      0.0154214306 0.0848178715 0.0925285891 0.0925285891 0.
      0.00771071529 0.0231321473 0.00771071529 0.0385535769
      0.00771071529 0.0308428612 0.107950017 0.0462642945 0.0385535769
      0.0231321473 0.100239299 0.0462642945 0.0231321473 0.154214308
      0.0539750084 0.0154214306 0.0308428612 0.0539750084 0.0308428612
      0.0462642945 0.0154214306 0.0231321473 0.0154214306 0.0308428612
      0.0154214306 0.0154214306 0.0539750084 0.0771071538 0.00771071529
      0.0154214306 0.0154214306 0.0231321473 0.0539750084 0.0385535769
      0.0308428612 0.0231321473 0.107950017 0.0925285891 0.0308428612
      0.0462642945 0.00771071529 0.0462642945 0.00771071529 0.0385535769
      0.0154214306 0.123371445 0.0231321473 0.00771071529 0.0308428612
      0.0231321473 0.0231321473 0.100239299 0.0539750084 0.0154214306
      0.0385535769 0.0693964362 0.0231321473 0.0385535769 0.0308428612
      0.0308428612 0.0308428612 0.0539750084 0.0308428612 0.0231321473
      0.0308428612 0.0462642945 0.0154214306 0.0462642945 0.161925033
      0.0231321473 0.0925285891 0.0385535769 0.0539750084 0.0154214306
      0.0154214306 0.0154214306 0.0231321473 0.00771071529 0.00771071529
      0.00771071529 0.0231321473 0. 0. 0.0231321473 0.0539750084
      0.00771071529 0.0154214306 0. 0.0154214306 0.0385535769
      0.0925285891 0.0385535769 0. 0.0231321473 0.0154214306
      0.0231321473 0. 0.0154214306 0.0231321473 0.0308428612
      0.0231321473 0.0231321473 0.00771071529 0.0385535769 0.0385535769
      0.0154214306 0.0231321473 0.00771071529 0.0693964362 0.00771071529
      0. 0.0462642945 0. 0.0308428612 0.0616857223 0.0462642945
      0.0539750084 0.0308428612 0.0231321473 0.0231321473 0.0462642945
      0.0231321473 0.0616857223 0.00771071529 0.393246502 0.
      0.0539750084 0. 0.0771071538 0.0385535769 0.0308428612
      0.00771071529 0.00771071529 0.0539750084 0.0385535769 0.
      0.0231321473 0.0154214306 0.0539750084 0.0693964362 0.0231321473
      0.0154214306 0.0385535769 0.215900034 0.0848178715 0.123371445
      0.0154214306 0. 0.0462642945 0.00771071529 0.0771071538
      0.0848178715 0.0231321473 0.0385535769 0.0925285891 0.0154214306
      0.0848178715 0.0154214306 0.323850065 0.0308428612 0. 0.0231321473
      0.208189324 0.0231321473 0.0308428612 0.00771071529 0.
      0.0154214306 0.0925285891 0.0539750084 0.0539750084 0.0925285891
      0.0154214306 0.0231321473 0.0539750084 0.0385535769 0.138792872
      0.0771071538 0.00771071529 0.0462642945 0.0616857223 0.0231321473
      0.0154214306 0.0539750084 0.0462642945 0.0231321473 0.100239299
      0.00771071529 0.00771071529 0.0154214306 0.0693964362 0.0925285891
      0.0231321473 0.0616857223 0.0771071538</_>
    <_>
      0.0134041877 0.0134041877 0.00893612485 0.0402125642 0.0223403126
      0.0357444994 0.0848931894 0.0357444994 0.058084812 0.0312764384
      0.0714889988 0.102765441 0.058084812 0.0893612504 0.0491486862
      0.0223403126 0.0491486862 0.0223403126 0.0446806252 0.0178722497
      0.0714889988 0.0134041877 0.0312764384 0.00893612485 0.0848931894
      0.00893612485 0.0134041877 0.00893612485 0.00446806243 0.
      0.0491486862 0.00446806243 0.0491486862 0.223403126 0.0491486862
      0.0625528768 0.0178722497 0.0312764384 0.0848931894 0.0893612504
      0.0223403126 0.0178722497 0.00446806243 0.0178722497 0.00893612485
      0.00893612485 0.058084812 0. 0. 0.0312764384 0.053616751
      0.0312764384 0.058084812 0.120637685 0. 0.0223403126 0.0312764384
      0.0357444994 0.0134041877 0.0134041877 0.0223403126 0.0982973725
      0.0178722497 0.0223403126 0.0804251283 0.00893612485 0.0223403126
      0.0223403126 0.0178722497 0.0938293114 0.0312764384 0.00446806243
      0.00446806243 0.116169624 0.0134041877 0.0402125642 0.053616751
      0.0223403126 0.00446806243 0.0178722497 0.0491486862 0.0178722497
      0.0312764384 0.0982973725 0.0402125642 0.0446806252 0.0178722497
      0.0178722497 0.058084812 0.0893612504 0.0178722497 0.0223403126
      0.0402125642 0.0357444994 0.00446806243 0.0402125642 0.0491486862
      0.0357444994 0.0804251283 0.0312764384 0.058084812 0.0670209378
      0.125105754 0.0357444994 0.0223403126 0.00446806243 0.0268083755
      0. 0.0268083755 0.0268083755 0.0402125642 0.0357444994
      0.00446806243 0.00446806243 0.0491486862 0.0223403126
      0.00893612485 0. 0.183190569 0.116169624 0.0670209378 0.0134041877
      0.0178722497 0.192126691 0.0178722497 0.0134041877 0.0268083755
      0.0223403126 0.0670209378 0.0223403126 0.0312764384 0. 0.053616751
      0.0134041877 0.0357444994 0.0223403126 0.0402125642 0.053616751
      0.0312764384 0.00893612485 0.00893612485 0.0357444994 0.
      0.058084812 0.0178722497 0.00446806243 0.0848931894 0.
      0.0670209378 0.0134041877 0.0714889988 0.0223403126 0.0178722497
      0.0312764384 0.0268083755 0.0625528768 0.0714889988 0.0268083755
      0.058084812 0. 0.236807317 0.0714889988 0.0402125642 0.00893612485
      0.0178722497 0.0357444994 0.0402125642 0.0312764384 0.0134041877
      0.0223403126 0.0134041877 0.00446806243 0.0178722497 0.0714889988
      0.0491486862 0.0134041877 0.0357444994 0.0268083755 0.00893612485
      0.0312764384 0. 0.058084812 0.277019888 0.0134041877 0.
      0.0446806252 0.00446806243 0.0223403126 0.0491486862 0.0178722497
      0.0268083755 0.0178722497 0.0134041877 0.0312764384 0.00446806243
      0.0134041877 0.053616751 0.0312764384 0.0446806252 0. 0.
      0.0268083755 0.0402125642 0.0714889988 0.00893612485 0.0312764384
      0.053616751 0.00893612485 0.00446806243 0.0134041877 0.0357444994
      0.0982973725 0.00893612485 0.0312764384 0.00893612485 0.
      0.0402125642 0.00446806243 0.0312764384 0.0223403126 0.058084812
      0.0848931894 0.0223403126 0.0625528768 0.0268083755 0.0804251283
      0. 0.0402125642 0.00446806243 0.0848931894 0.0134041877
      0.0938293114 0. 0.00446806243 0.0268083755 0.053616751
      0.0134041877 0.0312764384 0.053616751 0.0312764384 0. 0.0178722497
      0.0357444994 0.0134041877 0.0178722497 0.0402125642 0.0178722497
      0.0268083755 0.178722501 0.0804251283 0.245743439 0.0312764384 0.
      0.0670209378 0.0268083755 0.0134041877 0.0491486862 0.00893612485
      0.0804251283 0.0714889988 0.0402125642 0.0312764384 0.0714889988
      0.0893612504 0.0223403126 0. 0.058084812 0.156382188 0.0268083755
      0.053616751 0.00446806243 0. 0.0134041877 0.0670209378
      0.0402125642 0.0893612504 0.0402125642 0.058084812 0.0312764384
      0.0268083755 0.227871194 0.0491486862 0.0938293114 0.00446806243
      0.0402125642 0.129573807 0.0491486862 0.0312764384 0.0759570599
      0.0357444994 0.00893612485 0.058084812 0.0268083755 0.00446806243
      0.0848931894 0.0178722497 0.053616751 0.0312764384 0.0491486862
      0.0625528768</_>
    <_>
      0.000534885912 0.0176512357 0.00534885935 0.0197907798
      0.00909306109 0.0112326043 0.0545583665 0.036907129 0.0465350747
      0.0171163492 0.0278140679 0.0117674908 0.0417211019 0.0224652085
      0.013907034 0.007488403 0.0155116925 0.0085581746 0.00481397333
      0.0213954374 0.354094476 0.00267442968 0.0176512357 0.00962794665
      0.128372625 0.013907034 0.0117674908 0.00267442968 0.000534885912
      0. 0.0181861222 0.000534885912 0.0524188206 0.0657909736
      0.00962794665 0.00641863141 0.00320931571 0.0187210087 0.17383793
      0.0203256663 0.000534885912 0.013907034 0.0037442015 0.00106977182
      0.00588374538 0.00320931571 0.0155116925 0.00160465785
      0.0144419204 0.0657909736 0.0208605509 0.0117674908 0.035837356
      0.0518839359 0. 0.00641863141 0.0385117866 0.0283489544
      0.00695351698 0.00962794665 0.00909306109 0.144419208 0.023000095
      0.00909306109 0.0117674908 0.0042790873 0.0133721484 0.0235349815
      0.0197907798 0.224652097 0.0133721484 0.0042790873 0.0037442015
      0.0251396392 0.00160465785 0.0224652085 0.0401164442 0.00213954365
      0.00641863141 0.00641863141 0.0219303239 0.00588374538
      0.0123023763 0.285094202 0.0155116925 0.0887910649 0.00641863141
      0.0203256663 0.0342326984 0.0791631192 0.00962794665 0.0123023763
      0.0106977187 0.0106977187 0.00802328903 0.007488403 0.0112326043
      0.00481397333 0.0481397361 0.00909306109 0.0128372628 0.154582039
      0.116605133 0.0208605509 0.00588374538 0.00160465785 0.00695351698
      0.00213954365 0.007488403 0.0256745256 0.0106977187 0.135861024
      0.0101628331 0.00320931571 0.0395815596 0.014976806 0.00641863141
      0.000534885912 0.0566979088 0.0144419204 0.0251396392
      0.00802328903 0.0294187274 0.0331629291 0.00320931571
      0.00481397333 0.0449304171 0.0037442015 0.0128372628 0.00534885935
      0.00909306109 0.00320931571 0.0144419204 0.00106977182
      0.0171163492 0.00267442968 0.00641863141 0.0272791833 0.0117674908
      0.00320931571 0.00481397333 0.0476048477 0.035837356 0.0224652085
      0.0288838409 0.00267442968 0.0101628331 0. 0.104837641
      0.0042790873 0.0128372628 0.0085581746 0.0133721484 0.0042790873
      0.0320931561 0.0647211969 0.0460001901 0.0106977187 0.250861496
      0.00320931571 0.100558557 0.102698103 0.0224652085 0.00160465785
      0.0037442015 0.024069868 0.00588374538 0.0294187274 0.00909306109
      0.00802328903 0.0042790873 0.0112326043 0.00695351698 0.059907224
      0.00534885935 0.0176512357 0.00802328903 0.0155116925 0.0176512357
      0.00588374538 0.00641863141 0.0165814646 0.0780933499 0.0085581746
      0.00106977182 0.023000095 0.00106977182 0.00909306109 0.0106977187
      0.0197907798 0.013907034 0.00267442968 0.00160465785 0.0112326043
      0.00481397333 0.00909306109 0.0155116925 0.0123023763 0.0117674908
      0.00320931571 0.00267442968 0.00695351698 0.0117674908
      0.0085581746 0.00106977182 0.0112326043 0.00802328903 0.0133721484
      0.0155116925 0.00267442968 0.0246047527 0.112326048 0.00641863141
      0.0085581746 0.00106977182 0. 0.00534885935 0.0037442015
      0.0128372628 0.00909306109 0.0283489544 0.0192558933 0.0251396392
      0.024069868 0.0171163492 0.213419482 0.00213954365 0.00534885935
      0.00641863141 0.0989538953 0.00481397333 0.0786282346
      0.000534885912 0.0037442015 0.023000095 0.0106977187 0.0085581746
      0.0171163492 0.0192558933 0.0123023763 0. 0.007488403
      0.00534885935 0.0106977187 0.0037442015 0.0283489544 0.00160465785
      0.00802328903 0.440746009 0.0219303239 0.319326907 0.00695351698
      0.000534885912 0.0085581746 0.0085581746 0.00481397333
      0.00160465785 0.0112326043 0.0117674908 0.0449304171 0.00641863141
      0.0406513326 0.031023385 0.104302756 0.00962794665 0. 0.007488403
      0.0770235732 0.0187210087 0.0353024714 0.00106977182 0.
      0.0176512357 0.0144419204 0.0219303239 0.0347675867 0.0176512357
      0.0123023763 0.007488403 0.0128372628 0.0128372628 0.035837356
      0.0470699631 0. 0.0267442968 0.102698103 0.0401164442
      0.00267442968 0.0374420173 0.0128372628 0.00267442968 0.0155116925
      0.007488403 0.00213954365 0.0235349815 0.00320931571 0.0133721484
      0.014976806 0.007488403 0.0294187274</_>
    <_>
      0.00455683423 0.0273410063 0.0428342409 0.0318978392 0.0182273369
      0.0218728036 0.0373660401 0.0719979778 0.0501251779 0.0337205753
      0.0200500712 0.0100250356 0.0246069059 0.0136705032 0.0191387031
      0.0191387031 0.0227841716 0.00911366846 0.0191387031 0.0428342409
      0.0391887762 0.0209614374 0.0419228747 0.0282523725 0.0218728036
      0.0154932365 0.0109364018 0.00546820089 0.00273410045
      0.000911366835 0.0282523725 0.00637956802 0.07564345 0.0364546739
      0.0282523725 0.0145818694 0.0118477689 0.0291637387 0.15219827
      0.030986473 0.00911366846 0.012759136 0.0136705032 0.00273410045
      0.0136705032 0.00637956802 0.0419228747 0.00820230134 0.0574161112
      0.181362003 0.0154932365 0.0328092054 0.0255182721 0.0802002847
      0.000911366835 0.0100250356 0.0492138118 0.0346319415 0.0182273369
      0.0209614374 0.00911366846 0.132148191 0.0164046027 0.0164046027
      0.0492138118 0.00637956802 0.0318978392 0.0191387031 0.0236955378
      0.0200500712 0.0364546739 0.0364546739 0.00820230134 0.0391887762
      0.0118477689 0.117566325 0.0929594189 0.00820230134 0.00455683423
      0.0209614374 0.0574161112 0.0246069059 0.00637956802 0.0246069059
      0.012759136 0.0501251779 0.0355433077 0.0227841716 0.0136705032
      0.0300751068 0.030986473 0.0164046027 0.012759136 0.0136705032
      0.0145818694 0.0191387031 0.012759136 0.0118477689 0.0911366865
      0.0100250356 0.0118477689 0.617906749 0.0701752454 0.0492138118
      0.00637956802 0.00364546734 0.0273410063 0. 0.0145818694
      0.0164046027 0.0328092054 0.0601502135 0.0182273369 0.0100250356
      0.0838457495 0.0382774062 0.0236955378 0.00182273367 0.0792889148
      0.0373660401 0.0956935212 0.0191387031 0.0464797094 0.0291637387
      0.0118477689 0.0273410063 0.0428342409 0.0164046027 0.00729093468
      0.00820230134 0.0136705032 0.0109364018 0.0136705032 0.012759136
      0.0227841716 0.00364546734 0.0145818694 0.0401001424 0.0337205753
      0.0218728036 0.00455683423 0.0300751068 0.0501251779 0.0100250356
      0.0282523725 0.000911366835 0.0246069059 0. 0.0647070482
      0.0182273369 0.0364546739 0.00637956802 0.0154932365 0.00637956802
      0.160400569 0.14855279 0.0401001424 0.0255182721 0.0154932365
      0.0100250356 0.0738207176 0.0710866153 0.00911366846 0.0154932365
      0.0109364018 0.0200500712 0.0264296383 0.0209614374 0.00637956802
      0.0218728036 0.00911366846 0.0109364018 0.0218728036 0.108452655
      0.00455683423 0.0437456071 0.0118477689 0.0300751068 0.0145818694
      0.012759136 0.0154932365 0.0483024418 0.0583274774 0.012759136
      0.00273410045 0.0227841716 0.00182273367 0.0136705032
      0.00729093468 0.0264296383 0.0291637387 0.00911366846
      0.00637956802 0.00364546734 0.00729093468 0.0154932365
      0.0273410063 0.012759136 0.0154932365 0.0100250356 0.012759136
      0.0100250356 0.0264296383 0.00729093468 0.00637956802 0.0173159707
      0.0173159707 0.0164046027 0.0273410063 0.00729093468 0.0492138118
      0.0792889148 0.0136705032 0.0145818694 0.00455683423 0.
      0.012759136 0.0164046027 0.0191387031 0.0255182721 0.0355433077
      0.0355433077 0.0555933788 0.0246069059 0.0209614374 0.0273410063
      0.0136705032 0.00911366846 0.00546820089 0.182273373 0.00546820089
      0.0364546739 0. 0.0337205753 0.0719979778 0.0337205753
      0.0109364018 0.0300751068 0.0291637387 0.00820230134 0.00364546734
      0.00546820089 0.0109364018 0.0318978392 0.0282523725 0.0173159707
      0.00182273367 0.0182273369 0.0628843158 0.00729093468 0.317155659
      0.00820230134 0.000911366835 0.0218728036 0.0264296383
      0.0328092054 0.00911366846 0.0154932365 0.0364546739 0.0911366865
      0.030986473 0.0792889148 0.0191387031 0.168602869 0.0100250356
      0.000911366835 0.00637956802 0.07564345 0.0236955378 0.0510365441
      0. 0.000911366835 0.0200500712 0.0856684819 0.0346319415
      0.0437456071 0.0501251779 0.0209614374 0.0264296383 0.0592388436
      0.0300751068 0.0255182721 0.07564345 0. 0.0173159707 0.0637956783
      0.0391887762 0.0109364018 0.056504745 0.0765548125 0.00364546734
      0.0546820126 0.0118477689 0.00820230134 0.0291637387 0.0300751068
      0.0428342409 0.0191387031 0.0719979778 0.0528592765</_>
    <_>
      0.0742260069 0.0628705397 0.0416828878 0.0666095316 0.0722872689
      0.0782419667 0.018833464 0.0452834032 0.00540077314 0.0479145497
      0.0607933179 0.0128787663 0.0324046388 0.0609317981 0.0728411973
      0.0646707937 0.058716096 0.0710409358 0.046114292 0.0430677012
      0.016756244 0.0817039981 0.0718718246 0.0751953796 0.0583006516
      0.0667480156 0.0739490464 0.0196643528 0.0106630642 0.00124633219
      0.040990483 0.0828118548 0.0427907407 0.00332355266 0.0666095316
      0.0836427435 0.0657786429 0.0490224026 0.0253420882 0.0124633219
      0.0751953796 0.0938903615 0.0850275531 0.0382208563 0.0617626868
      0.0776880458 0.0735336021 0.0144020617 0.07547234 0.00900128856
      0.0724257529 0.0756108239 0.0609317981 0.026311459 0.00180025771
      0.0667480156 0.0400211141 0.0425137766 0.0691021979 0.0592700206
      0.0761647448 0.0163407996 0.0811500773 0.0713178962 0.0240957569
      0.0869662911 0.0637014285 0.0544231758 0.0559464693 0.00332355266
      0.0641168728 0.0650862381 0.0751953796 0.0390517451 0.0760262683
      0.0416828878 0.0360051543 0.00886280742 0.0808731169 0.0685482696
      0.0517920293 0.0603778735 0.0800422281 0.00429292209 0.0596854649
      0.0231263861 0.0574697629 0.0513765849 0.0594085045 0.00401595933
      0.0553925447 0.0696561262 0.0119093973 0.0589930601 0.0905668065
      0.0542846918 0.0782419667 0.0693791583 0.036836043 0.046114292
      0.0711794198 0.0221570171 0.030327417 0.0396056697 0.080596149
      0.00609317981 0.0617626868 0.00276962714 0.0488839187 0.0699330866
      0.0718718246 0.0256190505 0.0746414512 0.067024976 0.0299119744
      0.0727027133 0.0524844341 0.0177256148 0.007339512 0.0516535453
      0.0353127457 0.0937518775 0.0506841764 0.000138481366 0.0750568956
      0.0877971798 0.00498532876 0.0602393895 0.0743644908 0.0763032287
      0.0667480156 0.0589930601 0.0513765849 0.0916746631 0.0506841764
      0.0895974413 0.0775495619 0.0710409358 0.0609317981 0.0750568956
      0.0695176423 0.0382208563 0.0825348869 0.0598239489 0.0307428613
      0.0222954992 0.0267269015 0.00290810852 0.0386363007 0.0846121088
      0.0261729769 0.0625935718 0.0785189271 0.047083661 0.0389132611
      0.0117709152 0.0422368161 0.0702100471 0.0218800548 0.06716346
      0.00401595933 0.0238187946 0.0614857227 0.0686867535 0.072148785
      0.06716346 0.0606548339 0.0386363007 0.078657411 0.0851660371
      0.0815655217 0.0585776158 0.0738105625 0.0270038657 0.0695176423
      0.0537307672 0.0314352699 0.0621781312 0.0609317981 0.0851660371
      0.0808731169 0.0311583057 0.00318507128 0.0855814815 0.0128787663
      0.0610702783 0.00650862372 0.0746414512 0.0206337217 0.0614857227
      0.0610702783 0.0749184117 0.0347588211 0.0689637139 0.0893204734
      0.0645323098 0.0484684743 0.0858584419 0.0855814815 0.0774110779
      0.0718718246 0.0717333406 0.058716096 0.0718718246 0.054561656
      0.0797652602 0.0757493004 0.0681328252 0.0653631985 0.0728411973
      0.0580236912 0.0292195659 0.0576082468 0.0681328252 0.00110785093
      0.00166177633 0.0567773581 0.0887665525 0.0491608828 0.0623166114
      0.0663325712 0.0847505927 0.0584391318 0.0447294787 0.0764417127
      0.00844736304 0.0751953796 0.0534538031 0.047083661 0.00484684762
      0.0366975591 0.0534538031 0.00221570185 0.0709024593 0.0437601097
      0.0627320558 0.00844736304 0.0581621714 0.0447294787 0.08378122
      0.00429292209 0.0711794198 0.0614857227 0.065224722 0.0548386164
      0.0534538031 0.0332355276 0.0707639754 0.00484684762 0.0483299941
      0.0357281901 0.0537307672 0.00124633219 0.0632859841 0.0656401664
      0.0598239489 0.0132942107 0.078657411 0.078795895 0.037805412
      0.054561656 0.0372514874 0.0605163537 0.00443140371 0.0898744017
      0.00290810852 0.0749184117 0.0056777359 0.0533153228 0.0497148074
      0.0137096541 0.000969369488 0.0699330866 0.040990483 0.0693791583
      0.0292195659 0.00415444095 0.0691021979 0.0761647448 0.0389132611
      0.000553925463 0.0551155806 0.041959852 0.0110785086 0.0717333406
      0.00124633219 0.0556695051 0.072148785 0.0329585634 0.0552540608
      0.0814270377 0.0389132611 0.0895974413 0.0776880458 0.0430677012
      0.0584391318 0.0667480156 0.0584391318 0.0569158383 0.0423752964</_>
    <_>
      0.0197185446 0.0492963605 0.0739445463 0.0394370891 0.0147889089
      0.0345074534 0.0739445463 0.162677988 0.0739445463 0.0147889089
      0.0492963605 0.0345074534 0.0690149069 0.0345074534 0.0295778178
      0.0295778178 0.0345074534 0.0295778178 0.0295778178 0.0542259999
      0.0492963605 0. 0.0345074534 0.0443667248 0.0542259999
      0.0246481802 0.0147889089 0. 0.00492963614 0. 0.0394370891
      0.00985927228 0.0640852675 0.0690149069 0.0197185446 0.0345074534
      0.0246481802 0.0295778178 0.0492963605 0.0640852675 0.0246481802
      0.0345074534 0.0295778178 0.00985927228 0.0345074534 0.0345074534
      0.0591556355 0.0147889089 0.0492963605 0.0542259999 0.0345074534
      0.00985927228 0.0443667248 0.128170535 0.00492963614 0.0295778178
      0.0838038176 0.0345074534 0.00985927228 0.0640852675 0.00985927228
      0.0739445463 0.00985927228 0.0443667248 0.0788741782 0.00492963614
      0.0295778178 0.0394370891 0.0197185446 0.0591556355 0.0246481802
      0.0246481802 0.00985927228 0.0887334496 0.0197185446 0.0985927209
      0.123240903 0.00985927228 0.00492963614 0.0246481802 0.0739445463
      0.0345074534 0.0147889089 0.133100182 0.0345074534 0.147889093
      0.0246481802 0.0542259999 0.0345074534 0.0443667248 0.0492963605
      0.0345074534 0.0246481802 0.0542259999 0.00985927228 0.0147889089
      0.0197185446 0.0197185446 0.202115089 0.00492963614 0.0591556355
      0.093663089 0.202115089 0.0887334496 0.0147889089 0. 0.0147889089
      0. 0.0345074534 0.0147889089 0.0345074534 0.0492963605
      0.0295778178 0.00985927228 0.0985927209 0.0443667248 0.0443667248
      0.00985927228 0.0640852675 0.0492963605 0.0542259999 0.0147889089
      0.10352236 0.0690149069 0.0197185446 0.0295778178 0.00985927228
      0.0197185446 0.0246481802 0.0197185446 0.0246481802 0.0345074534
      0.0394370891 0.0197185446 0.0147889089 0.00985927228 0.00985927228
      0.0591556355 0.00985927228 0.0147889089 0.0246481802 0.0443667248
      0.0345074534 0.0295778178 0.128170535 0. 0.00985927228 0.
      0.128170535 0. 0.0985927209 0.0197185446 0.0394370891 0.0147889089
      0.202115089 0.0788741782 0.0492963605 0.0443667248 0.0394370891
      0.0492963605 0.0690149069 0.231692895 0.00492963614 0.0147889089
      0.0147889089 0.0197185446 0.0443667248 0.0640852675 0.00985927228
      0.0246481802 0.0295778178 0.0739445463 0.0246481802 0.10352236
      0.00492963614 0.0542259999 0.0295778178 0.0492963605 0.0394370891
      0.0147889089 0.0197185446 0.093663089 0.0739445463 0.00492963614
      0. 0.0345074534 0.00492963614 0.0147889089 0.0197185446
      0.0246481802 0.0197185446 0.0147889089 0.0147889089 0.00985927228
      0.0147889089 0.00492963614 0.00985927228 0.00985927228
      0.00492963614 0.00492963614 0.0197185446 0.00492963614
      0.0640852675 0.00492963614 0. 0.0246481802 0.0591556355
      0.00985927228 0.0394370891 0.0147889089 0.0542259999 0.177466899
      0.0492963605 0.0147889089 0. 0.00492963614 0.0246481802
      0.0246481802 0.0443667248 0.108452 0.0591556355 0.0591556355
      0.123240903 0.0591556355 0.0295778178 0.0640852675 0.0246481802
      0.0147889089 0. 0.113381632 0. 0.138029814 0. 0.0295778178
      0.133100182 0.0394370891 0.0542259999 0.0542259999 0.0345074534
      0.0147889089 0.00492963614 0. 0.00492963614 0.0542259999
      0.0985927209 0.0246481802 0.00985927228 0.00985927228 0.177466899
      0.0246481802 0.0887334496 0.0147889089 0. 0.0542259999
      0.0147889089 0.0739445463 0.0197185446 0.0246481802 0.0345074534
      0.108452 0.0591556355 0.0788741782 0.0197185446 0.152818725
      0.00492963614 0.00492963614 0.0147889089 0.0443667248 0.0690149069
      0.0394370891 0.00492963614 0. 0.0345074534 0.0591556355
      0.0591556355 0.0985927209 0.0542259999 0.0345074534 0.0295778178
      0.0443667248 0.0345074534 0.0492963605 0.133100182 0. 0.0246481802
      0.0985927209 0.0690149069 0.0147889089 0.093663089 0.0394370891
      0.0345074534 0.0345074534 0.0197185446 0.00985927228 0.0591556355
      0.0295778178 0.0690149069 0.0345074534 0.0542259999 0.0788741782</_></support_vectors>
  <decision_functions>
    <_>
      <sv_count>20</sv_count>
      <rho>-0.58278797269062621</rho>
      <alpha>
        1.5543562072696774e-08 5.6032361784401042e-08
        8.6919202642069202e-08 1.8486902691910705e-08
        6.5660045577825096e-08 1.573999968984833e-07
        6.5048833454378085e-08 1.0889407586368815e-07
        5.2585621420671753e-08 2.9737024078534051e-08
        2.3578128208098137e-08 2.9892580214130737e-08
        -7.6938110451470797e-08 -3.8849150279871902e-08
        -8.8986376391448165e-08 -5.3071135896667827e-08
        -2.5219932922079469e-08 -1.1696220173953862e-07
        -2.5736855260678706e-07 -5.2382874619023218e-08</alpha>
      <index>
        10 19 18 17 16 15 14 13 12 11 9 8 0 7 6 5 4 3 2 1</index></_></decision_functions></opencv_ml_svm>
</opencv_storage>
