<?xml version="1.0"?>
<opencv_storage>
<opencv_ml_svm>
  <format>3</format>
  <svmType>C_SVC</svmType>
  <kernel>
    <type>POLY</type>
    <degree>3.</degree>
    <gamma>233.79938857649628</gamma>
    <coef0>0.</coef0></kernel>
  <C>1.</C>
  <term_criteria><epsilon>1.1920928955078125e-07</epsilon>
    <iterations>1000</iterations></term_criteria>
  <var_count>300</var_count>
  <class_count>2</class_count>
  <class_labels type_id="opencv-matrix">
    <rows>2</rows>
    <cols>1</cols>
    <dt>i</dt>
    <data>
      0 1</data></class_labels>
  <sv_total>17</sv_total>
  <support_vectors>
    <_>
      0.158597067 0.0317194127 0.0475791208 0.0294537395 0.0860955492 0.
      0.0362507589 0.00679701706 0.106486604 0.00453134486 0.0566418096
      0.0294537395 0.0407821015 0.0430477746 0.0203910507 0.0113283619
      0.0679701716 0.0317194127 0.0385164283 0.0543761365 0.0475791208
      0.00226567243 0.0521104634 0.0566418096 0.0407821015 0.0725015178
      0.058907479 0.0294537395 0.0498447903 0.117814958 0.0498447903
      0.00226567243 0.00453134486 0.0249223951 0.0339850858 0.0407821015
      0.0679701716 0.0362507589 0.0475791208 0.106486604 0.0770328566
      0.0634388253 0.0475791208 0.0113283619 0.0475791208 0.124611981
      0.0181253795 0.00226567243 0.00906268973 0.0453134477 0.106486604
      0.0475791208 0.0611731522 0.0475791208 0.0203910507 0.0566418096
      0.0883612186 0.00906268973 0.120080635 0. 0.0181253795
      0.0747671872 0.0135940341 0.0339850858 0.00679701706 0.00226567243
      0.104220927 0.0271880683 0.0430477746 0.0498447903 0. 0.0611731522
      0.00226567243 0.0407821015 0.194847822 0.0747671872 0.00679701706
      0.0453134477 0.0611731522 0.00453134486 0.0249223951 0.070235841
      0. 0.0203910507 0.0838298798 0.0271880683 0.0362507589
      0.0611731522 0.0566418096 0.0226567239 0.0430477746 0.00453134486
      0.0906268954 0.0430477746 0.0725015178 0.0566418096 0.0362507589
      0.058907479 0.0317194127 0.0611731522 0.120080635 0.0226567239
      0.0815642029 0.0385164283 0.0634388253 0.0135940341 0.0815642029
      0.0249223951 0. 0.0271880683 0.058907479 0.0339850858 0.0498447903
      0.0611731522 0.106486604 0.0543761365 0.0543761365 0.00453134486
      0.0657044947 0.0725015178 0.0294537395 0.0521104634 0.0566418096
      0.104220927 0.00679701706 0.00679701706 0.0317194127 0.0634388253
      0.0951582417 0.00453134486 0.0611731522 0.0181253795 0.151800051
      0.0498447903 0.0521104634 0.00906268973 0.0543761365 0.0611731522
      0.0611731522 0.0475791208 0.00453134486 0.0543761365 0.101955257
      0.0430477746 0.0430477746 0.0249223951 0.0385164283 0.0611731522
      0.0974239111 0.0135940341 0.0453134477 0.00226567243 0.0362507589
      0.13820602 0.0883612186 0.0362507589 0.0566418096 0.0181253795
      0.0430477746 0.058907479 0.0430477746 0.0430477746 0.0271880683
      0.0453134477 0.0158597063 0.0657044947 0.0521104634 0.0385164283
      0.00453134486 0.0430477746 0.0498447903 0.00226567243 0.070235841
      0.0271880683 0.0521104634 0.0928925648 0.0407821015 0.0294537395
      0.0226567239 0.0339850858 0.0634388253 0.0770328566 0.00906268973
      0.0385164283 0.00906268973 0.0747671872 0.0362507589 0.058907479
      0.0339850858 0.0385164283 0.0725015178 0.0430477746 0.0181253795
      0.0362507589 0.0135940341 0.0249223951 0.0339850858 0.0657044947
      0.070235841 0.0339850858 0.00453134486 0.00226567243 0.104220927
      0. 0.0860955492 0.0521104634 0.00453134486 0.113283619 0.122346304
      0.0317194127 0.0385164283 0.0543761365 0.0294537395 0.0770328566
      0.172191098 0.0339850858 0.0271880683 0.0249223951 0.0339850858
      0.058907479 0.0883612186 0.0498447903 0.0339850858 0.00453134486
      0.070235841 0.0339850858 0.0951582417 0.00906268973 0.13820602
      0.0770328566 0.0770328566 0.0883612186 0.0475791208 0.0543761365
      0.00679701706 0.0747671872 0.0203910507 0.0475791208 0.0385164283
      0.0226567239 0.0838298798 0.0294537395 0.0498447903 0.0747671872
      0.0747671872 0.0385164283 0.101955257 0.0543761365 0.0634388253
      0.0249223951 0.00226567243 0.0430477746 0.0317194127 0.0430477746
      0.0407821015 0.0407821015 0.0362507589 0.0566418096 0.00226567243
      0.0430477746 0.0407821015 0.0838298798 0.0294537395 0.00226567243
      0.058907479 0.0271880683 0.0294537395 0.00906268973 0.0498447903
      0.0294537395 0.0430477746 0.0475791208 0.0362507589 0.058907479
      0.00226567243 0.0725015178 0.0362507589 0.108752273 0.0611731522
      0.0362507589 0.00453134486 0.0747671872 0. 0.0475791208
      0.0271880683 0.0747671872 0.0792985335 0. 0.0883612186
      0.0747671872 0.0725015178 0.0657044947 0.0634388253 0.0566418096
      0.0113283619 0.00906268973 0.0611731522 0.0815642029 0.0815642029
      0.00679701706</_>
    <_>
      0.086977832 0.0403067991 0.0615209043 0.059399493 0.0509138517
      0.0190926939 0.0403067991 0.033942569 0.0933420584 0.0169712845
      0.0424282104 0.0509138517 0.0487924404 0.0721279532 0.033942569
      0.0445496216 0.0148498733 0.053035263 0.0997062922 0.0487924404
      0.0169712845 0.0275783371 0.0424282104 0.0403067991 0.0424282104
      0.0700065494 0.0551566742 0.0636423156 0.0190926939 0.110313348
      0.0487924404 0.0509138517 0.0275783371 0.0381853878 0.0403067991
      0.0678851381 0.0615209043 0.0212141052 0.0318211578 0.059399493
      0.0360639766 0.0445496216 0.0424282104 0.0127284629 0.0275783371
      0.184562713 0.0148498733 0.0148498733 0.0296997465 0.0827350095
      0.0381853878 0.0275783371 0.0700065494 0.0424282104 0.0254569259
      0.0169712845 0.0403067991 0.0318211578 0.053035263 0.0318211578
      0.0700065494 0.0487924404 0.0615209043 0.0445496216 0.033942569
      0.0190926939 0.0657637268 0.0233355146 0.0275783371 0.0318211578
      0.0212141052 0.0487924404 0.0233355146 0.0657637268 0.0360639766
      0.0700065494 0.0360639766 0.0466710292 0.0509138517 0.0296997465
      0.0572780818 0.0190926939 0.0254569259 0.0275783371 0.0827350095
      0.0424282104 0.0233355146 0.0445496216 0.0466710292 0.0169712845
      0.053035263 0.0254569259 0.0381853878 0.0318211578 0.110313348
      0.0318211578 0.0275783371 0.0657637268 0.0127284629 0.0403067991
      0.0912206545 0.0700065494 0.0275783371 0.0509138517 0.033942569
      0.0106070526 0.0424282104 0.0318211578 0.00424282113 0.0360639766
      0.0657637268 0.0487924404 0.0360639766 0.0212141052 0.135770276
      0.0487924404 0.0318211578 0.0254569259 0.146377325 0.0275783371
      0.0318211578 0.0615209043 0.0360639766 0.033942569 0.0318211578
      0.0445496216 0.059399493 0.0509138517 0.156984374 0.0106070526
      0.0424282104 0.0403067991 0.254569262 0.0381853878 0.0169712845
      0.0360639766 0.0445496216 0.0848564208 0.133648857 0.0254569259
      0.0212141052 0.0551566742 0.0636423156 0.0275783371 0.0445496216
      0.0381853878 0.0424282104 0.0190926939 0.0445496216 0.0424282104
      0.0212141052 0.0254569259 0.0381853878 0.0848564208 0.0233355146
      0.0551566742 0.0318211578 0.0254569259 0.0721279532 0.0487924404
      0.0742493644 0.0509138517 0.0509138517 0.0424282104 0.0381853878
      0.0721279532 0.0169712845 0.0445496216 0.00848564226 0.0296997465
      0.0403067991 0.0254569259 0.0466710292 0.0466710292 0.0912206545
      0.033942569 0.0424282104 0.0487924404 0.0487924404 0.0424282104
      0.0615209043 0.0424282104 0.0360639766 0.0912206545 0.0190926939
      0.0466710292 0.0700065494 0.0678851381 0.0381853878 0.0424282104
      0.0509138517 0.0212141052 0.0360639766 0.059399493 0.0190926939
      0.0169712845 0.0551566742 0.0721279532 0.053035263 0.0615209043
      0.0254569259 0.0233355146 0.0657637268 0. 0.0721279532
      0.0318211578 0.0212141052 0.0700065494 0.13789168 0.0233355146
      0.0360639766 0.053035263 0.0212141052 0.0254569259 0.248205021
      0.0572780818 0.0487924404 0.0636423156 0.0381853878 0.0233355146
      0.033942569 0.0360639766 0.053035263 0.0296997465 0.033942569
      0.0445496216 0.0721279532 0.0212141052 0.184562713 0.0148498733
      0.0742493644 0.207898229 0.0424282104 0.0997062922 0.0212141052
      0.053035263 0.0318211578 0.0381853878 0.0509138517 0.0572780818
      0.0721279532 0.053035263 0.0572780818 0.0721279532 0.0296997465
      0.0127284629 0.0678851381 0.0360639766 0.0127284629 0.0275783371
      0.0360639766 0.0318211578 0.0678851381 0.0509138517 0.0424282104
      0.0466710292 0.0657637268 0.0403067991 0.0169712845 0.0806135982
      0.0148498733 0.0763707757 0.0551566742 0.0169712845 0.0700065494
      0.0275783371 0.0318211578 0.0296997465 0.0445496216 0.0572780818
      0.0296997465 0.0509138517 0.0487924404 0.0657637268 0.0403067991
      0.0318211578 0.0551566742 0.0954634696 0.0445496216 0.0360639766
      0.0403067991 0.033942569 0. 0.0381853878 0.0700065494 0.0212141052
      0.0190926939 0.0148498733 0.118798986 0.0169712845 0.0487924404
      0.0296997465 0.0445496216 0.053035263 0. 0.0296997465 0.0615209043
      0.0254569259 0.0403067991 0.0254569259</_>
    <_>
      0.0993736684 0.0235358682 0.0261509642 0.00784528907 0.0418415442
      0.00523019303 0.0287660621 0. 0.141215205 0.0287660621
      0.0496868342 0.0339962542 0.0104603861 0.0235358682 0.0339962542
      0.0104603861 0.0627623126 0.0496868342 0.0418415442 0.0418415442
      0.0235358682 0.0104603861 0.0366113521 0.0392264463 0.0444566421
      0.0287660621 0.0627623126 0.0418415442 0.0653774142 0.190902039
      0.0732227042 0.00523019303 0.0104603861 0.0496868342 0.0261509642
      0.0287660621 0.0523019284 0.0104603861 0.0653774142 0.0470717363
      0.0496868342 0.0810679942 0.0523019284 0.0130754821 0.0470717363
      0.248434171 0.0810679942 0.00261509651 0.0130754821 0.0653774142
      0.164751083 0.0366113521 0.0601472184 0.0549170263 0.0209207721
      0.101988763 0.0496868342 0.0130754821 0.0627623126 0.00523019303
      0.0183056761 0.122909538 0.00523019303 0.0523019284 0.0392264463
      0.00261509651 0.0941434726 0.0261509642 0.0601472184 0.0549170263
      0.00784528907 0.0941434726 0.0104603861 0.0235358682 0.0732227042
      0.0156905781 0.00784528907 0.0392264463 0.0130754821 0.00261509651
      0.00523019303 0.0470717363 0.00523019303 0.0418415442 0.0784528926
      0.0261509642 0.0339962542 0.0313811563 0.0679925084 0.0444566421
      0.0339962542 0.0104603861 0.0627623126 0.0575321242 0.0941434726
      0.0313811563 0.0444566421 0.00261509651 0.0392264463 0.0392264463
      0.117679343 0.0209207721 0.0915283784 0.0627623126 0.0549170263
      0.00523019303 0.0810679942 0.0366113521 0.00261509651 0.0287660621
      0.0209207721 0.0392264463 0.0496868342 0.0653774142 0.0627623126
      0.0470717363 0.0732227042 0.00784528907 0.0732227042 0.0758377984
      0.0209207721 0.0183056761 0.0287660621 0.0549170263 0.00784528907
      0.00261509651 0.0156905781 0.0339962542 0.101988763 0.0209207721
      0.0575321242 0.0104603861 0.154290691 0.0313811563 0.0418415442
      0.0130754821 0.0313811563 0.0601472184 0.0915283784 0.0679925084
      0.00261509651 0.0418415442 0.0706076026 0.0732227042 0.0549170263
      0.0235358682 0.0444566421 0.0235358682 0.0706076026 0.0156905781
      0.0523019284 0.00261509651 0.0784528926 0.0156905781 0.0601472184
      0.0235358682 0.0941434726 0.0209207721 0.0732227042 0.0706076026
      0.0183056761 0.0627623126 0.0627623126 0.0313811563 0.0313811563
      0.0392264463 0.0496868342 0.0523019284 0.0104603861 0.0339962542
      0.0287660621 0.00523019303 0.0889132842 0.0366113521 0.0392264463
      0.0758377984 0.0470717363 0.0366113521 0.0444566421 0.0209207721
      0.0915283784 0.0418415442 0.0313811563 0.0418415442 0.00261509651
      0.0706076026 0.0130754821 0.0784528926 0.0339962542 0.0706076026
      0.109834053 0.0313811563 0.0261509642 0.0313811563 0.0183056761
      0.0784528926 0.0470717363 0.0653774142 0.0339962542 0.0235358682
      0.00261509651 0.00261509651 0.0810679942 0. 0.0444566421
      0.0418415442 0.00261509651 0.0601472184 0.0941434726 0.0392264463
      0.0496868342 0.0575321242 0.0313811563 0.120294437 0.203977525
      0.0444566421 0.0496868342 0.0209207721 0.0601472184 0.0523019284
      0.109834053 0.0967585742 0.0339962542 0.0130754821 0.0601472184
      0.0313811563 0.0967585742 0.0104603861 0.175211459 0.0653774142
      0.0993736684 0.0915283784 0.0392264463 0.0392264463 0.00523019303
      0.101988763 0.0235358682 0.0261509642 0.0549170263 0.0261509642
      0.117679343 0.0183056761 0.0183056761 0.0156905781 0.0967585742
      0.0627623126 0.0732227042 0.0523019284 0.0679925084 0.0287660621
      0.0156905781 0.0235358682 0.0183056761 0.0130754821 0.0287660621
      0.0156905781 0.00784528907 0.0810679942 0.0104603861 0.0130754821
      0.0313811563 0.115064248 0.00784528907 0.0156905781 0.0104603861
      0.0313811563 0.0444566421 0.00784528907 0.0862981826 0.0366113521
      0.0418415442 0.0392264463 0.0523019284 0.0496868342 0.
      0.0784528926 0.0339962542 0.0261509642 0.0653774142 0.0496868342
      0.00261509651 0.0653774142 0. 0.0313811563 0.0261509642
      0.0758377984 0.0706076026 0.00261509651 0.0732227042 0.0470717363
      0.0209207721 0.0470717363 0.0810679942 0.0496868342 0.0156905781
      0.00784528907 0.0444566421 0.0653774142 0.0287660621 0.</_>
    <_>
      0.113815919 0.036913272 0.036913272 0.0399893783 0.0645982251
      0.009228318 0.0522937998 0.00615221215 0.0861309692 0.0215327423
      0.0615221187 0.018456636 0.009228318 0.0522937998 0.0123044243
      0.009228318 0.0645982251 0.0492176972 0.0153805297 0.0584460124
      0.0830548629 0.018456636 0.0492176972 0.0338371657 0.0461415909
      0.0553699061 0.0830548629 0.009228318 0.0861309692 0.126120344
      0.0584460124 0.00615221215 0.0399893783 0.0276849531 0.0276849531
      0.0492176972 0.0553699061 0.0522937998 0.0522937998 0.0922831818
      0.0461415909 0.0615221187 0.0123044243 0.0246088486 0.0984353945
      0.107663706 0.0215327423 0.00615221215 0.0215327423 0.036913272
      0.0830548629 0.0307610594 0.0892070755 0.0645982251 0.0246088486
      0.0553699061 0.1045876 0.00615221215 0.1045876 0.00307610608
      0.0492176972 0.0830548629 0.0153805297 0.0461415909 0.0276849531
      0. 0.0922831818 0.0276849531 0.073826544 0.0338371657 0.
      0.0553699061 0.00307610608 0.0215327423 0.0707504377 0.0276849531
      0.009228318 0.0645982251 0.0492176972 0. 0.0123044243 0.0769026503
      0.009228318 0.0399893783 0.0492176972 0.0246088486 0.0615221187
      0.0676743314 0.0215327423 0.0645982251 0.0492176972 0.00615221215
      0.0645982251 0.0676743314 0.101511493 0.036913272 0.0553699061
      0.00307610608 0.018456636 0.0769026503 0.12919645 0.0430654846
      0.0307610594 0.0707504377 0.0676743314 0.0153805297 0.0861309692
      0.0645982251 0.009228318 0.0492176972 0.0307610594 0.0399893783
      0.073826544 0.073826544 0.0830548629 0.0430654846 0.0584460124
      0.018456636 0.0892070755 0.0830548629 0.0430654846 0.0399893783
      0.0615221187 0.0769026503 0.0461415909 0.009228318 0.018456636
      0.0584460124 0.0584460124 0.00307610608 0.0123044243 0.018456636
      0.0799787566 0.0645982251 0.0645982251 0.0215327423 0.0399893783
      0.0522937998 0.0584460124 0.0338371657 0.00615221215 0.0522937998
      0.110739812 0.0953592882 0.0676743314 0.0246088486 0.0430654846
      0.0553699061 0.0830548629 0.018456636 0.0707504377 0.0123044243
      0.0645982251 0.0799787566 0.0984353945 0.0492176972 0.0430654846
      0.018456636 0.036913272 0.036913272 0.0430654846 0.0276849531
      0.0215327423 0.0338371657 0.0338371657 0.0461415909 0.0215327423
      0.0584460124 0.0276849531 0.0584460124 0.0645982251 0.009228318
      0.0615221187 0.0399893783 0.0615221187 0.0553699061 0.0522937998
      0.0430654846 0.0338371657 0.0338371657 0.036913272 0.0953592882
      0.0215327423 0.0461415909 0.0153805297 0.0707504377 0.0399893783
      0.0338371657 0.0707504377 0.0615221187 0.101511493 0.0645982251
      0.018456636 0.0461415909 0.0123044243 0.0215327423 0.0522937998
      0.0707504377 0.0676743314 0.036913272 0.00307610608 0.00615221215
      0.0645982251 0. 0.0707504377 0.0461415909 0.0123044243
      0.0492176972 0.0522937998 0.0522937998 0.0492176972 0.107663706
      0.0799787566 0.073826544 0.135348663 0.0399893783 0.0430654846
      0.0276849531 0.036913272 0.0522937998 0.0861309692 0.0676743314
      0.0676743314 0.0153805297 0.0615221187 0.036913272 0.0645982251
      0.0123044243 0.132272556 0.0953592882 0.0922831818 0.138424769
      0.0399893783 0.036913272 0.018456636 0.0984353945 0.0307610594
      0.0769026503 0.0676743314 0.036913272 0.0461415909 0.0492176972
      0.0492176972 0.0430654846 0.073826544 0.0953592882 0.110739812
      0.0492176972 0.0892070755 0.0430654846 0.00307610608 0.0399893783
      0.0276849531 0.0615221187 0.0338371657 0.00615221215 0.0246088486
      0.113815919 0.018456636 0.0615221187 0.073826544 0.138424769
      0.0123044243 0.018456636 0.0246088486 0.0584460124 0.0707504377
      0.018456636 0.0492176972 0.0430654846 0.0584460124 0.0615221187
      0.107663706 0.0584460124 0.0123044243 0.0553699061 0.009228318
      0.0522937998 0.0984353945 0.0461415909 0.00307610608 0.110739812
      0. 0.0584460124 0.0246088486 0.0861309692 0.0676743314
      0.00307610608 0.107663706 0.0522937998 0.0615221187 0.0769026503
      0.0645982251 0.0276849531 0.0246088486 0.018456636 0.0399893783
      0.0615221187 0.0492176972 0.0153805297</_>
    <_>
      0.026560314 0.026560314 0.039840471 0. 0.0929611027 0. 0.013280157
      0.013280157 0.159361884 0. 0.026560314 0.039840471 0. 0.026560314
      0.0664007887 0.026560314 0.385124564 0.039840471 0. 0.053120628
      0.013280157 0.013280157 0.026560314 0.0929611027 0.013280157
      0.132801577 0.0929611027 0.0664007887 0.026560314 0.053120628
      0.039840471 0.013280157 0. 0.013280157 0. 0.013280157 0.013280157
      0.039840471 0. 0.079680942 0.026560314 0.0664007887 0. 0.026560314
      0.013280157 0.053120628 0.013280157 0. 0.013280157 0.039840471
      0.039840471 0.039840471 0.106241256 0.039840471 0.013280157
      0.053120628 0.053120628 0. 0.119521417 0. 0.013280157 0.013280157
      0.039840471 0. 0.026560314 0. 0.026560314 0.013280157 0.053120628
      0. 0. 0.013280157 0. 0.119521417 0.0664007887 0.053120628
      0.013280157 0. 0.013280157 0. 0. 0.053120628 0. 0. 0.079680942
      0.013280157 0.053120628 0.185922205 0.053120628 0. 0.039840471
      0.026560314 0.119521417 0.013280157 0.039840471 0.026560314
      0.053120628 0.026560314 0. 0.119521417 0.039840471 0.0664007887
      0.039840471 0.0664007887 0.026560314 0.026560314 0.039840471
      0.053120628 0. 0.013280157 0.026560314 0. 0.013280157 0.
      0.0664007887 0.039840471 0.013280157 0.013280157 0.026560314
      0.053120628 0. 0.053120628 0.039840471 0.106241256 0. 0.026560314
      0.013280157 0.013280157 0.079680942 0.026560314 0.0664007887
      0.013280157 0.199202359 0.053120628 0.039840471 0.026560314
      0.026560314 0.013280157 0.013280157 0.079680942 0.026560314
      0.0929611027 0. 0.039840471 0.026560314 0.053120628 0.0664007887
      0.053120628 0.039840471 0.053120628 0.013280157 0. 0.079680942
      0.0664007887 0.106241256 0.053120628 0. 0.026560314 0.013280157
      0.159361884 0.039840471 0.039840471 0.053120628 0.013280157
      0.079680942 0.053120628 0.0664007887 0.026560314 0. 0.079680942
      0.013280157 0. 0.053120628 0.0664007887 0. 0.0664007887 0.
      0.039840471 0. 0.026560314 0.013280157 0.079680942 0.039840471
      0.013280157 0.013280157 0.026560314 0.053120628 0.039840471
      0.053120628 0.026560314 0.106241256 0.039840471 0.026560314
      0.053120628 0.026560314 0.013280157 0.0664007887 0.039840471
      0.053120628 0.039840471 0.013280157 0. 0.106241256 0. 0.0929611027
      0.0664007887 0. 0.0929611027 0.106241256 0.106241256 0.026560314
      0. 0.013280157 0.0929611027 0.119521417 0.0664007887 0.026560314
      0.0929611027 0.039840471 0.026560314 0.026560314 0.039840471
      0.053120628 0.013280157 0. 0.026560314 0.0664007887 0.026560314
      0.026560314 0.039840471 0.053120628 0.119521417 0.039840471
      0.119521417 0.026560314 0.119521417 0.079680942 0.026560314
      0.053120628 0.106241256 0. 0.026560314 0.026560314 0.053120628
      0.039840471 0. 0.013280157 0.013280157 0. 0. 0. 0.053120628
      0.039840471 0.053120628 0.053120628 0.026560314 0.026560314
      0.0664007887 0. 0.026560314 0.026560314 0.0664007887 0.039840471
      0. 0.0929611027 0.0929611027 0.026560314 0. 0.026560314
      0.146081731 0.0664007887 0.013280157 0.039840471 0.119521417 0.
      0.026560314 0.026560314 0.0929611027 0.0664007887 0.026560314 0.
      0.026560314 0. 0.0664007887 0.026560314 0.039840471 0. 0.026560314
      0.039840471 0.026560314 0.039840471 0.106241256 0. 0.053120628
      0.026560314 0.013280157 0.053120628 0.013280157 0. 0.</_>
    <_>
      0.0468789414 0.0277011935 0.0660566911 0.0831035823 0.104412191
      0.0340937749 0.0681875497 0.0191777498 0.0340937749 0.0213086102
      0.0532715246 0.0788418576 0.0468789414 0.0873652995 0.0532715246
      0.0490098037 0.157683715 0.074580133 0.014916027 0.0788418576
      0.014916027 0.0319629163 0.0724492744 0.0554023869 0.0468789414
      0.0937578827 0.051140666 0.0980196074 0.0277011935 0.0447480828
      0.0554023869 0.0532715246 0.0213086102 0.0532715246 0.0681875497
      0.0788418576 0.0426172204 0.025570333 0.0426172204 0.0532715246
      0.0191777498 0.0554023869 0.0490098037 0.025570333 0.0277011935
      0.0191777498 0.00639258325 0.0191777498 0.0277011935 0.0873652995
      0.025570333 0.0724492744 0.0596641079 0.025570333 0.0319629163
      0.0106543051 0.0575332493 0.0404863581 0.0490098037 0.0362246372
      0.0916270241 0.0362246372 0.0468789414 0.0234394707 0.0490098037
      0.0127851665 0.0639258325 0.0404863581 0.0319629163 0.0809727162
      0.051140666 0.0340937749 0.0191777498 0.12358994 0.0468789414
      0.127851665 0.0426172204 0.0298320539 0.0724492744 0.025570333
      0.0532715246 0.0554023869 0.0362246372 0.0447480828 0.0681875497
      0.0490098037 0.0319629163 0.0980196074 0.0298320539 0.0106543051
      0.0340937749 0.0404863581 0.0404863581 0.0170468874 0.0660566911
      0.0404863581 0.051140666 0.106543049 0.00852344371 0.0447480828
      0.0426172204 0.0852344409 0.0298320539 0.0532715246 0.0340937749
      0.0170468874 0.0532715246 0.0319629163 0.025570333 0.0554023869
      0.0681875497 0.0639258325 0.0340937749 0.0319629163 0.074580133
      0.0681875497 0.0298320539 0.0298320539 0.0831035823 0.0340937749
      0.0404863581 0.108673915 0.0554023869 0.0660566911 0.0468789414
      0.0319629163 0.0703184158 0.0404863581 0.129982516 0.0319629163
      0.0894961655 0.0447480828 0.0980196074 0.0319629163 0.0191777498
      0.0468789414 0.074580133 0.0426172204 0.0639258325 0.0213086102
      0.0234394707 0.106543049 0.0426172204 0.0234394707 0.0660566911
      0.0319629163 0.0831035823 0.0831035823 0.0170468874 0.0639258325
      0.0383554995 0.0319629163 0.025570333 0.0937578827 0.0383554995
      0.100150466 0.0404863581 0.0575332493 0.0681875497 0.0340937749
      0.074580133 0.0340937749 0.0383554995 0.0277011935 0.0660566911
      0.100150466 0.0404863581 0.0596641079 0.0277011935 0.0319629163
      0.0426172204 0.0170468874 0.0447480828 0.0809727162 0.0468789414
      0.0681875497 0.0809727162 0.0426172204 0.0617949702 0.0554023869
      0.0340937749 0.0447480828 0.025570333 0.0724492744 0.0170468874
      0.0532715246 0.0809727162 0.0340937749 0.076710999 0.0596641079
      0.051140666 0.0468789414 0.0831035823 0.100150466 0.0490098037
      0.0106543051 0.0490098037 0.0596641079 0.0681875497 0.0554023869
      0.0298320539 0.0213086102 0.0426172204 0.00213086093 0.0681875497
      0.0319629163 0.0277011935 0.0980196074 0.0809727162 0.014916027
      0.0340937749 0.0277011935 0.0319629163 0.0703184158 0.117197357
      0.0852344409 0.025570333 0.112935632 0.0447480828 0.0468789414
      0.0490098037 0.0277011935 0.0447480828 0.00852344371 0.0362246372
      0.0894961655 0.0809727162 0.0383554995 0.129982516 0.0106543051
      0.0426172204 0.0617949702 0.0340937749 0.127851665 0.0575332493
      0.051140666 0.0575332493 0.100150466 0.0468789414 0.0660566911
      0.0319629163 0.0468789414 0.0894961655 0.0575332493 0.0490098037
      0.0170468874 0.0681875497 0.0468789414 0.0191777498 0.0383554995
      0.0234394707 0.0447480828 0.12358994 0.0617949702 0.0788418576
      0.0639258325 0.0703184158 0.0170468874 0.0170468874 0.074580133
      0.0383554995 0.0362246372 0.0490098037 0.0277011935 0.0575332493
      0.0532715246 0.025570333 0.0234394707 0.0468789414 0.074580133
      0.0277011935 0.100150466 0.0490098037 0.0639258325 0.0490098037
      0.0298320539 0.0340937749 0.117197357 0.0277011935 0.0362246372
      0.0340937749 0.0234394707 0. 0.0447480828 0.0681875497
      0.0298320539 0.025570333 0.0234394707 0.0852344409 0.0277011935
      0.0809727162 0.0319629163 0.0298320539 0.0809727162 0.0106543051
      0.0234394707 0.0916270241 0.051140666 0.0639258325 0.0213086102</_>
    <_>
      0.0240104627 0.0240104627 0.0800348818 0.0640279055 0.0480209254
      0.0320139527 0.0480209254 0.00800348818 0.144062787 0.00800348818
      0.0240104627 0.0480209254 0.0400174409 0.0160069764 0.0560244136
      0.0560244136 0.136059299 0.0720313936 0.0640279055 0.0720313936
      0.00800348818 0.0160069764 0.0560244136 0.0320139527 0.0400174409
      0.0320139527 0.0400174409 0.0400174409 0.00800348818 0.0640279055
      0.0960418507 0.0400174409 0.0400174409 0.0320139527 0.0320139527
      0.0400174409 0.0320139527 0.0240104627 0.0400174409 0.0560244136
      0.00800348818 0.0240104627 0.0160069764 0.0320139527 0.00800348818
      0.192083701 0.00800348818 0. 0. 0.0400174409 0.0400174409
      0.0240104627 0.0800348818 0.0480209254 0.00800348818 0.0160069764
      0.0320139527 0.0320139527 0.0720313936 0.0160069764 0.0320139527
      0.0160069764 0.0320139527 0.0400174409 0.0640279055 0.0160069764
      0.0160069764 0.00800348818 0. 0.0480209254 0.0400174409
      0.0160069764 0.0400174409 0.0560244136 0.0400174409 0.0880383626
      0.0480209254 0.0320139527 0.0480209254 0.00800348818 0.0400174409
      0.0240104627 0.0480209254 0.0400174409 0.0960418507 0.0320139527
      0.0320139527 0.0240104627 0.0480209254 0. 0.0160069764
      0.0320139527 0.00800348818 0.0240104627 0.0640279055 0.0480209254
      0.0160069764 0.0640279055 0.0160069764 0.0320139527 0.0320139527
      0.0640279055 0.00800348818 0.0400174409 0.0320139527 0.00800348818
      0.0240104627 0.0480209254 0.00800348818 0.0240104627 0.0960418507
      0.0640279055 0.00800348818 0.0240104627 0.120052315 0.0400174409
      0.0160069764 0.0160069764 0.128055811 0.0240104627 0.00800348818
      0.0240104627 0.0240104627 0.0560244136 0.0240104627 0.00800348818
      0.0320139527 0.0240104627 0.416181356 0.0480209254 0.104045339
      0.0560244136 0.248108119 0.0160069764 0.00800348818 0.0240104627
      0.0480209254 0.0240104627 0.112048827 0.0160069764 0.0320139527
      0.0640279055 0.0320139527 0.0240104627 0.0560244136 0.0160069764
      0.0800348818 0.0560244136 0.0240104627 0.0560244136 0.00800348818
      0.0240104627 0.0240104627 0.0640279055 0.0240104627 0.0960418507
      0.0480209254 0.0560244136 0.0480209254 0.0400174409 0.00800348818
      0.00800348818 0.0160069764 0. 0.0160069764 0.0640279055
      0.0240104627 0.0320139527 0.0160069764 0.0320139527 0.0480209254
      0.00800348818 0.0640279055 0.0320139527 0.0320139527 0.
      0.0240104627 0.0160069764 0.0560244136 0.0640279055 0.0320139527
      0.0400174409 0.0240104627 0.0800348818 0.0320139527 0.0560244136
      0.0800348818 0.0480209254 0.0400174409 0.0480209254 0.0400174409
      0.0400174409 0.0240104627 0.0400174409 0.0480209254 0. 0.
      0.0560244136 0.0480209254 0.0320139527 0.00800348818 0.0480209254
      0.0240104627 0. 0.0400174409 0.0160069764 0.0240104627 0.112048827
      0.104045339 0.0240104627 0. 0.0160069764 0.0240104627 0.0400174409
      0.184080213 0.0400174409 0.00800348818 0.0720313936 0.0240104627
      0.0320139527 0.00800348818 0.0320139527 0.0320139527 0.00800348818
      0. 0.0800348818 0.104045339 0.0160069764 0.232101142 0.0160069764
      0.0640279055 0.160069764 0.0240104627 0.0480209254 0.0320139527
      0.0560244136 0.0400174409 0.0400174409 0.0160069764 0.0640279055
      0.0400174409 0.0160069764 0.0480209254 0.0400174409 0.00800348818
      0.0160069764 0.0480209254 0.0160069764 0.0160069764 0.0160069764
      0.00800348818 0.0640279055 0.0560244136 0.0640279055 0.0480209254
      0.0480209254 0.0320139527 0.0240104627 0. 0.0560244136 0.
      0.0480209254 0.0720313936 0. 0.0480209254 0.00800348818
      0.0240104627 0.0160069764 0.0320139527 0.0880383626 0.0160069764
      0.0640279055 0.0400174409 0.0720313936 0.0400174409 0.0160069764
      0.0400174409 0.0880383626 0.0320139527 0.0240104627 0.0160069764
      0.0240104627 0. 0.0240104627 0.0560244136 0.0240104627
      0.0240104627 0.0160069764 0.0880383626 0.0240104627 0.0560244136
      0.00800348818 0.0240104627 0.0480209254 0. 0.00800348818
      0.144062787 0.0240104627 0.0400174409 0.0160069764</_>
    <_>
      0.0893821046 0.0341063291 0.0164651256 0.0223455261 0.049395375
      0.0141129643 0.0199933667 0.00352824107 0.0470432155 0.0117608039
      0.0352824107 0.0152890449 0.0364584923 0.0235216077 0.0423388928
      0.0188172851 0.0399867333 0.0235216077 0.0282259285 0.0341063291
      0.0152890449 0.0105847232 0.0235216077 0.0305780899 0.0188172851
      0.0329302512 0.0211694464 0.0376345702 0.0117608039 0.0870299488
      0.168179497 0.0188172851 0.0505714566 0.0552757755 0.0129368836
      0.0141129643 0.0235216077 0.0082325628 0.0635083392 0.0294020083
      0.0352824107 0.0364584923 0.0411628112 0.0235216077 0.0246976875
      0.0693887398 0.0129368836 0.271674573 0.00588040194 0.0740930662
      0.0246976875 0.0388106517 0.0752691403 0.0270498488 0.0117608039
      0.0129368836 0.0329302512 0.0435149744 0.0329302512 0.0211694464
      0.0517475344 0.0258737672 0.049395375 0.0211694464 0.0129368836
      0.00940864254 0.0364584923 0.00940864254 0.0258737672 0.0329302512
      0.0223455261 0.0223455261 0.0105847232 0.0458671339 0.0246976875
      0.0282259285 0.0352824107 0.0270498488 0.0235216077 0.0505714566
      0.0117608039 0.0223455261 0.0129368836 0.0164651256 0.152890444
      0.0282259285 0.0270498488 0.0517475344 0.0329302512 0.00235216063
      0.0211694464 0.0199933667 0.0294020083 0.0164651256 0.0776213035
      0.0235216077 0.0258737672 0.0199933667 0.0082325628 0.0305780899
      0.0294020083 0.0270498488 0.0329302512 0.15171437 0.0082325628
      0.00470432127 0.0188172851 0.00940864254 0.00940864254
      0.0364584923 0.0188172851 0.0305780899 0.0188172851 0.0223455261
      0.0787973851 0.0423388928 0.0129368836 0.0258737672 0.0976146683
      0.0117608039 0.0152890449 0.0258737672 0.0199933667 0.0223455261
      0.0623322576 0.0317541696 0.0129368836 0.0117608039 0.195229337
      0.0129368836 0.049395375 0.0211694464 0.158770844 0.0164651256
      0.0105847232 0.0364584923 0.0258737672 0.0352824107 0.0540996976
      0.0129368836 0.0294020083 0.0482192934 0.0705648214 0.0164651256
      0.117608033 0.0282259285 0.0164651256 0.0329302512 0.0305780899
      0.0576279387 0.0188172851 0.00940864254 0.0223455261 0.0246976875
      0.0141129643 0.0188172851 0.0223455261 0.0211694464 0.110551551
      0.0282259285 0.0423388928 0.0294020083 0.0141129643 0.0082325628
      0.049395375 0.0258737672 0.0188172851 0.0152890449 0.0164651256
      0.0235216077 0.0588040166 0.0423388928 0.0435149744 0.00588040194
      0.0552757755 0.0105847232 0.0599800982 0.0223455261 0.00940864254
      0.0235216077 0.0329302512 0.0176412053 0.0082325628 0.0282259285
      0.0129368836 0.052923616 0.0282259285 0.0364584923 0.0317541696
      0.0599800982 0.0858538672 0.0164651256 0.0164651256 0.0446910523
      0.0388106517 0.0105847232 0.0458671339 0.0482192934 0.0341063291
      0.0246976875 0.0164651256 0.0294020083 0.0282259285 0.236392155
      0.0470432155 0.0199933667 0.00940864254 0.0646844208 0.139953569
      0.00940864254 0.0317541696 0.0341063291 0.00940864254 0.0411628112
      0.161123008 0.0176412053 0.0294020083 0.0270498488 0.0458671339
      0.0341063291 0.0258737672 0.0105847232 0.0305780899 0.0082325628
      0.00940864254 0.0305780899 0.0929103494 0.0987907499 0.179940298
      0.0211694464 0.112903714 0.364584923 0.00470432127 0.0552757755
      0.0105847232 0.0294020083 0.0682126582 0.0787973851 0.0435149744
      0.052923616 0.0458671339 0.0199933667 0.0188172851 0.0188172851
      0.0235216077 0.00705648214 0.0811495483 0.0246976875 0.0282259285
      0.0235216077 0.0129368836 0.0129368836 0.0411628112 0.0305780899
      0.0246976875 0.0282259285 0.0329302512 0.0188172851 0.0211694464
      0.0246976875 0.0235216077 0.0729169846 0.0188172851 0.0188172851
      0.0223455261 0.0105847232 0.0152890449 0.0893821046 0.0470432155
      0.0446910523 0.00940864254 0.0458671339 0.0270498488 0.0505714566
      0.0270498488 0.0270498488 0.0129368836 0.0329302512 0.0211694464
      0.0352824107 0.0282259285 0.0082325628 0.325774252 0.0117608039
      0.0117608039 0.0352824107 0.0211694464 0.0129368836 0.15171437
      0.0199933667 0.0305780899 0.0364584923 0.0188172851 0.0376345702
      0. 0.00705648214 0.0858538672 0.0235216077 0.00940864254
      0.0411628112</_>
    <_>
      0.0894915313 0.116338991 0.00894915313 0.0268474594 0.0536949188
      0.0178983063 0.0894915313 0.0626440719 0. 0.0447457656
      0.0626440719 0.134237304 0.071593225 0.0536949188 0.0268474594
      0.0178983063 0.071593225 0.0357966125 0.0178983063 0.0178983063
      0.0357966125 0.0268474594 0.0536949188 0.0447457656 0.0984406844
      0.0984406844 0.0447457656 0.0805423781 0.0805423781 0.0178983063
      0.071593225 0.0357966125 0.0178983063 0.0805423781 0.0536949188
      0.0357966125 0.071593225 0.0447457656 0.0536949188 0.0357966125
      0.0626440719 0.125288144 0.0805423781 0.00894915313 0.0268474594
      0.0357966125 0.0357966125 0.0178983063 0.0536949188 0.071593225
      0.0536949188 0.0984406844 0.071593225 0.0626440719 0.0626440719
      0.0536949188 0.0268474594 0.00894915313 0.0447457656 0.
      0.0805423781 0.0268474594 0.0536949188 0.0626440719 0.0536949188
      0.00894915313 0.071593225 0.0536949188 0.0805423781 0.0805423781
      0.0357966125 0.071593225 0.0178983063 0.0447457656 0.0268474594
      0.0268474594 0.0357966125 0.0357966125 0.0178983063 0.0268474594
      0.0357966125 0.071593225 0.0268474594 0.0536949188 0.0984406844
      0.0536949188 0.0805423781 0.071593225 0. 0.0357966125 0.0447457656
      0. 0.0447457656 0.0357966125 0. 0.0536949188 0.0447457656
      0.0178983063 0.0178983063 0.0357966125 0.0178983063 0.0447457656
      0.0984406844 0.0894915313 0.071593225 0.00894915313 0.071593225
      0.0536949188 0. 0.0357966125 0.0268474594 0.0536949188
      0.0805423781 0.0626440719 0.071593225 0.0626440719 0.00894915313
      0.0178983063 0.0268474594 0.0357966125 0.0536949188 0.0268474594
      0.0357966125 0.0536949188 0.00894915313 0.0536949188 0.0357966125
      0.0894915313 0.071593225 0.0268474594 0.0894915313 0.0178983063
      0.0178983063 0.0447457656 0.0447457656 0.0178983063 0.0447457656
      0.170033917 0.107389838 0.0536949188 0.0268474594 0.0894915313
      0.0984406844 0. 0.0536949188 0.0894915313 0.0447457656
      0.0447457656 0.0447457656 0.0536949188 0.0357966125 0.0268474594
      0.0268474594 0.00894915313 0.071593225 0.0805423781 0.0894915313
      0.0268474594 0.071593225 0.0357966125 0.0357966125 0.071593225
      0.0447457656 0.0357966125 0.0178983063 0.0268474594 0.0447457656
      0.0447457656 0.0268474594 0.0894915313 0.0536949188 0.0626440719
      0.0447457656 0.0178983063 0.0357966125 0.0536949188 0.0268474594
      0.0894915313 0.0447457656 0.0178983063 0.071593225 0.0357966125
      0.0357966125 0.0536949188 0.0536949188 0.0536949188 0.0536949188
      0.0268474594 0.0447457656 0.14318645 0.0805423781 0.0178983063
      0.0805423781 0.0536949188 0.0268474594 0.0536949188 0.0268474594
      0.0894915313 0.0178983063 0.0984406844 0.0268474594 0.00894915313
      0.00894915313 0. 0.0536949188 0.0984406844 0.0178983063
      0.0447457656 0. 0.0268474594 0.0536949188 0.0626440719
      0.0447457656 0.134237304 0.0178983063 0.0536949188 0.071593225
      0.0447457656 0.0626440719 0.125288144 0.0894915313 0.125288144
      0.0268474594 0.00894915313 0.0357966125 0.125288144 0.134237304
      0.0178983063 0.071593225 0.0536949188 0.0626440719 0.00894915313
      0.0268474594 0.0357966125 0.0357966125 0.071593225 0.0626440719
      0.0178983063 0.116338991 0.0536949188 0.071593225 0.0268474594
      0.00894915313 0.071593225 0.0984406844 0.0357966125 0.0536949188
      0.107389838 0.00894915313 0.0626440719 0.00894915313 0.0268474594
      0.0268474594 0. 0.00894915313 0.071593225 0.0447457656
      0.0894915313 0.0268474594 0.0536949188 0.0447457656 0.0357966125
      0.0447457656 0.0357966125 0.0626440719 0.0357966125 0.0268474594
      0.0178983063 0.071593225 0.0536949188 0.0357966125 0.0805423781
      0.0178983063 0.0357966125 0.00894915313 0.0268474594 0.0447457656
      0.071593225 0.071593225 0.0536949188 0.00894915313 0.0626440719 0.
      0.0536949188 0.0626440719 0.0626440719 0.0805423781 0.0357966125
      0. 0.0626440719 0.0626440719 0.0984406844 0.0357966125
      0.0268474594 0. 0.0357966125 0.0984406844 0.0894915313
      0.0268474594 0.0178983063</_>
    <_>
      0.00875960384 0.0569374263 0.0569374263 0.043798022 0.0350384153
      0.043798022 0.0175192077 0.0262788124 0.0394182205 0.0350384153
      0.0569374263 0.0175192077 0.0350384153 0.0613172315 0.0394182205
      0.0175192077 0.0175192077 0.0656970292 0.0569374263 0.0481778234
      0.021899011 0.0262788124 0.0394182205 0.0700768307 0.0350384153
      0.043798022 0.166432485 0.0963556468 0.043798022 0.0350384153
      0.0875960439 0.0350384153 0.0175192077 0.0350384153 0.0525576249
      0.0350384153 0.0656970292 0.0262788124 0.0875960439 0.021899011
      0.00875960384 0.0919758454 0.0262788124 0.00437980192
      0.00875960384 0.0569374263 0.043798022 0.0131394062 0.0262788124
      0.153293073 0.148913279 0.0131394062 0.0394182205 0.14453347
      0.0525576249 0.10511525 0.0131394062 0.0350384153 0.00437980192
      0.00875960384 0.0875960439 0.109495051 0.0569374263 0.0569374263
      0.0350384153 0.0131394062 0.00875960384 0.0350384153 0.0306586158
      0.0744566396 0.0481778234 0.0875960439 0.021899011 0.0744566396
      0.0262788124 0.0613172315 0.0175192077 0.0525576249 0.021899011
      0.021899011 0.0175192077 0.00875960384 0.0306586158 0.153293073
      0.078836441 0.0744566396 0.00875960384 0.00875960384 0.0613172315
      0.021899011 0.0131394062 0.021899011 0.0350384153 0.0525576249
      0.0131394062 0.0306586158 0.0744566396 0.043798022 0.0175192077
      0.0306586158 0.0262788124 0.0394182205 0.0350384153 0.0744566396
      0.0525576249 0.0175192077 0.140153661 0.043798022 0.0131394062
      0.043798022 0.0306586158 0.021899011 0.0175192077 0.0394182205
      0.0175192077 0.0744566396 0.078836441 0.0262788124 0.0262788124
      0.0744566396 0.021899011 0.00875960384 0.0262788124 0.043798022
      0.0131394062 0.0131394062 0.0306586158 0.0131394062 0.0744566396
      0.021899011 0. 0.0175192077 0.0613172315 0.0131394062 0.021899011
      0.0175192077 0.0350384153 0.0569374263 0.0613172315 0.0919758454
      0.0175192077 0.0700768307 0. 0.0394182205 0.0832162425
      0.00875960384 0.0525576249 0.0131394062 0.0525576249 0.0525576249
      0.0394182205 0.0262788124 0.0569374263 0.043798022 0.0306586158
      0.0481778234 0.0569374263 0.0481778234 0.0744566396 0.0394182205
      0.043798022 0.0262788124 0.140153661 0.0306586158 0.0700768307
      0.0131394062 0.021899011 0.0175192077 0.0131394062 0.021899011
      0.109495051 0.0306586158 0.0832162425 0.0613172315 0.078836441
      0.0832162425 0.0175192077 0.0525576249 0.0525576249 0.0350384153
      0.258408338 0.0131394062 0.0569374263 0.043798022 0.0306586158
      0.0175192077 0.0262788124 0.0350384153 0.0613172315 0.0481778234
      0.0569374263 0.0832162425 0.0262788124 0.118254662 0.021899011
      0.0481778234 0.0394182205 0.0525576249 0.118254662 0.00875960384
      0.0350384153 0.0131394062 0.0262788124 0.00437980192 0.0131394062
      0.0131394062 0.0394182205 0.0569374263 0.0656970292 0.0394182205
      0. 0.0832162425 0.00875960384 0.021899011 0.0350384153
      0.0875960439 0.0306586158 0.0306586158 0.0656970292 0.0175192077
      0.00875960384 0.113874853 0.0262788124 0.0306586158 0.078836441
      0.0525576249 0.0832162425 0.00875960384 0.140153661 0.0350384153
      0.109495051 0.0175192077 0.00875960384 0.0875960439 0.0306586158
      0.162052676 0.0613172315 0.0394182205 0.0306586158 0.0569374263
      0.245268926 0.0394182205 0.0306586158 0.0175192077 0.0306586158
      0.0306586158 0.0262788124 0.00437980192 0.0175192077 0.0832162425
      0.0350384153 0.0306586158 0.0656970292 0.0306586158 0.021899011
      0.0394182205 0.0350384153 0.0131394062 0.0350384153 0.043798022
      0.0306586158 0.0350384153 0.0306586158 0.043798022 0.0350384153
      0.0481778234 0.0394182205 0.0350384153 0.0175192077 0.00437980192
      0.021899011 0.0175192077 0.0131394062 0.0919758454 0.0306586158
      0.157672882 0.0306586158 0.043798022 0.021899011 0.127014264
      0.0175192077 0.0175192077 0. 0.00875960384 0.0481778234
      0.0481778234 0.021899011 0.0175192077 0.0350384153 0.0131394062
      0.0131394062 0.0262788124 0.043798022 0.122634463 0.0131394062
      0.021899011 0.0919758454 0.00875960384 0.0394182205 0.0306586158</_>
    <_>
      0.0221306197 0.0221306197 0.0221306197 0.0110653099 0.
      0.0221306197 0.0221306197 0. 0.132783726 0.0110653099 0.0221306197
      0.0110653099 0.0221306197 0.0110653099 0.0110653099 0.
      0.0885224789 0.0221306197 0.0331959315 0.0221306197 0.0331959315
      0. 0.0331959315 0.0553265512 0.0221306197 0.0663918629
      0.0553265512 0.0110653099 0.0442612395 0.0221306197 0.0774571672
      0. 0.0110653099 0. 0.0221306197 0.0110653099 0.0885224789
      0.0331959315 0.0663918629 0.0442612395 0.0663918629 0.0774571672
      0.0331959315 0.0221306197 0.0221306197 0.14384903 0.0331959315 0.
      0.0110653099 0.0885224789 0.0995877907 0.0995877907 0.0553265512
      0.0442612395 0.0221306197 0.0221306197 0.0553265512 0.
      0.0442612395 0. 0.0442612395 0.0885224789 0.0221306197
      0.0331959315 0.0221306197 0. 0.0553265512 0.0110653099
      0.0331959315 0.0331959315 0. 0.0774571672 0. 0.0221306197
      0.0553265512 0.0331959315 0. 0.0110653099 0.0221306197 0. 0.
      0.0331959315 0. 0.0221306197 0.0995877907 0.0221306197
      0.0442612395 0.0663918629 0.0885224789 0.0331959315 0.0442612395
      0. 0.0553265512 0.0553265512 0.121718407 0. 0.0331959315 0.
      0.0442612395 0.0221306197 0.0995877907 0.0331959315 0.0774571672
      0.0663918629 0.0331959315 0. 0.0663918629 0.0110653099
      0.0110653099 0.0553265512 0.0110653099 0.0221306197 0.0221306197
      0.0885224789 0.121718407 0.0442612395 0.0442612395 0.0110653099
      0.0663918629 0.0553265512 0. 0. 0.0110653099 0.0663918629 0. 0.
      0.0110653099 0. 0.0331959315 0.0110653099 0.0110653099 0.
      0.232371509 0.0110653099 0.0221306197 0. 0.0553265512 0.0995877907
      0.0221306197 0.0221306197 0. 0.0442612395 0. 0.0221306197
      0.132783726 0.0442612395 0.0221306197 0.0442612395 0.0553265512
      0.0221306197 0.0553265512 0.0110653099 0.0553265512 0.0221306197
      0.0663918629 0.0110653099 0.0331959315 0.0331959315 0.110653102
      0.121718407 0.0110653099 0.0331959315 0.0221306197 0.0110653099
      0.0110653099 0.0331959315 0.0221306197 0.0442612395 0.
      0.0331959315 0.0663918629 0. 0.0995877907 0.0110653099
      0.0663918629 0.0110653099 0.0331959315 0.0221306197 0.0110653099
      0.0110653099 0.14384903 0.0885224789 0.0331959315 0.0110653099 0.
      0.0774571672 0.0221306197 0.0442612395 0.0221306197 0.0331959315
      0.254502118 0. 0.0110653099 0. 0. 0.0110653099 0.0663918629
      0.0663918629 0.0221306197 0.0221306197 0. 0. 0.0221306197 0.
      0.0331959315 0.0885224789 0.0110653099 0.0774571672 0.0553265512
      0.0331959315 0.0553265512 0.0885224789 0.0331959315 0.154914334
      0.232371509 0.0663918629 0.0331959315 0.0110653099 0.0553265512
      0.0331959315 0.0442612395 0.0774571672 0.0442612395 0.
      0.0110653099 0.0110653099 0.110653102 0. 0.0885224789 0.110653102
      0.210240886 0.210240886 0.0110653099 0.0442612395 0. 0.0774571672
      0.0331959315 0.0663918629 0.0442612395 0. 0.110653102 0.0110653099
      0.0331959315 0.0221306197 0.0885224789 0.0221306197 0.0331959315
      0.0885224789 0.0331959315 0.0553265512 0.0110653099 0.0221306197
      0.0110653099 0.0442612395 0.0110653099 0.0221306197 0.0110653099
      0.0442612395 0. 0. 0.0221306197 0.210240886 0.0110653099
      0.0110653099 0. 0.0221306197 0.0221306197 0.0221306197
      0.0331959315 0.0110653099 0.0110653099 0.0331959315 0.0110653099
      0.0442612395 0. 0.0663918629 0.0221306197 0.0221306197
      0.0331959315 0.0110653099 0. 0.0553265512 0. 0.0221306197
      0.0221306197 0.0553265512 0.0442612395 0.0221306197 0.165979654
      0.0221306197 0.0442612395 0.0442612395 0.0663918629 0.0774571672
      0.0110653099 0.0110653099 0.0553265512 0.0553265512 0.0442612395
      0.</_>
    <_>
      0.0224654414 0.0524193645 0.0599078462 0.0449308828 0.0599078462
      0.0449308828 0.0374424048 0.0149769615 0.0149769615 0.0599078462
      0.0748848096 0.0673963279 0. 0.14228113 0.0823732838 0.0524193645
      0.0224654414 0.0673963279 0.0374424048 0.0299539231 0.00748848077
      0.0224654414 0.104838729 0.0673963279 0.0299539231 0.0449308828
      0.0299539231 0.0898617655 0.0299539231 0.0449308828 0.104838729
      0.0898617655 0.0599078462 0.0599078462 0.0673963279 0.0449308828
      0.0374424048 0.0149769615 0.0374424048 0.0299539231 0.0224654414
      0.0449308828 0.0374424048 0.0374424048 0.0449308828 0.0449308828
      0.00748848077 0.0224654414 0.0149769615 0.0973502472 0.00748848077
      0.0823732838 0.0524193645 0.0823732838 0.0524193645 0.0299539231
      0.0224654414 0.0673963279 0.0299539231 0.0149769615 0.0673963279
      0.0224654414 0.0449308828 0.0524193645 0.0973502472 0.0299539231
      0. 0.0149769615 0.0374424048 0.0748848096 0.0599078462
      0.0149769615 0.0224654414 0.0449308828 0.0374424048 0.0449308828
      0.0374424048 0.0374424048 0.0599078462 0.0449308828 0.0224654414
      0.0374424048 0.0524193645 0.0898617655 0.112327211 0.0748848096
      0.0524193645 0.0299539231 0.0149769615 0.0149769615 0.0374424048
      0.0524193645 0.0299539231 0.0374424048 0.0524193645 0.127304167
      0.0748848096 0.0299539231 0.0449308828 0.0673963279 0.
      0.0898617655 0.0449308828 0.14228113 0.0299539231 0.0449308828
      0.0748848096 0.0149769615 0.0224654414 0.112327211 0.0823732838
      0.179723531 0.0224654414 0.0374424048 0.0599078462 0.0599078462
      0.0299539231 0.0299539231 0.104838729 0.0149769615 0.0299539231
      0.0748848096 0.0449308828 0.0524193645 0.0449308828 0.0299539231
      0.0224654414 0.0224654414 0.0823732838 0.0449308828 0.0823732838
      0.104838729 0.0673963279 0.0299539231 0.0449308828 0.0449308828
      0.0149769615 0.0524193645 0.0973502472 0.0449308828 0.0224654414
      0.0973502472 0.00748848077 0.00748848077 0.0823732838 0.0299539231
      0.0599078462 0.0673963279 0.0224654414 0.0898617655 0.0224654414
      0.0299539231 0.0149769615 0.0374424048 0.0748848096 0.0898617655
      0.0149769615 0.0823732838 0.0898617655 0.00748848077 0.0673963279
      0.0449308828 0.0449308828 0.0224654414 0.0748848096 0.0599078462
      0.0299539231 0.0374424048 0.00748848077 0.0299539231 0.0673963279
      0.0224654414 0.0149769615 0.112327211 0. 0.0524193645 0.0898617655
      0.0224654414 0.0898617655 0.0524193645 0.0449308828 0.0374424048
      0.0224654414 0.0823732838 0.0299539231 0.0748848096 0.0748848096
      0.0224654414 0.0673963279 0.0374424048 0.0374424048 0.0224654414
      0.0599078462 0.0524193645 0.0823732838 0.0299539231 0.0374424048
      0.0524193645 0.0449308828 0.0599078462 0.0449308828 0.0224654414
      0.0224654414 0. 0.0299539231 0.0449308828 0.0299539231
      0.0748848096 0.18721202 0.0673963279 0.0673963279 0.00748848077
      0.0299539231 0.0449308828 0.0374424048 0.0748848096 0.0449308828
      0.149769619 0.0748848096 0.0374424048 0.0299539231 0.00748848077
      0.0599078462 0.00748848077 0.0224654414 0.0973502472 0.0673963279
      0.0524193645 0.0898617655 0.0149769615 0.0524193645 0.202188969
      0.0374424048 0.0973502472 0.0524193645 0.00748848077 0.112327211
      0.0823732838 0.0898617655 0.0748848096 0.00748848077 0.104838729
      0.0449308828 0. 0.0449308828 0.0149769615 0.0224654414
      0.0449308828 0.0374424048 0.0599078462 0.0224654414 0.0673963279
      0.0374424048 0.0524193645 0.0599078462 0.0224654414 0.0449308828
      0.0149769615 0.0224654414 0.0524193645 0.0449308828 0.0524193645
      0.0449308828 0. 0.0299539231 0.0449308828 0.0449308828
      0.0374424048 0.0748848096 0.00748848077 0.0299539231 0.0748848096
      0.0224654414 0.0898617655 0.0673963279 0.0149769615 0.0149769615
      0.0299539231 0.0224654414 0.0524193645 0.0374424048 0.0149769615
      0.00748848077 0.0224654414 0.0823732838 0.00748848077 0.
      0.0673963279 0.0599078462 0.0149769615 0.0599078462 0.0374424048
      0.0149769615 0.0823732838 0.00748848077 0.0224654414 0.0524193645
      0.0299539231 0.0374424048 0.00748848077</_>
    <_>
      0.126018405 0.0326714367 0.00933469646 0.0373387858 0.0606755279
      0.00466734823 0.0280040894 0. 0.0793449208 0.00933469646
      0.0466734841 0.0186693929 0.0233367421 0.0560081787 0.0186693929
      0.00933469646 0.0280040894 0.00933469646 0.0653428733 0.0233367421
      0.0466734841 0.00933469646 0.0233367421 0.0373387858 0.0186693929
      0.0326714367 0.042006135 0.0373387858 0.0373387858 0.191361278
      0.042006135 0.00933469646 0.00466734823 0.0233367421 0.0186693929
      0.0466734841 0.0560081787 0.0186693929 0.0560081787 0.0466734841
      0.0606755279 0.0326714367 0.0326714367 0.00466734823 0.0280040894
      0.112016357 0.00466734823 0.00466734823 0.00933469646 0.0233367421
      0.0233367421 0.0140020447 0.0653428733 0.0280040894 0.00466734823
      0.00933469646 0.0280040894 0.00466734823 0.0560081787
      0.00466734823 0.0233367421 0.0280040894 0.0280040894 0.0373387858
      0. 0. 0.0886796191 0.00466734823 0.0186693929 0.0280040894
      0.00933469646 0.0186693929 0.00933469646 0.0466734841 0.0513408296
      0.0373387858 0. 0.0280040894 0.0140020447 0.00933469646
      0.0140020447 0.0186693929 0. 0.0140020447 0.08401227 0.0140020447
      0.0186693929 0.0606755279 0.0373387858 0. 0.0233367421 0.
      0.042006135 0.0280040894 0.126018405 0.0140020447 0.0233367421
      0.042006135 0.0280040894 0.0373387858 0.0233367421 0.0373387858
      0.0186693929 0.042006135 0.0326714367 0. 0.0466734841 0.0373387858
      0.00933469646 0.00933469646 0.0466734841 0.0280040894 0.0326714367
      0.0140020447 0.09801431 0.0466734841 0.0326714367 0.00466734823
      0.135353103 0.0186693929 0.0186693929 0.0466734841 0.0233367421
      0.0326714367 0.00466734823 0.00466734823 0.00466734823
      0.0606755279 0.238034755 0. 0.144687802 0.0140020447 0.154022485
      0.00933469646 0.0140020447 0.0140020447 0.042006135 0.042006135
      0.0560081787 0.0373387858 0. 0.0606755279 0.0373387858
      0.0606755279 0.0560081787 0.00933469646 0.0140020447 0.0326714367
      0.0326714367 0.00466734823 0.0186693929 0.00466734823 0.0280040894
      0.08401227 0.0513408296 0.0373387858 0.00933469646 0.00933469646
      0.0886796191 0.0280040894 0.0326714367 0.042006135 0.0186693929
      0.0140020447 0.0326714367 0.042006135 0.0140020447 0.0186693929
      0.00933469646 0.0186693929 0.0886796191 0.00466734823 0.0466734841
      0.0233367421 0.149355143 0.0373387858 0.0186693929 0.0373387858
      0.0186693929 0.0140020447 0.0140020447 0.0326714367 0.00466734823
      0.0326714367 0.00466734823 0.0373387858 0.0326714367 0.0560081787
      0.0186693929 0.00466734823 0.042006135 0.0560081787 0.00466734823
      0.0140020447 0.0140020447 0.0140020447 0.0560081787 0.0513408296
      0.0280040894 0.00933469646 0.00466734823 0. 0.0793449208 0.
      0.0186693929 0.0233367421 0. 0.0933469683 0.107349008 0.0280040894
      0.0186693929 0.00933469646 0.0140020447 0.0140020447 0.126018405
      0.0513408296 0.0326714367 0.0606755279 0.0373387858 0.00933469646
      0.0326714367 0.0186693929 0.0233367421 0.00466734823 0.0186693929
      0.042006135 0.107349008 0.00933469646 0.597420573 0.00933469646
      0.08401227 0.126018405 0.0186693929 0.08401227 0. 0.0606755279
      0.00933469646 0.0886796191 0.0513408296 0.0373387858 0.0140020447
      0.0140020447 0.00933469646 0.0326714367 0.00466734823 0.0186693929
      0.0373387858 0.0326714367 0.0140020447 0.0280040894 0.
      0.0233367421 0.0513408296 0.0140020447 0.0140020447 0.0280040894
      0.0280040894 0.0466734841 0. 0.0186693929 0.0280040894
      0.0653428733 0.0140020447 0.00933469646 0.0233367421 0.0233367421
      0.00466734823 0.0140020447 0.0140020447 0.0746775717 0.0140020447
      0.0326714367 0.0326714367 0.08401227 0.0140020447 0.0513408296
      0.0933469683 0.0466734841 0.0326714367 0.0513408296 0.00466734823
      0.0140020447 0. 0.0186693929 0.0233367421 0.00933469646 0. 0.
      0.107349008 0.0186693929 0.042006135 0.00933469646 0.0186693929
      0.0326714367 0.00466734823 0.00466734823 0.0793449208 0.0140020447
      0.0280040894 0.</_>
    <_>
      0.0725852102 0.0155539727 0.00806502346 0.00576073071 0.0132496804
      0.00403251173 0.00979324244 0.00576073071 0.322600931 0.0195864849
      0.00633680401 0.0103693157 0.258080751 0.0109453881 0.00633680401
      0.00288036535 0.287460476 0.0132496804 0.237342104 0.00115214614
      0.0120975347 0.00172821921 0.0276515074 0.0115214614 0.00979324244
      0.0149779003 0.0207386315 0.00518465787 0.0362926051 0.0207386315
      0.0172821917 0.00115214614 0.00115214614 0.0115214614
      0.00288036535 0.00864109583 0.0270754341 0.00691287685
      0.0253472161 0.0138257537 0.0138257537 0.0155539727 0.0351404585
      0.0109453881 0.00979324244 0.0622158907 0.0743134245
      0.000576073071 0.00633680401 0.0218907762 0.0973563492
      0.0339883119 0.0161300469 0.0149779003 0.0149779003 0.0374447517
      0.00806502346 0.00403251173 0.0138257537 0. 0.00979324244
      0.0910195485 0.00806502346 0.0241950694 0.00576073071
      0.00115214614 0.141713977 0.0155539727 0.0120975347 0.00691287685
      0.00115214614 0.0380208232 0.00576073071 0.014401827 0.0201625582
      0.00345643843 0.00115214614 0.012673608 0.00288036535
      0.00288036535 0.00576073071 0.0195864849 0.00172821921
      0.0253472161 0.0311079454 0.0115214614 0.0236189961 0.139985755
      0.27997151 0.0397490412 0.00864109583 0.00230429228 0.0161300469
      0.0264993608 0.0299558006 0.00691287685 0.0109453881 0.0391729698
      0.017858265 0.0241950694 0.264417529 0.00864109583 0.0639441088
      0.0201625582 0.0115214614 0.00460858457 0.0276515074 0.0172821917
      0.00115214614 0.00576073071 0.00806502346 0.00518465787
      0.0115214614 0.0316840187 0.0529987216 0.017858265 0.0311079454
      0.00691287685 0.0760416463 0.0201625582 0.0149779003 0.00518465787
      0.00230429228 0.0161300469 0.00518465787 0.00288036535
      0.00288036535 0.00921716914 0.0668244734 0.00345643843 0.161300465
      0.00288036535 0.102541007 0.0201625582 0.014401827 0.00576073071
      0.00230429228 0.017858265 0.043205481 0.0259232894 0.000576073071
      0.00864109583 0.0800741613 0.0109453881 0.0253472161 0.0253472161
      0.00288036535 0.00691287685 0.0299558006 0.00979324244
      0.0172821917 0.00288036535 0.014401827 0.00230429228 0.0184343383
      0.00979324244 0.0195864849 0.00345643843 0.0282275807 0.323753059
      0.00921716914 0.0218907762 0.0420533344 0.00345643843
      0.00403251173 0.00460858457 0.014401827 0.0201625582 0.00172821921
      0.00979324244 0.0207386315 0.00288036535 0.0351404585
      0.00921716914 0.0933238417 0.0149779003 0.0115214614 0.0115214614
      0.0236189961 0.00403251173 0.0956281275 0.00748895016 0.0409011878
      0.0103693157 0.00172821921 0.0368686765 0.00806502346 0.0771937892
      0.0115214614 0.0282275807 0.0374447517 0.00345643843 0.0109453881
      0.00576073071 0.00345643843 0.0714330599 0.0138257537 0.0241950694
      0.00115214614 0.0201625582 0.00115214614 0.000576073071
      0.0149779003 0. 0.0161300469 0.0138257537 0.00345643843
      0.0213147029 0.122703567 0.0190104116 0.00864109583 0.0506944321
      0.0109453881 0.0656723306 0.0835305974 0.00576073071 0.00921716914
      0.00979324244 0.0391729698 0.0472379923 0.00864109583 0.0622158907
      0.00403251173 0.00518465787 0.0230429228 0.0138257537 0.0172821917
      0. 0.109453887 0.0478140637 0.0403251164 0.0241950694
      0.00576073071 0.012673608 0.00172821921 0.0495422855 0.00576073071
      0.00230429228 0.014401827 0.00518465787 0.108301736 0.0155539727
      0.00288036535 0.00864109583 0.0420533344 0.0195864849 0.0553030148
      0.0201625582 0.0322600938 0.0293797273 0. 0.00288036535
      0.0120975347 0.00230429228 0.00633680401 0.00345643843
      0.00633680401 0.0264993608 0.00576073071 0.00748895016
      0.00979324244 0.0823784471 0.00748895016 0.00806502346
      0.00748895016 0.0253472161 0.0109453881 0.00345643843 0.0426294059
      0.216603473 0.00633680401 0.00576073071 0.012673608 0.00806502346
      0.00230429228 0.0869870335 0.228124931 0.00691287685 0.00691287685
      0.0224668495 0.000576073071 0.0460858457 0. 0.0109453881
      0.0149779003 0.0253472161 0.0316840187 0.00115214614 0.0829545259
      0.0138257537 0.00403251173 0.0495422855 0.014401827 0.00864109583
      0.112910323 0.00345643843 0.0184343383 0.0184343383 0.00806502346
      0.00172821921</_>
    <_>
      0.158837453 0.0134771178 0.0105891638 0.00962651242 0.0346554443
      0.00481325621 0.0182903744 0.00288795377 0.0490952134 0.0192530248
      0.0182903744 0.0182903744 0.0202156752 0.0221409779 0.00770120975
      0.00481325621 0.287832707 0.00962651242 0.0202156752 0.0115518151
      0.0105891638 0.00192530244 0.0298421886 0.0182903744 0.0182903744
      0.0317674913 0.0221409779 0.0154024195 0.0298421886 0.053908471
      0.0365807489 0.00288795377 0. 0.0182903744 0.00481325621
      0.00866386108 0.0298421886 0.0125144664 0.0317674913 0.0529458188
      0.0876012668 0.0462072603 0.0548711196 0.00770120975 0.0192530248
      0.0760494471 0.0433193073 0.00288795377 0.00385060487 0.0346554443
      0.0462072603 0.134771168 0.0490952134 0.0105891638 0.0182903744
      0.0269542355 0.0567964241 0.00288795377 0.0606470294
      0.000962651218 0.0231036302 0.0606470294 0.00866386108
      0.0298421886 0.0163650718 0.000962651218 0.118406102 0.0182903744
      0.030804839 0.0105891638 0.00192530244 0.0481325611 0.00288795377
      0.0587217249 0.0635349825 0.0192530248 0.00385060487 0.0211783275
      0.00866386108 0.00288795377 0.0163650718 0.0336927921
      0.00288795377 0.00962651242 0.0760494471 0.0211783275 0.0327301435
      0.558337748 0.0144397691 0.0182903744 0.0144397691 0.000962651218
      0.08471331 0.0115518151 0.0433193073 0.0221409779 0.0182903744
      0.0577590764 0.030804839 0.0529458188 0.0442819558 0.0154024195
      0.0413940027 0.0375433974 0.00962651242 0.0105891638 0.0356180966
      0.0182903744 0.000962651218 0.0154024195 0.0173277222 0.0173277222
      0.0211783275 0.0818253532 0.08471331 0.0240662806 0.0134771178
      0.00192530244 0.0818253532 0.0202156752 0.0115518151 0.0105891638
      0.00962651242 0.0404313505 0.00385060487 0.00385060487
      0.0144397691 0.042356655 0.154024199 0.00192530244 0.0779747516
      0.000962651218 0.0779747516 0.0500578657 0.0346554443
      0.00770120975 0.00962651242 0.0462072603 0.0904892161 0.0231036302
      0.000962651218 0.0231036302 0.201194108 0.0182903744 0.0664229393
      0.0288795382 0.00577590754 0.0125144664 0.0962651223 0.00385060487
      0.0202156752 0.000962651218 0.0240662806 0.0240662806 0.0269542355
      0.0211783275 0.0596843772 0.00481325621 0.0462072603 0.0413940027
      0.0134771178 0.0385060497 0.0154024195 0.0173277222 0.0163650718
      0.0182903744 0.0317674913 0.0134771178 0.00192530244 0.0442819558
      0.0327301435 0.00385060487 0.0481325611 0.00577590754 0.0577590764
      0.0221409779 0.0231036302 0.0182903744 0.0115518151 0.00481325621
      0.0365807489 0.0336927921 0.0154024195 0.0115518151 0.00288795377
      0.0962651223 0.0259915832 0.0259915832 0.0125144664 0.0442819558
      0.0548711196 0.00577590754 0.0163650718 0.0240662806 0.00481325621
      0.0327301435 0.0336927921 0.0259915832 0.0125144664 0.0279168859
      0.00288795377 0. 0.0365807489 0. 0.0548711196 0.0327301435
      0.00192530244 0.0471699126 0.0673855841 0.0279168859 0.0269542355
      0.0577590764 0.00962651242 0.1145555 0.08471331 0.00673855888
      0.0336927921 0.0173277222 0.0182903744 0.0943398252 0.0885639116
      0.0462072603 0.0202156752 0.00481325621 0.0163650718 0.0259915832
      0.0693108886 0. 0.172314569 0.0673855841 0.0577590764 0.0625723302
      0.0163650718 0.0327301435 0.00192530244 0.0442819558 0.0105891638
      0.0202156752 0.0288795382 0.0182903744 0.0481325611 0.0125144664
      0.00770120975 0.0288795382 0.0837506577 0.0182903744 0.111667544
      0.0770120993 0.0394687019 0.0211783275 0.00577590754 0.0144397691
      0.0327301435 0.0105891638 0.0202156752 0.0279168859 0.0202156752
      0.0856759623 0.00192530244 0.0211783275 0.0144397691 0.0558337718
      0.0182903744 0.00481325621 0.042356655 0.0163650718 0.00770120975
      0.00288795377 0.0837506577 0.253177285 0.0182903744 0.030804839
      0.0192530248 0.0404313505 0.00385060487 0.0567964241 0.0173277222
      0.0173277222 0.0404313505 0.0163650718 0.000962651218 0.0587217249
      0. 0.0433193073 0.00770120975 0.0356180966 0.0404313505
      0.00481325621 0.061609678 0.0356180966 0.0154024195 0.0452446081
      0.0202156752 0.0173277222 0.0105891638 0.00481325621 0.0462072603
      0.0452446081 0.0125144664 0.00385060487</_>
    <_>
      0.0150647452 0.0639906153 0.075461939 0.0704864264 0.053486757
      0.0207313001 0.0892828032 0.0351050049 0.00414626021 0.047681991
      0.0659255385 0.0523810871 0.0251539778 0.0812667012 0.059153311
      0.0273653176 0.0228044316 0.0785025284 0.00373163424 0.0825105757
      0.0769822299 0.0527957119 0.0652344972 0.0815431178 0.0862422138
      0.0832016245 0.0586004779 0.0749090984 0.0464381129 0.00525192963
      0.0366252996 0.0348285846 0.0225280132 0.063852407 0.0720067173
      0.0963314474 0.0561127216 0.0782261118 0.0147883277 0.06799867
      0.0580476411 0.0720067173 0.028747404 0.0501697473 0.085827589
      0.00373163424 0.0291620307 0.017828919 0.0324790366 0.0395276807
      0.0187963787 0.0342757516 0.046023488 0.0794699863 0.0526575036
      0.0646816567 0.0450560264 0.0293002389 0.0475437827 0.0182435457
      0.0631613657 0.0131298238 0.0645434484 0.0221133884 0.0521046706
      0.00981281605 0.0123005724 0.0581858531 0.0733888075 0.0815431178
      0.0328936651 0.0398040973 0.0382838026 0.0776732713 0.0522428788
      0.0740798488 0.0341375433 0.0691043362 0.0812667012 0.0174142923
      0.0511372089 0.0706246346 0.0205930918 0.0624703206 0.0371781327
      0.0523810871 0.0457470715 0.0210077185 0.00442267768 0.0486494526
      0.0903884694 0.0226662233 0.0525192954 0.0902502611 0.00525192963
      0.0894210115 0.051828254 0.0937054828 0.0493404977 0.0503079556
      0.00400805147 0.0955021903 0.0392512642 0.0424300618 0.0829252005
      0.0395276807 0.0924616009 0.059844356 0.017828919 0.063852407
      0.0773968548 0.0829252005 0.085827589 0.0446414016 0.0128534064
      0.0552834682 0.0720067173 0.024186518 0.00649580779 0.0592915192
      0.0768440217 0.0876242965 0.0704864264 0.0555598885 0.0265360661
      0.0469909497 0.0925998092 0.0884535536 0.0055283471 0.0407715589
      0.0268124826 0.0291620307 0.00386984297 0.0692425445 0.0492022894
      0.0724213421 0.0836162493 0.057494808 0.0169996675 0.0543160103
      0.0147883277 0.0703482181 0.00856893789 0.0616410673 0.031649787
      0.0424300618 0.0691043362 0.0721449256 0.0400805138 0.0433975235
      0.0577712245 0.0279181525 0.0628849491 0.0779496953 0.0559745133
      0.0686897114 0.0421536453 0.0645434484 0.0346903764 0.0212841351
      0.0937054828 0.0559745133 0.0464381129 0.0823723674 0.0620556958
      0.067169413 0.0570801832 0.0664783716 0.042015437 0.0735270157
      0.0362106711 0.0323408283 0.0404951423 0.0805756599 0.0308205336
      0.0700717941 0.0641288236 0.0826487839 0.0696571693 0.0662019551
      0.0152029544 0.0975753218 0.0644052401 0.0563891381 0.0514136255
      0.0312351603 0.0916323513 0.00898356363 0.0686897114 0.0743562654
      0.0403569341 0.0787789449 0.0544542186 0.0675840378 0.045470655
      0.0366252996 0.0703482181 0.0550070517 0.0786407366 0.0489258692
      0.0234954748 0.0142354937 0.0760147721 0.00179671275 0.0744944736
      0.0785025284 0.0298530739 0.0532103404 0.00345521676 0.0653727055
      0.091494143 0.0338611268 0.0844454989 0.0312351603 0.00677222479
      0.0865186304 0.081128493 0.0649580732 0.0482348278 0.0262596477
      0.0537631735 0.0385602191 0.0732505992 0.0348285846 0.0796081945
      0.0637141988 0.041324392 0.0258450229 0.00511372089 0.0268124826
      0.0305441171 0.007186851 0.0919087678 0.084998332 0.0323408283
      0.0587386861 0.0308205336 0.0624703206 0.0631613657 0.0583240613
      0.0153411627 0.0812667012 0.0814049095 0.0861040056 0.0385602191
      0.0645434484 0.0254303962 0.0344139598 0.0319262035 0.0443649851
      0.0146501195 0.0628849491 0.0955021903 0.0838926658 0.0744944736
      0.0802992359 0.0913559347 0.0439503565 0.0221133884 0.0977135301
      0.0623321123 0.00497551216 0.0764293969 0.0377309695 0.0720067173
      0.0773968548 0.0861040056 0.0446414016 0.0331700817 0.0273653176
      0.0801610276 0.0667547882 0.0820959508 0.0707628429 0.0331700817
      0.0179671273 0.00663401652 0.0657873303 0.0822341591 0.0450560264
      0.0214223452 0.0331700817 0.000829252065 0.0735270157 0.0646816567
      0.0302676987 0.0258450229 0.0121623632 0.00511372089 0.0714538842
      0.0833398327 0.0385602191 0.0729741827 0.0847219154 0.0352432132
      0.0399423055 0.0595679395 0.0474055745 0.0978517383 0.0226662233</_>
    <_>
      0.0815923065 0.0254975948 0.0152985565 0.0254975948 0.0152985565
      0. 0.0152985565 0. 0.132587492 0.0407961532 0.0254975948
      0.0356966332 0.0509951897 0.0203980766 0.0203980766 0.
      0.0713932663 0.0203980766 0.0560947098 0.0254975948 0.0407961532
      0.0101990383 0.0560947098 0.0458956696 0.0407961532 0.0254975948
      0.0611942261 0.0152985565 0.0968908593 0.0611942261 0.0560947098
      0. 0.0101990383 0.0356966332 0. 0.0152985565 0.0917913392
      0.0203980766 0.0968908593 0.0407961532 0.0458956696 0.0458956696
      0.0152985565 0.00509951916 0.0254975948 0.147886053 0.137687013
      0.00509951916 0.00509951916 0.0407961532 0.127487972 0.168284118
      0.0968908593 0.0203980766 0.0254975948 0.0611942261 0.0815923065
      0.00509951916 0.0560947098 0. 0.0152985565 0.122388452
      0.0101990383 0.0662937462 0.0254975948 0. 0.0458956696
      0.0203980766 0.0356966332 0.0407961532 0. 0.0509951897 0.
      0.0560947098 0.163184613 0.0356966332 0.0101990383 0.0509951897
      0.0152985565 0. 0.00509951916 0.0407961532 0. 0.0203980766
      0.0917913392 0.0203980766 0.0254975948 0.0764927864 0.142786533
      0.0560947098 0.0305971131 0. 0.0509951897 0.0254975948
      0.0407961532 0.0458956696 0.0203980766 0.0560947098 0.0254975948
      0.101990379 0.0815923065 0. 0.0917913392 0.0713932663 0.0560947098
      0.00509951916 0.0560947098 0.0203980766 0. 0.00509951916
      0.0254975948 0.0101990383 0.0203980766 0.0968908593 0.0815923065
      0.0254975948 0.0254975948 0.00509951916 0.0560947098 0.0458956696
      0.0101990383 0.0203980766 0.0254975948 0.117288932 0.0152985565
      0.00509951916 0.0152985565 0.0509951897 0.132587492 0.
      0.0509951897 0. 0.0611942261 0.0509951897 0.0458956696
      0.0101990383 0.0203980766 0.0509951897 0.0713932663 0.0254975948
      0.00509951916 0.0662937462 0.0407961532 0.0560947098 0.0866918191
      0.0305971131 0.0203980766 0.0254975948 0.0815923065 0.0203980766
      0.0509951897 0.00509951916 0.0509951897 0.122388452 0.0713932663
      0.0356966332 0.0560947098 0.00509951916 0.0917913392 0.0407961532
      0.0152985565 0.0254975948 0.0458956696 0.0101990383 0.0509951897
      0.0509951897 0.0407961532 0.0305971131 0.00509951916 0.0356966332
      0.0509951897 0. 0.147886053 0.00509951916 0.101990379 0.0305971131
      0.0458956696 0.0203980766 0.0254975948 0.0101990383 0.101990379
      0.0407961532 0.0662937462 0.0203980766 0. 0.107089899 0.0254975948
      0.0611942261 0.0203980766 0.0611942261 0.0662937462 0.0254975948
      0. 0. 0.0152985565 0.101990379 0.0866918191 0.0611942261
      0.0305971131 0.0152985565 0.0101990383 0.00509951916 0.0560947098
      0. 0.0356966332 0.0407961532 0. 0.101990379 0.122388452
      0.0152985565 0.0407961532 0.0662937462 0.0101990383 0.142786533
      0.0560947098 0.0356966332 0.0356966332 0.0152985565 0.0764927864
      0.101990379 0.0662937462 0.0815923065 0.0407961532 0.00509951916
      0.0203980766 0.0305971131 0.173383638 0. 0.147886053 0.0866918191
      0.101990379 0.0662937462 0.0152985565 0.0305971131 0.00509951916
      0.0356966332 0.00509951916 0.0509951897 0.0509951897 0.0152985565
      0.152985573 0.0305971131 0.0407961532 0.0152985565 0.0866918191
      0.0458956696 0.0968908593 0.117288932 0.0407961532 0.0509951897
      0.00509951916 0.0101990383 0.0509951897 0.0152985565 0.0305971131
      0.0407961532 0.0152985565 0.0713932663 0. 0.0152985565
      0.0407961532 0.0662937462 0.0152985565 0. 0.0254975948
      0.0101990383 0.0305971131 0.00509951916 0.0815923065 0.0611942261
      0.0407961532 0.0356966332 0.0356966332 0.0152985565 0.00509951916
      0.152985573 0.0509951897 0.0305971131 0.0713932663 0.0356966332 0.
      0.0866918191 0. 0.0356966332 0.0101990383 0.0866918191 0.107089899
      0.00509951916 0.0968908593 0.0305971131 0.0305971131 0.0866918191
      0.0305971131 0.0203980766 0.0152985565 0.0305971131 0.0713932663
      0.117288932 0.0152985565 0.0101990383</_></support_vectors>
  <decision_functions>
    <_>
      <sv_count>17</sv_count>
      <rho>-1.0228452841966187</rho>
      <alpha>
        2.0041997051346813e-07 1.6383413909527923e-07
        1.4414384746950718e-07 7.8379295827350126e-08
        1.9019019784999089e-08 1.7185980462207525e-07
        1.7136990125085973e-07 5.2049029116011761e-08
        7.2396612803636622e-08 -4.9873316048019099e-08
        -1.5578659939105946e-07 -8.2248314724709833e-08
        -2.6196228661302869e-07 -9.8837487158211057e-08
        -1.4028916286590725e-07 -2.7626985379693605e-07
        -8.2045998853156974e-09</alpha>
      <index>
        10 16 15 14 13 12 11 9 8 0 7 6 5 4 3 2 1</index></_></decision_functions></opencv_ml_svm>
</opencv_storage>
