<?xml version="1.0"?>
<opencv_storage>
<opencv_ml_svm>
  <format>3</format>
  <svmType>C_SVC</svmType>
  <kernel>
    <type>POLY</type>
    <degree>3.</degree>
    <gamma>225.70342635512083</gamma>
    <coef0>0.</coef0></kernel>
  <C>1.</C>
  <term_criteria><epsilon>1.1920928955078125e-07</epsilon>
    <iterations>1000</iterations></term_criteria>
  <var_count>300</var_count>
  <class_count>2</class_count>
  <class_labels type_id="opencv-matrix">
    <rows>2</rows>
    <cols>1</cols>
    <dt>i</dt>
    <data>
      0 1</data></class_labels>
  <sv_total>18</sv_total>
  <support_vectors>
    <_>
      0.0649200007 0.0316057913 0.00341684232 0.060648948 0.038439475
      0.00341684232 0.0136673693 0.000854210579 0.0717536882
      0.0410021059 0.0657742098 0.128985792 0.0256263167 0.00512526324
      0.0298973694 0.07687895 0.0563778952 0.00256263162 0.0503984243
      0.018792633 0.0145215793 0.134965271 0.0247721057 0.0290431585
      0.0743163154 0.0615031607 0.0469815806 0.00939631648 0.111901581
      0.0410021059 0.0264805276 0.0153757902 0.0597947389 0.0213552639
      0.0640657917 0.0512526333 0.00768789509 0.0512526333
      0.000854210579 0.0837126374 0.0666284263 0.0222094748 0.0401478969
      0.0444189496 0.119589478 0.00683368463 0.0452731587 0.0170842111
      0.00512526324 0.0341684222 0.0666284263 0.0469815806 0.0820042118
      0.0256263167 0.0615031607 0.0743163154 0.0119589474 0.0367310531
      0.0213552639 0.0649200007 0.0427105278 0.0239178948 0.0358768441
      0.0290431585 0.0375852659 0.0119589474 0.132402629 0.0512526333
      0.0392936841 0.020501053 0.0410021059 0.0538152643 0.00854210556
      0.0162300002 0.0555236861 0.038439475 0.0717536882 0.0640657917
      0.058086317 0.0153757902 0.038439475 0.0256263167 0.0760247409
      0.0700452626 0.057232108 0.060648948 0.00939631648 0.12471474
      0.0879836902 0. 0.0666284263 0.0427105278 0.0495442115
      0.0418563187 0.0316057913 0.00170842116 0.0495442115 0.0495442115
      0.0307515804 0.0059794737 0.11275579 0.0239178948 0.0726078972
      0.0478357896 0.019646842 0.0623573698 0.0264805276 0.019646842
      0.0854210556 0.0119589474 0.0461273715 0.00768789509 0.0914005265
      0.0239178948 0.0230636857 0.0427105278 0.0119589474 0.155466318
      0.0358768441 0.0298973694 0.0111047374 0.0418563187 0.054669477
      0.017938422 0.0657742098 0.0392936841 0.0059794737 0.0486900024
      0.0461273715 0.038439475 0.00939631648 0.103359476 0.0521068424
      0.0563778952 0.0307515804 0.057232108 0.00512526324 0.00939631648
      0.0290431585 0.058086317 0.0486900024 0.0375852659 0.170842111
      0.12471474 0.0691910535 0.0350226313 0.000854210579 0.0461273715
      0.0905463174 0.0743163154 0.0375852659 0.0401478969 0.0632115826
      0.106776319 0.00854210556 0.0657742098 0.0871294737 0.0743163154
      0.00256263162 0.0563778952 0.0350226313 0.0691910535 0.038439475
      0.0375852659 0.00256263162 0.0632115826 0.0427105278 0.0632115826
      0.00256263162 0.0896921083 0.0256263167 0.0111047374 0.0102505265
      0.0418563187 0.0170842111 0.00256263162 0.0350226313 0.0640657917
      0.0230636857 0.060648948 0.018792633 0.0375852659 0.0478357896
      0.0529610552 0.00854210556 0.0555236861 0.0153757902 0.058086317
      0.0478357896 0.060648948 0.0700452626 0.0521068424 0.020501053
      0.0691910535 0.0512526333 0.0418563187 0.00939631648 0.00683368463
      0.0521068424 0.00256263162 0.00768789509 0.118735269 0.0367310531
      0.0401478969 0.00768789509 0.017938422 0.0324600004 0.178530008
      0.0632115826 0.0341684222 0.0367310531 0.0418563187 0.07687895
      0.0529610552 0.0640657917 0.0521068424 0.101651058 0.038439475
      0.092254743 0.0632115826 0.0632115826 0.0495442115 0.0153757902
      0.0452731587 0.0597947389 0.0418563187 0.0478357896 0.0281889476
      0.0743163154 0.0717536882 0.0777331591 0.0367310531 0.0905463174
      0.0623573698 0.0623573698 0.0683368444 0.0700452626 0.0264805276
      0.0239178948 0.0828584209 0.0290431585 0.00341684232 0.0170842111
      0.160591587 0.0281889476 0.0102505265 0.0290431585 0.0632115826
      0.058086317 0.017938422 0.0563778952 0.0256263167 0.0495442115
      0.178530008 0.0811500028 0.0751705319 0.0239178948 0.0307515804
      0.0674826354 0.0589405298 0.0563778952 0.0700452626 0.0469815806
      0.0256263167 0.0708994791 0.0427105278 0.0401478969 0.00256263162
      0.0512526333 0.0512526333 0.00341684232 0.0333142132 0.106776319
      0.0939631611 0.0418563187 0.07687895 0.00768789509 0.0333142132
      0.0888378993 0.118735269 0.0324600004 0.0632115826 0.0367310531
      0.0290431585 0.00512526324 0.0290431585 0.0495442115 0.0888378993
      0.00256263162 0.0410021059 0.0264805276 0.147778422 0.0273347385
      0.0794415846 0.020501053 0.0418563187 0.00939631648 0.0350226313
      0.0666284263 0.106776319</_>
    <_>
      0.0758640915 0.0632200763 0.0231806953 0.0316100381 0.0295027029
      0.0379320458 0.0400393829 0.0210733581 0.0463613905 0.0379320458
      0.0442540534 0.0590054058 0.0358247086 0.0273953658 0.0295027029
      0.0400393829 0.0779714286 0.0295027029 0.0526833981 0.0147513514
      0.0674347505 0.0379320458 0.050576061 0.0273953658 0.0273953658
      0.0590054058 0.0400393829 0.0316100381 0.242343634 0.0295027029
      0.0842934325 0.0168586876 0.0568980686 0.0463613905 0.0632200763
      0.0400393829 0.0252880305 0.0295027029 0.0273953658 0.0421467163
      0.0568980686 0.0800787657 0.0611127391 0.0463613905 0.219162926
      0.0147513514 0.0463613905 0.0316100381 0.0316100381 0.0421467163
      0.0400393829 0.0316100381 0.0990447849 0.0252880305 0.050576061
      0.0316100381 0.0273953658 0.0337173752 0.0674347505 0.0316100381
      0.092722781 0.0189660229 0.0295027029 0.0379320458 0.0168586876
      0.050576061 0.0632200763 0.0632200763 0.050576061 0.0147513514
      0.0231806953 0.0885081068 0.0358247086 0.050576061 0.0189660229
      0.0463613905 0.109581463 0.0484687239 0.0337173752 0.0316100381
      0.0273953658 0.0590054058 0.0400393829 0.0231806953 0.0674347505
      0.0295027029 0.0210733581 0.124332815 0.0231806953 0. 0.0337173752
      0.0526833981 0.0295027029 0.0147513514 0.0442540534 0.0147513514
      0.0632200763 0.0295027029 0.0484687239 0.0147513514 0.0695420876
      0.0295027029 0.170694202 0.0295027029 0.0653274134 0.0526833981
      0.0611127391 0.0758640915 0.0168586876 0.0590054058 0.0316100381
      0.0337173752 0.0737567544 0.0400393829 0.0568980686 0.0316100381
      0.0295027029 0.0337173752 0.0189660229 0.0421467163 0.0400393829
      0.0716494173 0.0421467163 0.0442540534 0.0653274134 0.0273953658
      0.0231806953 0.0316100381 0.0358247086 0.0842934325 0.0273953658
      0.0337173752 0.0168586876 0.0400393829 0.0484687239 0.172801539
      0.0295027029 0.0231806953 0.0611127391 0.0400393829 0.0316100381
      0.0442540534 0.0337173752 0.0842934325 0.0379320458 0.0611127391
      0.0231806953 0.0821861029 0.0316100381 0.0295027029 0.0421467163
      0.050576061 0.0379320458 0.0442540534 0.0316100381 0.0231806953
      0.0463613905 0.259202302 0.0442540534 0.0316100381 0.0210733581
      0.0316100381 0.0990447849 0.0316100381 0.0421467163 0.0379320458
      0.0295027029 0.0273953658 0.0337173752 0.0484687239 0.0758640915
      0.0526833981 0.0337173752 0.0400393829 0.0358247086 0.050576061
      0.0821861029 0.0337173752 0.0674347505 0.0484687239 0.0568980686
      0.0210733581 0.050576061 0.050576061 0.0231806953 0.0147513514
      0.0526833981 0.0442540534 0.0316100381 0.0252880305 0.0379320458
      0.0168586876 0.0337173752 0.0716494173 0.0442540534 0.0526833981
      0.0358247086 0.0210733581 0.0463613905 0.0189660229 0.0337173752
      0.0547907315 0.0358247086 0.050576061 0.0379320458 0.0105366791
      0.0463613905 0.107474133 0.0273953658 0.0590054058 0.0316100381
      0.0421467163 0.0442540534 0.0400393829 0.0210733581 0.0484687239
      0.0400393829 0.0442540534 0.0885081068 0.0316100381 0.0463613905
      0.0526833981 0.0653274134 0.0168586876 0.0653274134 0.0526833981
      0.0189660229 0.0273953658 0.0442540534 0.0442540534 0.050576061
      0.0674347505 0.0800787657 0.0358247086 0.0421467163 0.0252880305
      0.0189660229 0.0611127391 0.0547907315 0.0231806953 0.0969374478
      0.0273953658 0. 0.187552899 0.0379320458 0.0295027029 0.0210733581
      0.0779714286 0.0358247086 0.0758640915 0.0252880305 0.0295027029
      0.050576061 0.189660236 0.0210733581 0.0168586876 0.0568980686
      0.0737567544 0.0295027029 0.0126440153 0.124332815 0.0379320458
      0.0358247086 0.0590054058 0.0147513514 0.0316100381 0.0379320458
      0.0210733581 0.0590054058 0.0674347505 0.0231806953 0.0463613905
      0.0442540534 0.0295027029 0.0400393829 0.0590054058 0.0147513514
      0.0674347505 0.0316100381 0.0400393829 0.0948301181 0.0864007697
      0.0316100381 0.0758640915 0.0126440153 0.0421467163 0.0316100381
      0.139084175 0.0168586876 0.0252880305 0.0611127391 0.115903474
      0.0716494173 0.0126440153 0.0590054058 0.0674347505 0.0210733581
      0.0400393829 0.0231806953 0.0231806953</_>
    <_>
      0.0579622202 0.0184425246 0. 0.0447889864 0.0685008019
      0.00526929274 0.0158078782 0.00263464637 0.0316157565 0.0131732319
      0.0605968647 0.0685008019 0.0263464637 0.0158078782 0.021077171
      0.0895779729 0.0658661574 0.00526929274 0.0395196937 0.0105385855
      0.0105385855 0.0974819139 0.021077171 0.0553275719 0.0764047429
      0.0711354539 0.0474236347 0.0105385855 0.202867776 0.0500582792
      0.0105385855 0.0131732319 0.0526929274 0.0158078782 0.0632315129
      0.0764047429 0.0131732319 0.0316157565 0.00263464637 0.0632315129
      0.0605968647 0.0237118173 0.0447889864 0.0421543419 0.121193729
      0.0131732319 0.034250401 0.0184425246 0.00263464637 0.034250401
      0.0316157565 0.0526929274 0.108020499 0.0605968647 0.0658661574
      0.0421543419 0.0105385855 0.0368850492 0.021077171 0.0474236347
      0.0316157565 0.0447889864 0.0500582792 0.021077171 0.0263464637
      0.0184425246 0.0816740394 0.0368850492 0.0289811101 0.021077171
      0.0474236347 0.0737700984 0.0105385855 0.0131732319 0.0421543419
      0.0500582792 0.0895779729 0.0500582792 0.0316157565 0.00526929274
      0.0421543419 0.0289811101 0.0421543419 0.0526929274 0.0816740394
      0.0474236347 0.021077171 0.0685008019 0.0685008019 0. 0.0474236347
      0.0316157565 0.0553275719 0.0579622202 0.0237118173 0.
      0.0605968647 0.0316157565 0.0395196937 0.00263464637 0.0948472694
      0.0316157565 0.113289796 0.0316157565 0.0184425246 0.0500582792
      0.0237118173 0.0395196937 0.0605968647 0. 0.0395196937 0.
      0.0816740394 0.034250401 0.0184425246 0.0764047429 0.00526929274
      0.118559085 0.0184425246 0.0316157565 0.0158078782 0.0421543419
      0.0500582792 0.0263464637 0.0500582792 0.0948472694 0.00526929274
      0.0368850492 0.0474236347 0.0263464637 0.00790393911 0.0658661574
      0.0579622202 0.0447889864 0.0158078782 0.0816740394 0.00790393911
      0.00526929274 0.0184425246 0.0764047429 0.0500582792 0.0579622202
      0.163348079 0.0922126248 0.0764047429 0.0553275719 0.00263464637
      0.0685008019 0.0843086839 0.0869433284 0.0579622202 0.0500582792
      0.0579622202 0.108020499 0.00790393911 0.0579622202 0.0922126248
      0.187059894 0.0131732319 0.0711354539 0.0263464637 0.0579622202
      0.0184425246 0.021077171 0. 0.0685008019 0.0263464637 0.0447889864
      0.00790393911 0.0816740394 0.0289811101 0.0131732319 0.00526929274
      0.0395196937 0.0105385855 0.00263464637 0.0237118173 0.0368850492
      0.00526929274 0.0685008019 0.00526929274 0.0316157565 0.0474236347
      0.0553275719 0.0105385855 0.0316157565 0.0184425246 0.0579622202
      0.0289811101 0.0289811101 0.0922126248 0.0605968647 0.0316157565
      0.0447889864 0.0500582792 0.0368850492 0.00790393911 0.0105385855
      0.0526929274 0. 0.00790393911 0.0764047429 0.0685008019
      0.0553275719 0.0105385855 0.0158078782 0.0421543419 0.171252012
      0.0368850492 0.0474236347 0.0395196937 0.0421543419 0.0632315129
      0.0474236347 0.0764047429 0.0737700984 0.0526929274 0.021077171
      0.0816740394 0.0816740394 0.0447889864 0.034250401 0.0289811101
      0.0553275719 0.0737700984 0.0474236347 0.0737700984 0.034250401
      0.0711354539 0.0579622202 0.0474236347 0.0184425246 0.11592444
      0.0553275719 0.0579622202 0.0685008019 0.0737700984 0.0158078782
      0.0421543419 0.0711354539 0.0263464637 0.00263464637 0.0158078782
      0.168617368 0.021077171 0.00790393911 0.0263464637 0.0711354539
      0.0711354539 0.0263464637 0.0474236347 0.0263464637 0.0711354539
      0.245022118 0.0869433284 0.0579622202 0.0184425246 0.0263464637
      0.0421543419 0.0711354539 0.0895779729 0.0500582792 0.0289811101
      0.0289811101 0.0553275719 0.0395196937 0.0553275719 0.00526929274
      0.0395196937 0.0368850492 0. 0.0395196937 0.0869433284
      0.0843086839 0.0500582792 0.0922126248 0.00263464637 0.0237118173
      0.0764047429 0.10275121 0.0447889864 0.0447889864 0.0289811101
      0.0184425246 0.0105385855 0.0316157565 0.0395196937 0.0895779729
      0.00790393911 0.0316157565 0.00790393911 0.187059894 0.034250401
      0.0632315129 0.034250401 0.0553275719 0.00790393911 0.0447889864
      0.0395196937 0.0974819139</_>
    <_>
      0.0829505324 0.0645170808 0. 0.0737338066 0.0368669033
      0.00614448404 0.0153612094 0.00921672583 0.0706615672 0.0399391465
      0.0460836291 0.0276501775 0.00921672583 0.0737338066 0.0399391465
      0.0706615672 0.0737338066 0.00921672583 0.0460836291 0.0430113859
      0.021505693 0.055300355 0.0460836291 0.00614448404 0.0890950188
      0.0460836291 0.0890950188 0.00921672583 0.138250887 0.0860227719
      0.021505693 0.00614448404 0.10752847 0.0337946601 0.055300355
      0.0522281118 0.00614448404 0.0583725981 0.00614448404 0.0645170808
      0.0645170808 0.0307224188 0.0706615672 0.0245779362 0.13517864
      0.0122889681 0.0337946601 0.0245779362 0.0122889681 0.0522281118
      0.104456224 0.00921672583 0.0522281118 0.0337946601 0.0768060461
      0.0614448376 0.021505693 0.0245779362 0.0368669033 0.0583725981
      0.0614448376 0.0245779362 0.0583725981 0.0368669033 0.0583725981
      0.0245779362 0.0368669033 0.0737338066 0.055300355 0.0276501775
      0.0706615672 0.0491558723 0.00921672583 0.0276501775 0.0706615672
      0.0583725981 0.101383984 0.0122889681 0.0491558723 0.0122889681
      0.0614448376 0.0460836291 0.0737338066 0.0645170808 0.0460836291
      0.0583725981 0.00614448404 0.101383984 0.0522281118 0.
      0.0645170808 0.0860227719 0.0614448376 0.0890950188 0.0491558723
      0.0153612094 0.0645170808 0.0460836291 0.0583725981 0.
      0.0952394977 0.0706615672 0.0522281118 0.0583725981 0.0307224188
      0.0522281118 0.0583725981 0.0276501775 0.0675893202 0.00307224202
      0.0460836291 0.00921672583 0.11060071 0.0276501775 0.0430113859
      0.0645170808 0.0153612094 0.0983117446 0.021505693 0.0276501775
      0.0337946601 0.0460836291 0.0706615672 0.0307224188 0.0522281118
      0.0245779362 0.00307224202 0.0583725981 0.021505693 0.0522281118
      0.0153612094 0.0675893202 0.0368669033 0.0122889681 0.0245779362
      0.0921672583 0.00614448404 0.00614448404 0.021505693 0.0768060461
      0.0276501775 0.0399391465 0.0768060461 0.104456224 0.0645170808
      0.0583725981 0.00307224202 0.0491558723 0.0706615672 0.0921672583
      0.0706615672 0.0276501775 0.0706615672 0.0245779362 0.0122889681
      0.0860227719 0.0890950188 0.0921672583 0.00921672583 0.104456224
      0.0399391465 0.0768060461 0.0921672583 0.0491558723 0.00307224202
      0.0614448376 0.0430113859 0.0399391465 0.0368669033 0.0675893202
      0.021505693 0.00921672583 0.0153612094 0.0430113859 0.00921672583
      0.0153612094 0.0399391465 0.0399391465 0.0245779362 0.0737338066
      0.00614448404 0.0491558723 0.0337946601 0.0430113859 0.00921672583
      0.0829505324 0.0337946601 0.0645170808 0.0737338066 0.0614448376
      0.0460836291 0.0368669033 0.0399391465 0.0706615672 0.079878293
      0.0491558723 0. 0.00307224202 0.0307224188 0.0184334517
      0.00614448404 0.0337946601 0.0675893202 0.0737338066 0.0245779362
      0.0184334517 0.0337946601 0.153612092 0.0737338066 0.00921672583
      0.055300355 0.0368669033 0.0737338066 0.0460836291 0.055300355
      0.104456224 0.0614448376 0.0399391465 0.113672949 0.0522281118
      0.055300355 0.0460836291 0.0184334517 0.0460836291 0.0583725981
      0.055300355 0.0307224188 0.0337946601 0.0583725981 0.055300355
      0.0768060461 0.055300355 0.153612092 0.0307224188 0.0860227719
      0.0952394977 0.0491558723 0.0122889681 0.0307224188 0.116745196
      0.0491558723 0.00307224202 0.0245779362 0.132106408 0.0522281118
      0.00921672583 0.0399391465 0.0430113859 0.0522281118 0.0122889681
      0.0583725981 0.0307224188 0.0368669033 0.0952394977 0.0614448376
      0.055300355 0.0307224188 0.0583725981 0.079878293 0.0768060461
      0.0706615672 0.0430113859 0.0675893202 0.0522281118 0.0614448376
      0.055300355 0.0706615672 0.00921672583 0.0491558723 0.0706615672
      0.00921672583 0.0276501775 0.0768060461 0.113672949 0.0337946601
      0.0768060461 0.00307224202 0.0460836291 0.0983117446 0.0737338066
      0.055300355 0.0184334517 0.0460836291 0.0522281118 0.00614448404
      0.0337946601 0.101383984 0.0522281118 0.0122889681 0.055300355
      0.0430113859 0.129034162 0.0368669033 0.0737338066 0.0153612094
      0.0737338066 0.0307224188 0.079878293 0.0460836291 0.101383984</_>
    <_>
      0.0527957305 0.0395967998 0.0131989326 0.092392534 0.0527957305
      0.0527957305 0.0131989326 0. 0.184785068 0.0395967998 0. 0.
      0.0131989326 0. 0.065994665 0. 0.118790396 0.0131989326
      0.0527957305 0.0131989326 0.065994665 0.0527957305 0.0263978653
      0.0263978653 0.0395967998 0.065994665 0.0263978653 0. 0.13198933
      0.0131989326 0.0263978653 0.0263978653 0.105591461 0.0263978653
      0.0395967998 0.0527957305 0. 0.0791935995 0. 0.065994665
      0.0263978653 0.065994665 0.0791935995 0.0791935995 0.13198933
      0.0263978653 0.0527957305 0.0395967998 0. 0.0527957305 0.
      0.0131989326 0.0791935995 0.0131989326 0.0395967998 0.0395967998
      0.0527957305 0. 0.105591461 0.0527957305 0. 0. 0.0263978653
      0.0131989326 0. 0.0395967998 0. 0.105591461 0.0527957305
      0.0263978653 0.065994665 0.105591461 0. 0.0131989326 0.0263978653
      0.065994665 0.0527957305 0.065994665 0.0395967998 0.0263978653 0.
      0.0131989326 0.092392534 0.0131989326 0.158387199 0.065994665
      0.0131989326 0.0527957305 0.0263978653 0. 0. 0.092392534
      0.0263978653 0. 0.0131989326 0.0131989326 0.0791935995
      0.0263978653 0.0131989326 0.0131989326 0.0263978653 0.0131989326
      0.0395967998 0.0395967998 0. 0.092392534 0.0263978653 0.0395967998
      0.382769048 0.0263978653 0.065994665 0. 0. 0.0263978653
      0.0395967998 0.0263978653 0. 0.0131989326 0.0527957305
      0.0131989326 0.0263978653 0.0527957305 0.0131989326 0.0131989326
      0.0263978653 0.0395967998 0. 0.0527957305 0.0131989326
      0.0527957305 0. 0.13198933 0.0395967998 0.0131989326 0.0395967998
      0.0395967998 0.0263978653 0.0131989326 0.0263978653 0.0395967998
      0. 0.0131989326 0.0131989326 0.0131989326 0.0263978653
      0.0263978653 0. 0.105591461 0.0263978653 0.0527957305 0.0527957305
      0.092392534 0. 0.105591461 0. 0.171586126 0.065994665 0.211182922
      0. 0.0131989326 0.0263978653 0.092392534 0.0791935995 0.0131989326
      0.0263978653 0.0791935995 0.0395967998 0.0395967998 0.
      0.0791935995 0.092392534 0.0527957305 0.0263978653 0.0131989326
      0.0131989326 0.0131989326 0.065994665 0.158387199 0.105591461
      0.0527957305 0.0131989326 0.0395967998 0.0131989326 0. 0.
      0.0395967998 0.065994665 0.0263978653 0.0131989326 0.0131989326
      0.0131989326 0.0395967998 0. 0.0527957305 0.0263978653
      0.0263978653 0.0263978653 0.0263978653 0. 0. 0.0131989326
      0.0395967998 0.0131989326 0.065994665 0.0131989326 0.0263978653 0.
      0.158387199 0.0131989326 0.0131989326 0.0263978653 0.065994665
      0.0263978653 0. 0.0395967998 0.145188257 0.0791935995 0.0395967998
      0.0263978653 0. 0.0395967998 0.13198933 0.0263978653 0.0395967998
      0.0791935995 0. 0.0131989326 0.0131989326 0.0131989326
      0.0263978653 0.0527957305 0.0263978653 0.0395967998 0.0527957305
      0.0791935995 0. 0.0395967998 0.065994665 0.0263978653 0.0131989326
      0.13198933 0. 0.0131989326 0.0527957305 0.0131989326 0.0131989326
      0.0263978653 0.0527957305 0.065994665 0.065994665 0.0395967998
      0.0263978653 0.0263978653 0.0527957305 0.065994665 0.0131989326
      0.0395967998 0.0263978653 0.0263978653 0.0131989326 0.0131989326
      0.0527957305 0.0395967998 0.0395967998 0.0131989326 0.0395967998
      0.0395967998 0. 0.0395967998 0.092392534 0. 0.0263978653
      0.065994665 0.065994665 0.0263978653 0.0395967998 0.0263978653
      0.0395967998 0.0791935995 0.092392534 0.065994665 0.0395967998
      0.0395967998 0. 0. 0.0395967998 0.0263978653 0.0791935995
      0.0527957305 0.0395967998 0. 0.0791935995 0.065994665 0.
      0.0131989326 0.0791935995 0. 0. 0.065994665 0.0131989326</_>
    <_>
      0.0423407033 0.0846814066 0.0190533157 0.0508088432 0.076213263
      0.0508088432 0.0423407033 0.0254044216 0.0995006487 0.0381066315
      0.0296384916 0.0317555256 0.0296384916 0.0338725597 0.0423407033
      0.0254044216 0.0995006487 0.0317555256 0.0550429113 0.0296384916
      0.0846814066 0.0211703517 0.0804473311 0.0254044216 0.0338725597
      0.0402236655 0.0148192458 0.0211703517 0.11220286 0.0571599454
      0.0698621571 0.0465747714 0.0719791949 0.0677451193 0.0592769831
      0.0719791949 0.0275214557 0.0402236655 0.0444577374 0.0381066315
      0.0296384916 0.154543564 0.0635110512 0.0296384916 0.0613940172
      0.0338725597 0.0825643688 0.0613940172 0.0254044216 0.0444577374
      0.0254044216 0.0105851758 0.0465747714 0.0508088432 0.0529258773
      0.0232873857 0.0465747714 0.0338725597 0.107968792 0.0486918055
      0.0465747714 0.0190533157 0.0232873857 0.0529258773 0.0211703517
      0.0825643688 0.0254044216 0.0550429113 0.0846814066 0.0613940172
      0.0338725597 0.076213263 0.0190533157 0.0783303007 0.0232873857
      0.0952665806 0.0677451193 0.0867984369 0.0211703517 0.0931495428
      0.0381066315 0.091032505 0.0486918055 0.0359895974 0.0317555256
      0.091032505 0.0444577374 0.076213263 0.0465747714 0. 0.0232873857
      0.103734717 0.0444577374 0.0148192458 0.0190533157 0.0190533157
      0.0698621571 0.0635110512 0.0550429113 0.0232873857 0.0571599454
      0.0486918055 0.12913914 0.0381066315 0.0635110512 0.065628089
      0.0804473311 0.0867984369 0.152426526 0.107968792 0.0952665806
      0.0486918055 0.0381066315 0.0635110512 0.0740962252 0.0381066315
      0.0317555256 0.0423407033 0.0296384916 0.0529258773 0.0486918055
      0.0550429113 0.0402236655 0.0338725597 0.0952665806 0.0211703517
      0.0275214557 0.0402236655 0.0635110512 0.0846814066 0.0211703517
      0.0508088432 0.0254044216 0.0613940172 0.0550429113 0.0867984369
      0.0127022108 0.0211703517 0.0423407033 0.0423407033 0.0338725597
      0.0486918055 0.0317555256 0.0486918055 0.0190533157 0.0486918055
      0.0169362798 0.107968792 0.0381066315 0.0105851758 0.0508088432
      0.0740962252 0.0211703517 0.0317555256 0.0423407033 0.0465747714
      0.0550429113 0.101617686 0.0317555256 0.0190533157 0.0148192458
      0.0486918055 0.103734717 0.0592769831 0.0550429113 0.0296384916
      0.0846814066 0.0211703517 0.0211703517 0.0465747714 0.124905072
      0.0571599454 0.0211703517 0.0508088432 0.0381066315 0.0402236655
      0.122788034 0.0508088432 0.0804473311 0.0423407033 0.0529258773
      0.0317555256 0.0571599454 0.076213263 0.0232873857 0.0444577374
      0.0973836109 0.0508088432 0.0211703517 0.0381066315 0.0529258773
      0.0275214557 0.0423407033 0.0931495428 0.0635110512 0.0571599454
      0.0423407033 0.0317555256 0.0296384916 0.0190533157 0.0338725597
      0.0338725597 0.0571599454 0.0783303007 0.0698621571 0.0211703517
      0.0444577374 0.0211703517 0.0254044216 0.0381066315 0.0296384916
      0.0381066315 0.0338725597 0.091032505 0.00846813992 0.0550429113
      0.065628089 0.0508088432 0.0719791949 0.0169362798 0.0592769831
      0.0783303007 0.0804473311 0.0338725597 0.0423407033 0.0508088432
      0.0169362798 0.11220286 0.0211703517 0.0444577374 0.0211703517
      0.0508088432 0.0296384916 0.0529258773 0.0613940172 0.0296384916
      0.0232873857 0.0867984369 0.0550429113 0.0169362798 0.114319891
      0.0232873857 0.00846813992 0.131256178 0.0635110512 0.0359895974
      0.0952665806 0.0740962252 0.0486918055 0.0550429113 0.00423406996
      0.0338725597 0.0338725597 0.0190533157 0.0465747714 0.0211703517
      0.0550429113 0.0613940172 0.0148192458 0.0211703517 0.0677451193
      0.0635110512 0.0677451193 0.0613940172 0.0444577374 0.0254044216
      0.0613940172 0.0402236655 0.065628089 0.0677451193 0.0211703517
      0.0825643688 0.0592769831 0.0190533157 0.0423407033 0.0444577374
      0.0148192458 0.0952665806 0.0148192458 0.0613940172 0.116436929
      0.0232873857 0.0465747714 0.0592769831 0.0275214557 0.0402236655
      0.0254044216 0.0825643688 0.0402236655 0.0423407033 0.0846814066
      0.0825643688 0.127022102 0.0296384916 0.0698621571 0.0740962252
      0.0169362798 0.0232873857 0.076213263 0.0232873857</_>
    <_>
      0.0542075709 0.0619515106 0. 0.0154878777 0.0464636311
      0.0542075709 0.0154878777 0.0154878777 0.0309757553 0.0309757553
      0.0387196913 0.0387196913 0.0387196913 0.0309757553 0.0464636311
      0.0309757553 0.116159081 0.0542075709 0.0232318155 0. 0.0619515106
      0.0309757553 0.0542075709 0.00774393883 0. 0.100671202
      0.0154878777 0.0464636311 0.170366645 0.0309757553 0.0309757553
      0.0464636311 0.0464636311 0.0309757553 0.0696954504 0.0387196913
      0.0232318155 0.0232318155 0. 0.0464636311 0.0619515106 0.108415142
      0.0542075709 0.0309757553 0.154878765 0.0154878777 0.0774393827
      0.0387196913 0.0387196913 0.0154878777 0.0154878777 0.0309757553
      0.0464636311 0.0387196913 0.0464636311 0.0309757553 0.0464636311
      0.0154878777 0.0542075709 0.0309757553 0.0387196913 0.
      0.0542075709 0.0464636311 0.00774393883 0.0232318155 0.0464636311
      0.0542075709 0.0851833224 0.0232318155 0.0154878777 0.0929272622
      0.0232318155 0.0774393827 0.0154878777 0.0309757553 0.0619515106
      0.100671202 0.0154878777 0.0464636311 0. 0.0774393827 0.0464636311
      0.00774393883 0.0387196913 0.0309757553 0.0387196913 0.0696954504
      0.0232318155 0. 0.0154878777 0.0464636311 0.0154878777
      0.00774393883 0.00774393883 0.0154878777 0.0309757553 0.0309757553
      0.0232318155 0.0232318155 0.0232318155 0.0232318155 0.50335604
      0.0154878777 0.0387196913 0.0309757553 0.0387196913 0.0619515106
      0.139390901 0.0696954504 0.0542075709 0.00774393883 0.0387196913
      0.0619515106 0.0774393827 0.0154878777 0.00774393883 0.0154878777
      0.0232318155 0.0309757553 0.0542075709 0.0232318155 0.0309757553
      0.0232318155 0.0619515106 0.00774393883 0.0154878777 0.0387196913
      0.0309757553 0.0464636311 0.0232318155 0.0154878777 0.0232318155
      0.0232318155 0.0154878777 0.131646961 0.00774393883 0.0232318155
      0.0309757553 0.0232318155 0. 0.0387196913 0.0464636311
      0.0232318155 0.0154878777 0.0387196913 0. 0.108415142
      0.00774393883 0.0154878777 0.0232318155 0.0696954504 0.0232318155
      0.0232318155 0.0542075709 0.0154878777 0.0774393827 0.232318163
      0.0154878777 0.0232318155 0.00774393883 0.0232318155 0.0696954504
      0.0309757553 0.0387196913 0.0309757553 0.0309757553 0.00774393883
      0.0309757553 0.0542075709 0.0464636311 0.0232318155 0.0154878777
      0.0696954504 0.0232318155 0.0464636311 0.0929272622 0.0309757553
      0.0696954504 0.0309757553 0.0387196913 0.0154878777 0.0309757553
      0.0387196913 0.00774393883 0.0232318155 0.0154878777 0.0309757553
      0.0154878777 0.0154878777 0.0309757553 0. 0.0232318155
      0.0619515106 0.0387196913 0.0774393827 0.0542075709 0.0154878777
      0.0232318155 0. 0.0309757553 0.0232318155 0.0464636311
      0.0309757553 0.0232318155 0.0154878777 0.0154878777 0.0774393827
      0.00774393883 0.0464636311 0.0154878777 0.0309757553 0.
      0.0387196913 0. 0.0619515106 0.0232318155 0.0309757553
      0.0542075709 0. 0.0619515106 0.0774393827 0.0851833224
      0.0387196913 0.00774393883 0.0464636311 0. 0.0464636311
      0.0387196913 0.0309757553 0.0387196913 0.0387196913 0.0619515106
      0.0387196913 0.0387196913 0.00774393883 0.0154878777 0.0309757553
      0.0464636311 0.0232318155 0.0232318155 0.0154878777 0. 0.201342404
      0.0232318155 0.0309757553 0.0464636311 0.100671202 0.0154878777
      0.0464636311 0.0232318155 0.0309757553 0.00774393883 0.185854524
      0.0232318155 0.0154878777 0.0309757553 0.0309757553 0.0154878777
      0.0154878777 0.0154878777 0.00774393883 0.0387196913 0.0309757553
      0.0154878777 0.0232318155 0.0464636311 0.0232318155 0.0232318155
      0.0154878777 0.0309757553 0.0387196913 0.0309757553 0.0232318155
      0.0309757553 0.0232318155 0.0154878777 0.0851833224 0.0309757553
      0.0387196913 0.0851833224 0.0464636311 0.0696954504 0.0387196913
      0.0154878777 0.0309757553 0.00774393883 0.0929272622 0.0232318155
      0.0464636311 0.123903021 0.100671202 0.100671202 0.0154878777
      0.0929272622 0.0542075709 0.0232318155 0.0154878777 0.0232318155
      0.</_>
    <_>
      0.0397213697 0.0324993022 0.168514907 0.0132404566 0.090275839
      0.0276845917 0.0312956236 0.00842574518 0.0589802153 0.0324993022
      0.0529618263 0.0337029807 0.0409250483 0.0734243467 0.0312956236
      0.0192588456 0.126386181 0.0048147114 0.0553691834 0.0168514904
      0.0433324017 0.0108331004 0.0252772346 0.0192588456 0.018055167
      0.0637949258 0.0240735579 0.0168514904 0.169718578 0.0517581478
      0.0228698794 0.0132404566 0.0469434373 0.0409250483 0.0722206682
      0.0914795175 0.0204625241 0.0204625241 0.0156478118 0.0276845917
      0.0397213697 0.0228698794 0.250364989 0.0324993022 0.266012818
      0.120367788 0.0240735579 0.0373140126 0.0493507907 0.018055167
      0.0240735579 0.0228698794 0.0457397588 0.0264809132 0.0553691834
      0.0240735579 0.0553691834 0.0192588456 0.0192588456 0.00842574518
      0.0589802153 0.0216662008 0.0156478118 0.0072220671 0.00601838948
      0.0312956236 0.0397213697 0.0517581478 0.0252772346 0.0108331004
      0.0096294228 0.134811923 0.0096294228 0.0433324017 0.0132404566
      0.0541655049 0.0734243467 0.0517581478 0.0144441342 0.0541655049
      0.0108331004 0.0264809132 0.0288882684 0.0240735579 0.0288882684
      0.0565728582 0.0144441342 0.157681793 0.0324993022 0.30814153
      0.00842574518 0.0541655049 0.0228698794 0.0048147114 0.0216662008
      0.0505544692 0.0722206682 0.0072220671 0.0324993022 0.0192588456
      0.0469434373 0.0144441342 0.172125936 0.0192588456 0.0216662008
      0.018055167 0.0385176912 0.0264809132 0.0445360802 0.0192588456
      0.0288882684 0.0264809132 0.0770353824 0.0168514904 0.0168514904
      0.0264809132 0.0361103341 0.0240735579 0.0108331004 0.0168514904
      0.139626637 0.0228698794 0.0529618263 0.0276845917 0.06860964
      0.0072220671 0.0168514904 0.0168514904 0.0048147114 0.0216662008
      0.0132404566 0.0361103341 0.00601838948 0.0132404566 0.0108331004
      0.105923653 0.0108331004 0.0072220671 0.0132404566 0.0288882684
      0.0168514904 0.0481471159 0.0300919469 0.0818500966 0.0409250483
      0.0758317038 0.0072220671 0.0842574537 0.0168514904 0.0144441342
      0.0240735579 0.0240735579 0.0156478118 0.0204625241 0.0072220671
      0.0240735579 0.0324993022 0.162496507 0.0168514904 0.00842574518
      0.0108331004 0.0276845917 0.0312956236 0.0168514904 0.0300919469
      0.0216662008 0.0409250483 0.0445360802 0.0517581478 0.0577765368
      0.0505544692 0.0156478118 0.0168514904 0.0264809132 0.0361103341
      0.0228698794 0.0517581478 0.0168514904 0.0312956236 0.0758317038
      0.0204625241 0.0096294228 0.0312956236 0.0469434373 0.00361103355
      0.0204625241 0.0228698794 0.0204625241 0.0192588456 0.0132404566
      0.0481471159 0.0312956236 0.0168514904 0.0373140126 0.0288882684
      0.0216662008 0.0445360802 0.0264809132 0.018055167 0.119164109
      0.0397213697 0.0252772346 0.0613875724 0.237124532 0.0108331004
      0.0048147114 0.0264809132 0.0409250483 0.0132404566 0.018055167
      0.00842574518 0.0240735579 0.0144441342 0.0361103341 0.00842574518
      0.0361103341 0.0216662008 0.0192588456 0.0866648033 0.0192588456
      0.0300919469 0.0469434373 0.0216662008 0.0349066593 0.0553691834
      0.0300919469 0.0108331004 0.0553691834 0.0276845917 0.0505544692
      0.0204625241 0.0228698794 0.0637949258 0.0216662008 0.0240735579
      0.0312956236 0.0349066593 0.0240735579 0.0144441342 0.0108331004
      0.0469434373 0.0132404566 0. 0.187773749 0.0204625241 0.018055167
      0.0914795175 0.113145716 0.018055167 0.0397213697 0.0096294228
      0.0072220671 0.0300919469 0.0698133186 0.0361103341 0.0264809132
      0.0240735579 0.0132404566 0.0096294228 0.0156478118 0.0529618263
      0.0312956236 0.0409250483 0.0433324017 0.0264809132 0.0228698794
      0.0385176912 0.0529618263 0.0216662008 0.0252772346 0.0361103341
      0.0300919469 0.0300919469 0.0216662008 0.0096294228 0.0228698794
      0.0312956236 0.0349066593 0.0108331004 0.0373140126 0.0409250483
      0.0240735579 0.00842574518 0.0252772346 0.255179703 0.00361103355
      0.00842574518 0.148052379 0.0349066593 0.0132404566 0.018055167
      0.10833101 0.0264809132 0.0156478118 0.0252772346 0.0349066593
      0.0072220671 0.0349066593 0.0445360802 0.0264809132</_>
    <_>
      0.107484572 0.0268711429 0.0358281918 0.0447852388 0.0716563836
      0.00895704795 0.0537422858 0. 0.0895704776 0.0895704776
      0.0626993328 0.0358281918 0.0268711429 0.00895704795 0.0716563836
      0.0537422858 0.125398666 0.0179140959 0.0447852388 0.0447852388
      0.0179140959 0.0716563836 0.00895704795 0.0895704776 0.0537422858
      0.0358281918 0.0626993328 0.0179140959 0.0179140959 0.0358281918
      0.0358281918 0.0179140959 0.0179140959 0.0268711429 0.116441622
      0.134355709 0.0179140959 0.0626993328 0.0179140959 0.0179140959
      0.0626993328 0.00895704795 0.0537422858 0.0447852388 0.
      0.0268711429 0.0626993328 0. 0.0268711429 0.0447852388
      0.0447852388 0.0268711429 0.0358281918 0.0626993328 0.0716563836
      0.0447852388 0.0179140959 0.0537422858 0.0179140959 0.0626993328
      0.0447852388 0.0895704776 0.0447852388 0.0447852388 0.0626993328
      0.0358281918 0.0447852388 0.0358281918 0.0268711429 0.0537422858
      0.0179140959 0.0895704776 0.0447852388 0.0626993328 0.00895704795
      0.0985275209 0. 0.0806134269 0.0268711429 0. 0.0626993328
      0.0716563836 0.0447852388 0.0537422858 0.0179140959 0.0806134269
      0.0537422858 0.00895704795 0.0626993328 0. 0.0447852388
      0.0447852388 0.0537422858 0.0358281918 0.0895704776 0.00895704795
      0.0716563836 0.0537422858 0.0268711429 0.0268711429 0.0537422858
      0.0268711429 0.0626993328 0.0268711429 0.0179140959 0.0537422858
      0.0358281918 0.0537422858 0.0716563836 0.0268711429 0.0447852388
      0.0179140959 0.107484572 0.0537422858 0.0179140959 0.0626993328
      0.0358281918 0.0716563836 0.0179140959 0.0358281918 0.0358281918
      0.0447852388 0.0626993328 0.107484572 0.143312767 0.0716563836
      0.0358281918 0.0268711429 0.0358281918 0.0179140959 0.0716563836
      0.0537422858 0.0268711429 0.0447852388 0.0358281918 0.0447852388
      0.0268711429 0.0358281918 0.0447852388 0.107484572 0.0895704776
      0.0537422858 0.0626993328 0.0895704776 0.0895704776 0.0716563836
      0. 0.125398666 0.0537422858 0.0537422858 0.0537422858 0.0537422858
      0.00895704795 0.0537422858 0.0268711429 0.0716563836 0.0716563836
      0.0179140959 0.0358281918 0.0806134269 0.0447852388 0.0716563836
      0.0179140959 0.0179140959 0. 0.0268711429 0.0447852388
      0.0716563836 0.00895704795 0.107484572 0.0268711429 0.0358281918
      0. 0.0895704776 0.0537422858 0.0447852388 0.0716563836
      0.0537422858 0.0447852388 0.0358281918 0.0806134269 0.0626993328
      0.0626993328 0.125398666 0.0268711429 0.0626993328 0.0806134269
      0.0358281918 0.0537422858 0.0537422858 0.0716563836 0.0985275209
      0.0447852388 0.0179140959 0.0358281918 0.0268711429 0.0179140959
      0.00895704795 0.0537422858 0.0268711429 0.00895704795 0.0358281918
      0.0447852388 0.0537422858 0.0358281918 0.00895704795 0.0537422858
      0. 0.0179140959 0.0358281918 0.0716563836 0.0895704776
      0.0179140959 0.0626993328 0.0358281918 0.0537422858 0.0447852388
      0.0268711429 0.0806134269 0.0716563836 0.0358281918 0.0537422858
      0.0716563836 0.0716563836 0.0806134269 0.0537422858 0.0447852388
      0.0268711429 0.0626993328 0.107484572 0.0268711429 0.0895704776
      0.0447852388 0.0537422858 0.0626993328 0.0179140959 0.0537422858
      0.0716563836 0.0716563836 0.0626993328 0.0358281918 0. 0.
      0.0806134269 0.0985275209 0.00895704795 0.0179140959 0.0716563836
      0.107484572 0.0985275209 0.0358281918 0.0447852388 0.0537422858
      0.0358281918 0.0985275209 0.0447852388 0.0447852388 0.0716563836
      0.0358281918 0.0985275209 0.134355709 0.0985275209 0.0626993328
      0.0716563836 0.125398666 0.0985275209 0.0268711429 0. 0.0179140959
      0.0806134269 0.0268711429 0.0358281918 0.0268711429 0.0358281918
      0.0358281918 0.0626993328 0.0537422858 0.0268711429 0.0716563836
      0.125398666 0.0716563836 0. 0.0179140959 0.0626993328 0.
      0.0179140959 0.0358281918 0.00895704795 0.0268711429 0.0179140959
      0.0358281918 0.0179140959 0.0447852388 0.0626993328 0.125398666
      0.0179140959 0.0268711429 0.107484572 0.125398666 0.0358281918</_>
    <_>
      0.0348570123 0.0217856336 0.00435712654 0.0566426478 0.100213915
      0.0174285062 0.0609997734 0.0304998867 0.00871425308 0.0566426478
      0.0914996639 0.213499203 0.0871425346 0.0261427611 0.0784282833
      0.0653569028 0.117642425 0.0130713806 0.0130713806 0.0261427611
      0.0392141417 0.126356676 0.0217856336 0.0217856336 0.0653569028
      0.113285296 0.00871425308 0.0261427611 0.0435712673 0.0827854052
      0.0479283929 0.0304998867 0.0130713806 0.0174285062 0.074071154
      0.0827854052 0.0130713806 0.0174285062 0.0435712673 0.0958567858
      0.0784282833 0.0479283929 0.0435712673 0.0784282833 0.0261427611
      0.0130713806 0.0697140247 0.0609997734 0.00435712654 0.0871425346
      0.0871425346 0.108928166 0.0392141417 0.0522855222 0.0174285062
      0.00871425308 0.0348570123 0.117642425 0.0174285062 0.0174285062
      0.0784282833 0.0566426478 0.0479283929 0.0566426478 0.0261427611
      0.0479283929 0.156856567 0.0217856336 0.0174285062 0.0217856336
      0.0130713806 0.0871425346 0.0217856336 0.0609997734 0.0261427611
      0.0653569028 0.0130713806 0. 0.0392141417 0.0435712673
      0.0304998867 0.0435712673 0.0261427611 0. 0.0304998867
      0.0392141417 0.0522855222 0.0261427611 0.0217856336 0.
      0.0827854052 0.0304998867 0.0261427611 0.0174285062 0.0479283929
      0.0217856336 0.0914996639 0.0566426478 0.0304998867 0.0174285062
      0.00435712654 0.0304998867 0.0609997734 0.0479283929 0.0130713806
      0.0784282833 0.0261427611 0.0392141417 0.0217856336 0.0522855222
      0.117642425 0.0304998867 0. 0.0304998867 0.0435712673 0.0130713806
      0.0348570123 0.108928166 0.00435712654 0.121999547 0.0304998867
      0.0261427611 0.104571044 0.00435712654 0.0217856336 0.0697140247
      0.00871425308 0.0130713806 0.0392141417 0.0653569028 0.0174285062
      0.0304998867 0.0479283929 0.0392141417 0.0348570123 0.0130713806
      0.0174285062 0.0522855222 0.0174285062 0.074071154 0.0871425346
      0.0348570123 0.0958567858 0.00871425308 0.0479283929 0.0697140247
      0.0217856336 0.0784282833 0.16557081 0.0435712673 0.0261427611
      0.0522855222 0.0609997734 0.130713806 0.0392141417 0.0392141417
      0.148142308 0.0522855222 0.0522855222 0.0174285062 0.0217856336
      0.0522855222 0.0304998867 0.0435712673 0.00871425308 0.0566426478
      0.00871425308 0.00871425308 0.0217856336 0.0697140247 0.0435712673
      0.0392141417 0.0304998867 0.217856333 0.0392141417 0.0130713806
      0.074071154 0.00871425308 0.0435712673 0.0304998867 0.0217856336
      0.00871425308 0.0784282833 0.0914996639 0.0174285062 0.0174285062
      0.0304998867 0.0130713806 0.00871425308 0.0217856336 0.0174285062
      0.0653569028 0.0348570123 0.100213915 0.0217856336 0.0217856336
      0.0261427611 0.0261427611 0.0609997734 0.0174285062 0.00871425308
      0.23528485 0.100213915 0.0697140247 0.0304998867 0.0348570123
      0.0261427611 0.0217856336 0.0130713806 0.0304998867 0.00435712654
      0.0348570123 0.0871425346 0.0435712673 0.0479283929 0.00871425308
      0.126356676 0.0566426478 0.0261427611 0.0653569028 0.0348570123
      0.00435712654 0.0348570123 0.0479283929 0.0392141417 0.0392141417
      0.0435712673 0.0522855222 0.0653569028 0.0392141417 0.0217856336
      0.0130713806 0.0217856336 0.0217856336 0.0479283929 0.0304998867
      0.0174285062 0.0566426478 0.0392141417 0.0348570123 0.0784282833
      0.0217856336 0.0174285062 0.152499437 0.0392141417 0.0130713806
      0.0435712673 0.0958567858 0.0174285062 0.0392141417 0.0217856336
      0.0304998867 0.121999547 0.0522855222 0.0304998867 0.0609997734
      0.0174285062 0.0479283929 0.0348570123 0.0261427611 0.074071154
      0.00871425308 0.0522855222 0.0217856336 0.00871425308 0.0261427611
      0.0217856336 0.0217856336 0.0348570123 0.0174285062 0.0348570123
      0.0261427611 0.0435712673 0.0435712673 0.0522855222 0.16557081
      0.0304998867 0.0304998867 0.00435712654 0.0304998867 0.0566426478
      0.0130713806 0.0261427611 0.0392141417 0.0130713806 0.0130713806
      0.00871425308 0.0566426478 0.00871425308 0.0217856336 0.0479283929
      0.0174285062 0.0392141417 0.0261427611 0.0130713806 0.0304998867
      0.0130713806 0.0392141417 0.0174285062 0.161213696</_>
    <_>
      0.125379533 0.0455925576 0. 0.0341944173 0.0911851153 0. 0. 0.
      0.0797869787 0.0455925576 0.0341944173 0.113981396 0.0227962788 0.
      0.0227962788 0.0341944173 0.102583252 0.0113981394 0.0455925576
      0.0455925576 0.0227962788 0.056990698 0.0113981394 0.0455925576
      0.0683888346 0.056990698 0.0455925576 0. 0.239360929 0. 0.
      0.0113981394 0.0683888346 0.0227962788 0.136777669 0.125379533 0.
      0.0227962788 0. 0.056990698 0.0455925576 0.0227962788 0.0683888346
      0.0683888346 0.170972094 0. 0.0227962788 0.0341944173 0.
      0.0113981394 0.102583252 0.0227962788 0.056990698 0.0227962788
      0.102583252 0.0341944173 0.0113981394 0.0227962788 0.0227962788 0.
      0.056990698 0.0227962788 0.0113981394 0. 0.0113981394 0.0113981394
      0.0911851153 0.056990698 0.0341944173 0. 0.0455925576 0.0911851153
      0. 0.0227962788 0.0341944173 0.056990698 0.125379533 0.0227962788
      0.0227962788 0. 0.0455925576 0.0227962788 0.0341944173
      0.0227962788 0.136777669 0.056990698 0.0341944173 0.159573957
      0.0341944173 0. 0.0341944173 0.056990698 0.0227962788 0.102583252
      0. 0. 0.0455925576 0.0341944173 0.056990698 0. 0.0683888346 0.
      0.0341944173 0.0113981394 0. 0.0227962788 0.0455925576
      0.0341944173 0.102583252 0. 0.0227962788 0. 0.0113981394 0.
      0.0227962788 0.102583252 0. 0.113981396 0.0341944173 0.0341944173
      0.0113981394 0.0341944173 0.0455925576 0. 0.0683888346 0.056990698
      0. 0.0227962788 0.0113981394 0.056990698 0. 0.0227962788
      0.0227962788 0.0113981394 0.0455925576 0.0911851153 0. 0.
      0.0113981394 0.0455925576 0.0227962788 0.0341944173 0.102583252
      0.0227962788 0.0911851153 0.102583252 0. 0.0797869787 0.0341944173
      0.0341944173 0.0911851153 0.0455925576 0.0683888346 0.0341944173
      0.0113981394 0.0455925576 0.0911851153 0.239360929 0.0113981394
      0.0455925576 0.0227962788 0.0911851153 0.0113981394 0.0227962788
      0.0113981394 0.0683888346 0.0455925576 0.0683888346 0.0113981394
      0.0683888346 0.0227962788 0. 0. 0. 0.0341944173 0. 0.0341944173
      0.0455925576 0.0227962788 0.125379533 0. 0.0341944173 0.0455925576
      0.0683888346 0. 0.056990698 0.0113981394 0.0341944173 0.0683888346
      0.0341944173 0.0227962788 0.113981396 0.0113981394 0.0341944173
      0.0455925576 0.0341944173 0. 0. 0.0683888346 0. 0. 0.0113981394
      0.0911851153 0.0911851153 0.0113981394 0. 0.0227962788 0.170972094
      0.0113981394 0.0227962788 0.0113981394 0.0113981394 0.0683888346
      0.0797869787 0.0227962788 0.0455925576 0.136777669 0.0113981394
      0.0341944173 0.0455925576 0.0227962788 0. 0. 0.056990698
      0.056990698 0.0227962788 0.0113981394 0.0113981394 0.136777669
      0.0683888346 0.056990698 0.0113981394 0.159573957 0.0227962788
      0.056990698 0.0227962788 0.0455925576 0. 0.0113981394 0.0113981394
      0.0455925576 0. 0.0113981394 0.0797869787 0.0113981394 0.
      0.0341944173 0.0911851153 0.0797869787 0. 0.0113981394
      0.0683888346 0.0455925576 0.193768367 0.0683888346 0.0455925576
      0.0341944173 0.0113981394 0.0797869787 0.0227962788 0.0683888346
      0.0683888346 0.0455925576 0.0227962788 0.0455925576 0.0113981394
      0.0455925576 0. 0.0455925576 0.0455925576 0. 0.0455925576
      0.0683888346 0.0113981394 0.0227962788 0.0797869787 0.
      0.0341944173 0.0341944173 0.159573957 0.0341944173 0.056990698
      0.0113981394 0. 0. 0.0227962788 0. 0.056990698 0. 0.0113981394
      0.0341944173 0.0455925576 0.0227962788 0.056990698 0.0113981394 0.
      0.0113981394 0.0227962788 0.113981396 0.0683888346</_>
    <_>
      0.0149309803 0.0746548995 0.0149309803 0.0746548995 0.0970513746
      0.0447929427 0.111982353 0.0522584319 0.0298619606 0.0298619606
      0.0821203887 0.0223964714 0.0970513746 0.0373274498 0.0970513746
      0.0223964714 0.0597239211 0.0373274498 0.0223964714 0.0223964714
      0.0373274498 0.0149309803 0.0746548995 0.0298619606 0.0298619606
      0.0223964714 0.0298619606 0.0373274498 0.0373274498 0.0522584319
      0.0671894103 0.0298619606 0.0298619606 0.0746548995 0.0447929427
      0.0298619606 0.0447929427 0.0298619606 0.0373274498 0.0149309803
      0.0746548995 0.0298619606 0.156775296 0.0821203887 0.164240777
      0.0373274498 0.0447929427 0.0746548995 0.0597239211 0.0597239211
      0.00746549014 0.0373274498 0.0223964714 0.0149309803 0.0746548995
      0.0149309803 0.0522584319 0.0671894103 0.0671894103 0.0298619606
      0.00746549014 0.0447929427 0. 0.0373274498 0.0223964714
      0.0223964714 0.0149309803 0.0298619606 0.0746548995 0.0597239211
      0.0223964714 0.0970513746 0.0298619606 0.0746548995 0.0373274498
      0.0671894103 0.0447929427 0.0821203887 0.0522584319 0.0746548995
      0.0298619606 0.0970513746 0.0447929427 0.0149309803 0.00746549014
      0.0970513746 0.0597239211 0.0597239211 0.0223964714 0.00746549014
      0.0149309803 0.0821203887 0.0447929427 0.0149309803 0.0522584319
      0. 0.141844317 0.0895858854 0.0821203887 0.0223964714 0.
      0.0149309803 0.119447842 0.0373274498 0.00746549014 0.0373274498
      0.0522584319 0.0970513746 0.0149309803 0.0223964714 0.0597239211
      0.0522584319 0.00746549014 0.0746548995 0.0522584319 0.00746549014
      0.0149309803 0.00746549014 0.0746548995 0.0895858854 0.0298619606
      0.0223964714 0.0597239211 0.0746548995 0.0895858854 0.0149309803
      0.0597239211 0.0298619606 0.0821203887 0.0447929427 0.0223964714
      0.0298619606 0.0373274498 0.0746548995 0.0298619606 0.126913339
      0.0149309803 0.0149309803 0.0373274498 0.0447929427 0.0373274498
      0.0597239211 0. 0.0223964714 0.0373274498 0.0447929427
      0.0298619606 0.0522584319 0.0223964714 0.00746549014 0.0895858854
      0.0821203887 0.0223964714 0. 0.0298619606 0.0970513746
      0.0373274498 0.0671894103 0.0373274498 0.0149309803 0.0223964714
      0.104516864 0.0597239211 0.0821203887 0.0223964714 0. 0.0447929427
      0.00746549014 0.0671894103 0.0298619606 0.0298619606 0.0895858854
      0.0223964714 0.0597239211 0. 0.0447929427 0.0373274498
      0.0149309803 0.0746548995 0.0298619606 0.0522584319 0.0149309803
      0.0895858854 0.0671894103 0.0223964714 0.0522584319 0.156775296
      0.0223964714 0.0373274498 0.0373274498 0.0671894103 0.0298619606
      0.111982353 0.0746548995 0.0746548995 0.0597239211 0.0522584319
      0.0522584319 0.0298619606 0.00746549014 0.0597239211 0.0223964714
      0.0522584319 0.164240777 0.0373274498 0.0298619606 0.0447929427
      0.00746549014 0.0223964714 0.00746549014 0.0149309803 0.0522584319
      0.00746549014 0.0447929427 0.0223964714 0.0373274498 0.0746548995
      0.0373274498 0.0373274498 0. 0.119447842 0.0149309803 0.0970513746
      0.0373274498 0.0597239211 0.0895858854 0.0447929427 0.0597239211
      0.0447929427 0.0746548995 0.00746549014 0.0223964714 0.0447929427
      0.0447929427 0.0373274498 0.0298619606 0.0373274498 0.0895858854
      0.0447929427 0.0149309803 0.0522584319 0.0298619606 0.00746549014
      0.104516864 0.0522584319 0.0597239211 0.0447929427 0.119447842
      0.0522584319 0.0373274498 0.0298619606 0.0373274498 0.0447929427
      0.0597239211 0.0223964714 0.0298619606 0.0223964714 0.104516864
      0.0149309803 0.0149309803 0.0597239211 0.0447929427 0.0522584319
      0.0522584319 0.0298619606 0.0597239211 0.0671894103 0.0597239211
      0.0447929427 0.0522584319 0.0149309803 0.0671894103 0.0447929427
      0.0149309803 0.0671894103 0.0746548995 0.0298619606 0.111982353
      0.0223964714 0.0447929427 0.0373274498 0.00746549014 0.0821203887
      0.0895858854 0.00746549014 0.0298619606 0.0223964714 0.149309799
      0.0895858854 0.0522584319 0.104516864 0.0671894103 0.119447842
      0.0447929427 0.0895858854 0.0223964714 0.0447929427 0.0373274498
      0.111982353 0.0223964714</_>
    <_>
      0.0417963341 0.0325082578 0.00464403722 0.0139321117 0.0371522978
      0.0139321117 0.0139321117 0.00464403722 0.060372483 0.0185761489
      0.0371522978 0.00928807445 0.00464403722 0.00464403722
      0.0185761489 0.0185761489 0.0835926682 0. 0.0232201852
      0.0139321117 0.0278642233 0.00928807445 0.0139321117 0.0325082578
      0.0185761489 0.111456893 0.0325082578 0. 0.11610093 0.0371522978
      0.0464403704 0. 0.0371522978 0.0278642233 0.0325082578
      0.0325082578 0.00928807445 0.0232201852 0.00928807445 0.0371522978
      0.0417963341 0.0650165156 0.060372483 0.0232201852 0.176473409 0.
      0.0185761489 0. 0.00464403722 0.0185761489 0.00928807445
      0.0371522978 0.0557284467 0.0139321117 0.0371522978 0.0139321117
      0. 0.0232201852 0.0232201852 0.00464403722 0.153253227 0.
      0.0278642233 0.0371522978 0.0185761489 0.0185761489 0.00464403722
      0.0464403704 0.0417963341 0.0139321117 0.0139321117 0.060372483
      0.00928807445 0.00928807445 0.0278642233 0.0650165156 0.120744966
      0.143965155 0.0139321117 0.00928807445 0.0139321117 0.0278642233
      0.0325082578 0.0232201852 0.0278642233 0.0510844067 0.00464403722
      0.102168813 0.0185761489 0. 0.0185761489 0.0185761489 0.0464403704
      0. 0.0232201852 0. 0.0789486319 0.0185761489 0. 0. 0.0743045956
      0.0325082578 0.218269736 0.0185761489 0.0371522978 0.0185761489
      0.0278642233 0.0464403704 0.0371522978 0.0417963341 0.0232201852
      0.0139321117 0.0325082578 0.00464403722 0.00928807445 0.0278642233
      0.00464403722 0.0232201852 0.0139321117 0.0510844067 0.0325082578
      0.0650165156 0.0696605593 0.00464403722 0.0882367045 0.0139321117
      0. 0.0139321117 0.0371522978 0.0325082578 0.00928807445
      0.0464403704 0.0232201852 0.0185761489 0.0139321117 0.130033031 0.
      0. 0.0139321117 0.0325082578 0.0139321117 0.0232201852
      0.0325082578 0.120744966 0.0139321117 0.0371522978 0. 0.0835926682
      0.0139321117 0.0232201852 0.0139321117 0.0232201852 0.0371522978
      0.0185761489 0.0139321117 0.0464403704 0.0557284467 0.153253227 0.
      0.00464403722 0.0232201852 0.0232201852 0.0789486319 0.0139321117
      0.0185761489 0.0371522978 0.0371522978 0.060372483 0.00464403722
      0.0232201852 0.0510844067 0.00464403722 0.00928807445 0.0232201852
      0.0185761489 0.00928807445 0.0417963341 0.00464403722 0.0325082578
      0.0510844067 0.0185761489 0.0185761489 0.0232201852 0.0510844067
      0.0139321117 0.0325082578 0.0371522978 0.0650165156 0.0232201852
      0.0232201852 0.00928807445 0.0139321117 0.00464403722 0.060372483
      0.0278642233 0.0185761489 0.00464403722 0. 0.0417963341 0.
      0.00928807445 0.0185761489 0.0743045956 0.0464403704 0.
      0.00928807445 0.0232201852 0.0417963341 0.0139321117 0.111456893
      0.0696605593 0.0510844067 0.0510844067 0.0371522978 0.0185761489
      0.0510844067 0.0278642233 0.0557284467 0.060372483 0.00928807445
      0.0325082578 0.0743045956 0.0185761489 0.0232201852 0.0650165156
      0.0510844067 0.00464403722 0.0510844067 0.0464403704 0.0325082578
      0.0417963341 0.0371522978 0.0743045956 0.0139321117 0.0417963341
      0.0185761489 0.0185761489 0.0185761489 0.0232201852 0.0139321117
      0.0650165156 0. 0.00464403722 0.603724837 0.0510844067
      0.00928807445 0.125388995 0.0696605593 0.0185761489 0.0185761489
      0.0185761489 0.00464403722 0.0464403704 0.10681285 0. 0.0185761489
      0.0325082578 0.0371522978 0.00464403722 0.00928807445 0.0696605593
      0.00928807445 0.0232201852 0.0417963341 0. 0.0325082578
      0.0185761489 0.00928807445 0.0371522978 0.0464403704 0.00464403722
      0.0464403704 0.0696605593 0.060372483 0.0139321117 0.060372483
      0.00928807445 0.0325082578 0.0417963341 0.0139321117 0.060372483
      0.0650165156 0.0232201852 0.0464403704 0. 0.0139321117
      0.00928807445 0.120744966 0.00464403722 0.00928807445 0.0232201852
      0.171829373 0.060372483 0.0139321117 0.0417963341 0.0417963341 0.
      0.00928807445 0.0185761489 0.00928807445</_>
    <_>
      0.0360638313 0.00919274148 0.00601063855 0.0321745947 0.0788454339
      0.00247496879 0.0127284108 0.00919274148 0.134355456 0.0399530679
      0.065056324 0.195876107 0.0392459333 0.0155569464 0.0431351699
      0.0144962454 0.0424280353 0.00954630785 0.0187390503 0.0275782235
      0.0106070088 0.0682384223 0.00565707171 0.0452565737 0.0127284108
      0.122687742 0.0258103888 0.0187390503 0.0770775974 0.018385483
      0.00989987515 0.0272246562 0.0130819781 0.00459637074 0.0565707162
      0.0682384223 0.00601063855 0.0187390503 0.00707133953 0.042074468
      0.016264081 0.0077784732 0.074956201 0.017324781 0.035710264
      0.0038892366 0.00707133953 0.0187390503 0.0106070088 0.0247496888
      0.091220282 0.128698379 0.131526917 0.0385387987 0.0898060128
      0.0735419318 0.00459637074 0.0784918666 0.0155569464 0.0353566967
      0.0834418088 0.0371245332 0.0180319156 0.00848560687 0.0127284108
      0.0169712137 0.170065716 0.0314674601 0.0109605761 0.0311138928
      0.00671777222 0.038892366 0.00954630785 0.0144962454 0.0148498127
      0.019446183 0.0371245332 0.154155195 0.0286389254 0.0077784732
      0.0113141434 0.0190926157 0.0378316641 0.0473779738 0.120212771
      0.0137891117 0.0247496888 0.116677098 0.0968773514 0. 0.0166176483
      0.01520338 0.0123748444 0.084148936 0.035710264 0.0116677098
      0.0166176483 0.0304067601 0.0243961215 0.00530350441 0.156983733
      0.0081320405 0.032528162 0.0169712137 0.00459637074 0.016264081
      0.00530350441 0.0243961215 0.167237177 0.00671777222 0.00565707171
      0.0038892366 0.139305383 0.0293460581 0.00636420539 0.0314674601
      0.00742490636 0.130466208 0.0293460581 0.0247496888 0.00954630785
      0.0134355444 0.0555100143 0.097584486 0.0296996254 0.13576971
      0.00954630785 0.00883917417 0.0410137698 0.0120212771 0.0120212771
      0.0289924908 0.00919274148 0.019446183 0.00601063855 0.0427816026
      0.0123748444 0.0159105137 0.00989987515 0.035710264 0.0201533176
      0.115262836 0.121273473 0.137537554 0.0919274092 0.0657634586
      0.00919274148 0.0293460581 0.0364173986 0.0452565737 0.0353566967
      0.0106070088 0.0236889869 0.0434887372 0.00636420539 0.0307603274
      0.0215675849 0.0781382993 0.0109605761 0.0516207777 0.0364173986
      0.0374781005 0.00565707171 0.0116677098 0.00318210269 0.0261639562
      0.0113141434 0.0463172719 0.0148498127 0.0692991242 0.0109605761
      0.00636420539 0.00989987515 0.0579849817 0.136830419 0.00282853586
      0.0113141434 0.0106070088 0.0187390503 0.0834418088 0.00636420539
      0.0236889869 0.0576314181 0.0473779738 0.0130819781 0.032528162
      0.0261639562 0.00919274148 0.0144962454 0.0144962454 0.0890988782
      0.0866239071 0.0632884875 0.00954630785 0.00954630785 0.0406602025
      0.00636420539 0.0141426791 0.0296996254 0.00424280344 0.0190926157
      0.0226282869 0.0502065085 0.0700062588 0.00459637074 0.0251032542
      0.00989987515 0.13576971 0.0123748444 0.164408639 0.0144962454
      0.0106070088 0.0120212771 0.0293460581 0.0229818523 0.0120212771
      0.0236889869 0.00530350441 0.0403066352 0.123041309 0.0106070088
      0.123748437 0.0116677098 0.0905131474 0.0251032542 0.018385483
      0.131526917 0.00848560687 0.0523279123 0.0318210274 0.0219211522
      0.00954630785 0.051974345 0.0526814796 0.0438423045 0.0929881111
      0.0512672104 0.0296996254 0.0809668377 0.0314674601 0.0169712137
      0.0134355444 0.204008147 0.0385387987 0.0113141434 0.0229818523
      0.00494993757 0.071420528 0.0721276626 0.0144962454 0.0321745947
      0.00919274148 0.134355456 0.0767240301 0.130112648 0.0240425542
      0.0109605761 0.0127284108 0.0410137698 0.0905131474 0.051974345
      0.12162704 0.042074468 0.0130819781 0.102180853 0.0321745947
      0.0127284108 0.00989987515 0.0077784732 0.0134355444 0.016264081
      0.0109605761 0.0392459333 0.0304067601 0.0424280353 0.0258103888
      0.0077784732 0.0212140176 0.0360638313 0.155923039 0.0187390503
      0.189511895 0.0137891117 0.00671777222 0. 0.00883917417
      0.00954630785 0.10819149 0.00636420539 0.017324781 0.0116677098
      0.0304067601 0.0134355444 0.109959327 0.0664705932 0.00601063855
      0.00671777222 0.0272246562 0.106070094 0.0707133934</_>
    <_>
      0.0256013591 0.00333930762 0.000556551269 0.021148948 0.0322799757
      0.00222620508 0.00278275646 0.00111310254 0.134685412 0.0139137823
      0.0200358462 0.0962833688 0.00890482031 0.00111310254 0.0139137823
      0.0122441286 0.0322799757 0.00222620508 0.0128006795 0.007791718
      0.00946137216 0.0589944348 0.00556551293 0.02615791 0.0194792952
      0.110753708 0.00612206431 0.00333930762 0.0857089013 0.0111310259
      0.007791718 0.00222620508 0.00834826939 0.00612206431 0.0239317045
      0.0339496285 0.00166965381 0.007791718 0.00111310254 0.0278275646
      0.0150268851 0.00834826939 0.0100179231 0.00946137216 0.0222620517
      0.000556551269 0.003895859 0.00890482031 0.00278275646
      0.0178096406 0.0356192812 0.0717951134 0.100179233 0.0183661915
      0.0367323831 0.0194792952 0.00445241015 0.0272710137 0.00667861523
      0.0144703332 0.0973964781 0.0111310259 0.0178096406 0.00222620508
      0.0116875768 0.00667861523 0.109640606 0.0144703332 0.00612206431
      0.00500896154 0.007791718 0.031166872 0.00333930762 0.00278275646
      0.00946137216 0.0116875768 0.0306103211 0.160843328 0.0144703332
      0.000556551269 0.0150268851 0.0100179231 0.0189227443 0.0100179231
      0.336156964 0.0100179231 0.00222620508 0.084595792 0.0205923971 0.
      0.0128006795 0.00556551293 0.007791718 0.042297896 0.015583436
      0.00111310254 0.0128006795 0.0183661915 0.00890482031
      0.00166965381 0.134128854 0.00333930762 0.057324782 0.015583436
      0.00445241015 0.00890482031 0.00222620508 0.00946137216
      0.287737012 0.0384020396 0.00222620508 0.00111310254 0.0834826902
      0.00556551293 0.00556551293 0.0111310259 0.00445241015 0.104075089
      0.0116875768 0.0189227443 0.00500896154 0.00890482031 0.0200358462
      0.0172530897 0.00834826939 0.0795868337 0.000556551269 0.010574474
      0.0283841155 0.003895859 0.00222620508 0.0183661915 0.0100179231
      0.00890482031 0.00166965381 0.0740213245 0.00445241015
      0.00166965381 0.003895859 0.0133572305 0.0166965388 0.042297896
      0.115762666 0.0667861551 0.0601075403 0.021148948 0.000556551269
      0.0256013591 0.0439675525 0.042297896 0.0150268851 0.00556551293
      0.0200358462 0.0417413451 0.00166965381 0.0228186026 0.042297896
      0.097953029 0.00166965381 0.0450806543 0.0150268851 0.0317234248
      0.00278275646 0.00500896154 0.003895859 0.0172530897 0.00111310254
      0.0133572305 0.00111310254 0.0239317045 0.010574474 0.00500896154
      0.00222620508 0.0205923971 0.242099807 0.00500896154 0.0133572305
      0.0111310259 0.00834826939 0.0228186026 0.00500896154 0.0100179231
      0.0133572305 0.0239317045 0.00890482031 0.0122441286 0.0116875768
      0.00445241015 0.0100179231 0.0100179231 0.0417413451 0.0667861551
      0.0233751535 0.00500896154 0.00667861523 0.015583436 0.00111310254
      0.00222620508 0.0256013591 0.00111310254 0.00111310254
      0.0244882572 0.0256013591 0.0133572305 0.00166965381 0.00445241015
      0.0122441286 0.423535526 0.007791718 0.220950857 0.00723516662
      0.010574474 0.021148948 0.007791718 0.0189227443 0.0116875768
      0.0205923971 0.00222620508 0.0528723709 0.0406282432 0.00890482031
      0.20926328 0.00445241015 0.0228186026 0.0150268851 0.0139137823
      0.0617771931 0.00445241015 0.0250448082 0.0150268851 0.0178096406
      0.00834826939 0.0812564865 0.0150268851 0.0133572305 0.031166872
      0.0172530897 0.00890482031 0.0283841155 0.010574474 0.0116875768
      0.00111310254 0.115206115 0.101848885 0.00834826939 0.00667861523
      0.00333930762 0.0417413451 0.0228186026 0.00667861523 0.0122441286
      0.010574474 0.0690123588 0.0595509857 0.0562116802 0.0200358462
      0.00222620508 0.00556551293 0.0166965388 0.0345061794 0.0406282432
      0.0322799757 0.0100179231 0.00556551293 0.0400716923 0.0139137823
      0.00890482031 0.00500896154 0.0116875768 0.0122441286
      0.00111310254 0.0128006795 0.0250448082 0.0128006795 0.0317234248
      0.0233751535 0.00333930762 0.00946137216 0.0250448082 0.0606640913
      0.00834826939 0.353410065 0.00445241015 0.00445241015
      0.00111310254 0.00278275646 0.0122441286 0.11242336 0.00166965381
      0.00667861523 0.00667861523 0.0317234248 0.00333930762
      0.0294972174 0.0116875768 0.00445241015 0.003895859 0.0111310259
      0.0317234248 0.042297896</_>
    <_>
      0.0304726101 0.017140843 0.00285680708 0.0142840361 0.0390430316
      0.000952269067 0.00285680708 0.000952269067 0.566600084
      0.0380907618 0.0447566472 0.0333294161 0.00857042149 0.00380907627
      0.0123794973 0.0190453809 0.0618974902 0.00380907627 0.0466611832
      0.00952269044 0.0466611832 0.0399953015 0.00666588359 0.0399953015
      0.0161885731 0.0533270687 0.0352339558 0.00476134522 0.0857042149
      0.0333294161 0.0209499188 0.00380907627 0.0609452203 0.00952269044
      0.048565723 0.048565723 0.000952269067 0.0590406805 0.
      0.0561838746 0.0152363051 0.0228544567 0.0457089134 0.0152363051
      0.0457089134 0.000952269067 0.0114272283 0.00285680708
      0.00285680708 0.0180931129 0.0514225289 0.0304726101 0.0371384919
      0.050470259 0.0942746326 0.0380907618 0.00476134522 0.0180931129
      0.0104749594 0.0333294161 0.0571361445 0.00952269044 0.0142840361
      0.00857042149 0.00666588359 0.0247589946 0.0295203403 0.0561838746
      0.0209499188 0.00952269044 0.0209499188 0.0761815235 0.00190453813
      0.00952269044 0.00857042149 0.0323771462 0.0409475677 0.0742769837
      0.0190453809 0.00761815254 0.0228544567 0.0180931129 0.0495179892
      0.0580884106 0.0399953015 0.0285680722 0.00380907627 0.0571361445
      0.0914178267 0. 0.0123794973 0.0285680722 0.0304726101
      0.0295203403 0.00952269044 0.00190453813 0.048565723 0.0123794973
      0.0190453809 0. 0.111415476 0.00571361417 0.161885738 0.0152363051
      0.0190453809 0.0190453809 0.00571361417 0.0133317672 0.299964756
      0.0599929504 0.0114272283 0.00571361417 0.196167424 0.0190453809
      0.0133317672 0.0733247176 0.00476134522 0.0580884106 0.0266635343
      0.0104749594 0.00571361417 0.0228544567 0.0295203403 0.0333294161
      0.0409475677 0.0371384919 0.00285680708 0.0104749594 0.00476134522
      0.0104749594 0.00380907627 0.082847409 0.0133317672 0.0104749594
      0.0180931129 0.0818951353 0.00285680708 0.00285680708 0.0257112645
      0.0409475677 0.0114272283 0.0238067266 0.050470259 0.148553967
      0.0476134531 0.0295203403 0.000952269067 0.0628497601 0.0247589946
      0.050470259 0.0152363051 0.00761815254 0.017140843 0.0333294161
      0.00476134522 0.0371384919 0.0409475677 0.0666588321 0.00476134522
      0.0542793348 0.03142488 0.0409475677 0.0276158024 0.00571361417
      0.00380907627 0.0257112645 0.0152363051 0.0980837122 0.00476134522
      0.0438043773 0.0409475677 0.00190453813 0.00285680708 0.017140843
      0.017140843 0.0114272283 0.0199976508 0.0295203403 0.0266635343
      0.0390430316 0.00476134522 0.0228544567 0.0219021887 0.0295203403
      0.000952269067 0.0266635343 0.0114272283 0.0409475677 0.0238067266
      0.0114272283 0.0857042149 0.0438043773 0.0228544567 0.0257112645
      0.0180931129 0.017140843 0.00285680708 0. 0.0266635343
      0.000952269067 0.000952269067 0.0228544567 0.0333294161
      0.0390430316 0.00571361417 0.0142840361 0.00761815254 0.0495179892
      0.0123794973 0.0238067266 0.0342816859 0.0238067266 0.0152363051
      0.0152363051 0.017140843 0.0647542924 0.017140843 0.0123794973
      0.110463209 0.0466611832 0.0219021887 0.259969443 0.00952269044
      0.0352339558 0.0457089134 0.0161885731 0.0295203403 0.0152363051
      0.0380907618 0.03142488 0.0857042149 0.0257112645 0.0533270687
      0.03142488 0.0523747988 0.0523747988 0.0371384919 0.0114272283
      0.0228544567 0.017140843 0.0285680722 0.00285680708 0.0161885731
      0.173312962 0.0133317672 0.00857042149 0.0142840361 0.0457089134
      0.0333294161 0.0323771462 0.0238067266 0.00666588359 0.0247589946
      0.0676111057 0.079990603 0.0238067266 0.00952269044 0.0152363051
      0.0333294161 0.0361862257 0.0780860633 0.0590406805 0.0190453809
      0.0104749594 0.103797324 0.0304726101 0.0247589946 0.00285680708
      0.00952269044 0.03142488 0.00380907627 0.0209499188 0.0571361445
      0.0247589946 0.00761815254 0.0266635343 0.00190453813 0.0228544567
      0.0647542924 0.101892792 0.0304726101 0.00952269044 0.0152363051
      0.00761815254 0.00285680708 0.0133317672 0.0228544567 0.0704679117
      0.000952269067 0.00666588359 0.00761815254 0.104749598
      0.0142840361 0.065706566 0.0295203403 0.017140843 0.00476134522
      0.0285680722 0.143792629 0.03142488</_>
    <_>
      0.0336581096 0.0894779414 0.0209151227 0.0854611322 0.0373979025
      0.0241008699 0.0479247198 0.0166212898 0.0253474656 0.0634379238
      0.0512489751 0.00872617681 0.0512489751 0.032134492 0.0609447286
      0.0681472868 0.0434923731 0.0166212898 0.0523570627 0.055681318
      0.093771778 0.0372593924 0.090309009 0.0393370502 0.0558198318
      0.00955724157 0.0799207017 0.039891094 0.00789511297 0.0577589795
      0.090863049 0.0537421703 0.0519415289 0.0892009214 0.0448774807
      0.0378134325 0.0299183205 0.0741032511 0.0265940633 0.0387830101
      0.0778430402 0.085876666 0.0315804519 0.0696709082 0.00332425791
      0.0268710852 0.0900319815 0.0462625884 0.0274251271 0.0681472868
      0.0346276872 0.0150976712 0.00609447295 0.0513874851 0.0318574719
      0.0446004607 0.035458751 0.0527725928 0.0739647374 0.0757653788
      0.0317189619 0.0482017398 0.0519415289 0.078258574 0.080059208
      0.0777045265 0.00761809107 0.0371208787 0.0869847462 0.0558198318
      0.0886468738 0.0422457792 0.0436308831 0.0458470583 0.0718870759
      0.055542808 0.00526340818 0.0297798105 0.0764579326 0.0513874851
      0.0711945221 0.0725796297 0.0451545045 0.0523570627 0.0206381008
      0.0637149438 0.0333810896 0.00457085483 0.0256244875
      0.000415532239 0.0828294232 0.0836604908 0.0890624076 0.0414147116
      0.0815828294 0.0206381008 0.0606677085 0.0824138969 0.0710560158
      0.0146821393 0.011773413 0.0718870759 0.00540191913 0.0601136647
      0.0854611322 0.0692553744 0.0898934752 0.0603906848 0.0243778918
      0.0946028382 0.0993122011 0.0246549118 0.0101112844 0.055127278
      0.095572412 0.0378134325 0.0340736434 0.0142666064 0.0548502542
      0.0724411234 0.0624683462 0.0843530446 0.0324115157 0.040029604
      0.0693938807 0.0457085446 0.0141280964 0.0850455984 0.0792281479
      0.0765964389 0.0407221578 0.0542962141 0.075349845 0.0687013268
      0.078258574 0.00623298343 0.0245164018 0.0282561928 0.0883698538
      0.0731336772 0.0772889927 0.0368438587 0.0164827779 0.0121889459
      0.0263170414 0.0403066278 0.0361513048 0.0502794012 0.0441849269
      0.039752584 0.0743802711 0.0862921923 0.067454733 0.0268710852
      0.0246549118 0.0524955727 0.0470936522 0.00277021481 0.0234083161
      0.0324115157 0.0542962141 0.0603906848 0.0849070847 0.0825524032
      0.0314419381 0.0649615377 0.0764579326 0.0612217486 0.023685338
      0.0289487466 0.0851841122 0.0414147116 0.032273002 0.0573434494
      0.0247934237 0.0547117442 0.0840760246 0.078258574 0.0936332643
      0.0296413004 0.0437693968 0.0684243068 0.0513874851 0.0601136647
      0.0331040695 0.0724411234 0.0558198318 0.0783970803 0.0815828294
      0.0710560158 0.032134492 0.0361513048 0.0602521747 0.0729951635
      0.0761809126 0.0669006929 0.035320241 0.0162057579 0.0570664257
      0.0135740535 0.0243778918 0.0452930145 0.0157902259 0.0293642785
      0.0590055771 0.0534651466 0.0869847462 0.00290872576 0.0747958049
      0.00858766586 0.0767349526 0.0936332643 0.0664851591 0.0724411234
      0.067454733 0.0506949313 0.0536036603 0.075072825 0.0289487466
      0.0270095952 0.090309009 0.0293642785 0.0688398406 0.0459855683
      0.0713330358 0.070917502 0.0409991816 0.0836604908 0.0347661972
      0.0566508956 0.0472321659 0.0860151723 0.00373979006 0.0775660202
      0.0411376916 0.0342121534 0.0439079069 0.0725796297 0.0522185527
      0.0468166322 0.0774275064 0.0164827779 0.0403066278 0.00581745151
      0.0874002799 0.0373979025 0.0624683462 0.0297798105 0.0585900471
      0.0789511278 0.0736877173 0.0853226185 0.019807037 0.00277021481
      0.0289487466 0.0578974932 0.0656540915 0.0795051679 0.0490328036
      0.0297798105 0.0279791709 0.0537421703 0.059836641 0.0900319815
      0.0234083161 0.0723026097 0.0739647374 0.0225772522 0.0947413519
      0.0763194188 0.0217461865 0.0855996385 0.0603906848 0.055542808
      0.0746572912 0.0759038851 0.0315804519 0.0639919639 0.047509186
      0.0308878962 0.0723026097 0.00193915039 0.075072825 0.0885083675
      0.0188374612 0.0946028382 0.0853226185 0.00207766122 0.0361513048
      0.0835219771 0.0731336772 0.00581745151 0.0764579326 0.0447389707
      0.0595596209 0.0775660202 0.0408606716 0.0801977217 0.0401681177
      0.0393370502</_>
    <_>
      0.076720573 0.0306882281 0. 0.0204588193 0.0460323431 0. 0.
      0.00511470484 0.0818352774 0.015344114 0.0204588193 0.112523504
      0.0102294097 0.0204588193 0.0255735237 0.0358029343 0.163670555 0.
      0.0409176387 0.0204588193 0.0255735237 0.0664911568 0.0102294097
      0.0460323431 0.0460323431 0.117638208 0.0562617518 0.0204588193
      0.0562617518 0.0511470474 0.015344114 0. 0.0664911568 0.0102294097
      0.0511470474 0.0613764562 0. 0.0255735237 0. 0.0818352774
      0.015344114 0.0306882281 0.0511470474 0.0409176387 0.0460323431 0.
      0.0204588193 0.0102294097 0.0102294097 0.015344114 0.0562617518
      0.0716058686 0.0664911568 0.0511470474 0.107408799 0.0716058686 0.
      0.0511470474 0.0306882281 0.0204588193 0.102294095 0.015344114
      0.0204588193 0.0306882281 0.0306882281 0.015344114 0.117638208
      0.0716058686 0.0358029343 0.015344114 0.0204588193 0.0971793905
      0.00511470484 0. 0.0358029343 0.0920646861 0.0409176387
      0.0562617518 0.0460323431 0.0102294097 0.0460323431 0.0306882281
      0.117638208 0.0358029343 0.0358029343 0.0818352774 0.00511470484
      0.0818352774 0.122752912 0. 0.0306882281 0.0306882281 0.0306882281
      0.0613764562 0.0102294097 0.00511470484 0.0664911568 0.0255735237
      0.0204588193 0.00511470484 0.0409176387 0.015344114 0.117638208
      0.015344114 0.00511470484 0.0204588193 0.0255735237 0.0102294097
      0.0818352774 0.0562617518 0.0255735237 0.0102294097 0.0460323431
      0.0255735237 0.0358029343 0.0562617518 0.00511470484 0.153441146
      0.015344114 0.0255735237 0.00511470484 0.0358029343 0.0358029343
      0.0204588193 0.0818352774 0.153441146 0.00511470484 0.0204588193
      0.0306882281 0.0204588193 0.015344114 0.0664911568 0.0102294097
      0.015344114 0.0255735237 0.0460323431 0.00511470484 0.
      0.0460323431 0.0204588193 0.0204588193 0.0818352774 0.15855585
      0.0920646861 0.102294095 0.0460323431 0. 0.117638208 0.0358029343
      0.117638208 0.0358029343 0.0102294097 0.0511470474 0.0818352774
      0.00511470484 0.0460323431 0.0460323431 0.0613764562 0.
      0.0971793905 0.0204588193 0.0716058686 0.112523504 0.0358029343 0.
      0.0511470474 0.0306882281 0.0358029343 0.00511470484 0.076720573
      0.0613764562 0. 0.0102294097 0.015344114 0.0511470474 0.
      0.0409176387 0.0409176387 0.015344114 0.0358029343 0.0204588193
      0.0102294097 0.0562617518 0.0358029343 0.0102294097 0.0306882281
      0.0255735237 0.0562617518 0.0460323431 0.0102294097 0.0716058686
      0.122752912 0.0358029343 0.0358029343 0.0409176387 0.0204588193
      0.00511470484 0.0102294097 0.0818352774 0. 0.00511470484
      0.0716058686 0.117638208 0.0971793905 0. 0. 0.015344114
      0.153441146 0.0204588193 0.0460323431 0.0358029343 0.0255735237
      0.0562617518 0.0460323431 0.0306882281 0.0511470474 0.0409176387
      0.0255735237 0.112523504 0.0511470474 0.0460323431 0.0716058686
      0.0102294097 0.0358029343 0.0818352774 0.0358029343 0.0920646861
      0.0255735237 0.0869499817 0.0562617518 0.0613764562 0.015344114
      0.0511470474 0.0358029343 0.148326442 0.0613764562 0.0358029343
      0.0306882281 0.015344114 0.0664911568 0.0255735237 0. 0.0255735237
      0.168785259 0.0358029343 0.00511470484 0.0511470474 0.0664911568
      0.0971793905 0.0358029343 0.0409176387 0.0102294097 0.0460323431
      0.127867609 0.117638208 0.0306882281 0.015344114 0.015344114
      0.0409176387 0.0869499817 0.112523504 0.0562617518 0.0306882281
      0.0460323431 0.0869499817 0.0409176387 0.0460323431 0.
      0.0204588193 0.015344114 0.00511470484 0.0255735237 0.15855585
      0.0562617518 0.0358029343 0.0511470474 0.00511470484 0.00511470484
      0.0562617518 0.127867609 0.0562617518 0.117638208 0.0204588193
      0.0255735237 0.00511470484 0.0102294097 0.0204588193 0.102294095
      0. 0.0255735237 0.00511470484 0.0920646861 0.00511470484
      0.0818352774 0.0460323431 0.0255735237 0. 0.0460323431 0.179014668
      0.0562617518</_></support_vectors>
  <decision_functions>
    <_>
      <sv_count>18</sv_count>
      <rho>-1.0415077769116841</rho>
      <alpha>
        2.5489755274110068e-07 2.0373182397322316e-07
        1.6322174516823237e-07 8.9153336222296801e-08
        1.2498600900503406e-08 1.707431746699399e-08
        1.7906403848146308e-07 1.835581324040649e-07
        7.4357159369458847e-08 4.8871305921562181e-08
        -2.3926162707862648e-07 -1.5986452911898629e-07
        -9.4091065778378415e-08 -2.8382714155412702e-07
        -1.0842507079213281e-07 -1.2206192879347167e-07
        -1.7988248689665061e-07 -3.9014162636526049e-08</alpha>
      <index>
        10 17 16 15 14 13 12 11 9 8 0 7 6 5 4 3 2 1</index></_></decision_functions></opencv_ml_svm>
</opencv_storage>
